svm_type one_class
kernel_type linear
nr_class 2
total_sv 1004
rho 253.6937163466461
SV
1.0 0:1.0 1:0.0 2:0.0 3:0.0 4:0.0 5:0.0 6:0.0 7:0.0 8:0.0 9:0.0 10:0.0 11:0.0 12:0.0 13:0.0 14:0.0 15:0.0 16:0.0 17:0.0 18:0.0 19:0.0 20:0.0 21:0.0 22:0.0 23:0.0 24:0.0 25:0.0 26:0.0 27:0.0 28:0.0 29:0.0 30:0.0 31:0.0 32:0.0 33:0.0 34:0.0 35:0.0 36:0.0 37:0.0 38:0.0 39:0.0 40:0.0 41:0.0 42:0.0 43:0.0 44:0.0 45:0.0 46:0.0 47:0.0 48:0.0 49:0.0 50:0.0 51:0.0 52:0.0 53:0.0 54:0.0 55:0.0 56:0.0 57:0.0 58:0.0 
1.0 0:1.0 1:0.0 2:0.0 3:0.0 4:0.0 5:0.0 6:0.0 7:0.0 8:0.0 9:0.0 10:0.0 11:0.0 12:0.0 13:0.0 14:0.0 15:0.0 16:0.0 17:0.0 18:0.0 19:0.0 20:0.0 21:0.0 22:0.0 23:0.0 24:0.0 25:0.0 26:0.0 27:0.0 28:0.0 29:0.0 30:0.0 31:0.0 32:0.0 33:0.0 34:0.0 35:0.0 36:0.0 37:0.0 38:0.0 39:0.0 40:0.0 41:0.0 42:0.0 43:0.0 44:0.0 45:0.0 46:0.0 47:0.0 48:0.0 49:0.0 50:0.0 51:0.0 52:0.0 53:0.0 54:0.0 55:0.0 56:0.0 57:0.0 58:0.0 
1.0 0:1.0 1:0.0 2:0.0 3:0.0 4:0.0 5:0.0 6:0.0 7:0.0 8:0.0 9:0.0 10:0.0 11:0.0 12:0.0 13:0.0 14:0.0 15:0.0 16:0.0 17:0.0 18:0.0 19:0.0 20:0.0 21:0.0 22:0.0 23:0.0 24:0.0 25:0.0 26:0.0 27:0.0 28:0.0 29:0.0 30:0.0 31:0.0 32:0.0 33:0.0 34:0.0 35:0.0 36:0.0 37:0.0 38:0.0 39:0.0 40:0.0 41:0.0 42:0.0 43:0.0 44:0.0 45:0.0 46:0.0 47:0.0 48:0.0 49:0.0 50:0.0 51:0.0 52:0.0 53:0.0 54:0.0 55:0.0 56:0.0 57:0.0 58:0.0 
1.0 0:1.0 1:0.0 2:0.0 3:0.0 4:0.0 5:0.0 6:0.0 7:0.0 8:0.0 9:0.0 10:0.0 11:0.0 12:0.0 13:0.0 14:0.0 15:0.0 16:0.0 17:0.0 18:0.0 19:0.0 20:0.0 21:0.0 22:0.0 23:0.0 24:0.0 25:0.0 26:0.0 27:0.0 28:0.0 29:0.0 30:0.0 31:0.0 32:0.0 33:0.0 34:0.0 35:0.0 36:0.0 37:0.0 38:0.0 39:0.0 40:0.0 41:0.0 42:0.0 43:0.0 44:0.0 45:0.0 46:0.0 47:0.0 48:0.0 49:0.0 50:0.0 51:0.0 52:0.0 53:0.0 54:0.0 55:0.0 56:0.0 57:0.0 58:0.0 
1.0 0:1.0 1:0.0 2:0.0 3:0.0 4:0.0 5:0.0 6:0.0 7:0.0 8:0.0 9:0.0 10:0.0 11:0.0 12:0.0 13:0.0 14:0.0 15:0.0 16:0.0 17:0.0 18:0.0 19:0.0 20:0.0 21:0.0 22:0.0 23:0.0 24:0.0 25:0.0 26:0.0 27:0.0 28:0.0 29:0.0 30:0.0 31:0.0 32:0.0 33:0.0 34:0.0 35:0.0 36:0.0 37:0.0 38:0.0 39:0.0 40:0.0 41:0.0 42:0.0 43:0.0 44:0.0 45:0.0 46:0.0 47:0.0 48:0.0 49:0.0 50:0.0 51:0.0 52:0.0 53:0.0 54:0.0 55:0.0 56:0.0 57:0.0 58:0.0 
1.0 0:1.0 1:0.0 2:0.0 3:0.0 4:0.0 5:0.0 6:0.0 7:0.0 8:0.0 9:0.0 10:0.0 11:0.0 12:0.0 13:0.0 14:0.0 15:0.0 16:0.0 17:0.0 18:0.0 19:0.0 20:0.0 21:0.0 22:0.0 23:0.0 24:0.0 25:0.0 26:0.0 27:0.0 28:0.0 29:0.0 30:0.0 31:0.0 32:0.0 33:0.0 34:0.0 35:0.0 36:0.0 37:0.0 38:0.0 39:0.0 40:0.0 41:0.0 42:0.0 43:0.0 44:0.0 45:0.0 46:0.0 47:0.0 48:0.0 49:0.0 50:0.0 51:0.0 52:0.0 53:0.0 54:0.0 55:0.0 56:0.0 57:0.0 58:0.0 
1.0 0:1.0 1:0.0 2:0.0 3:0.0 4:0.0 5:0.0 6:0.0 7:0.0 8:0.0 9:0.0 10:0.0 11:0.0 12:0.0 13:0.0 14:0.0 15:0.0 16:0.0 17:0.0 18:0.0 19:0.0 20:0.0 21:0.0 22:0.0 23:0.0 24:0.0 25:0.0 26:0.0 27:0.0 28:0.0 29:0.0 30:0.0 31:0.0 32:0.0 33:0.0 34:0.0 35:0.0 36:0.0 37:0.0 38:0.0 39:0.0 40:0.0 41:0.0 42:0.0 43:0.0 44:0.0 45:0.0 46:0.0 47:0.0 48:0.0 49:0.0 50:0.0 51:0.0 52:0.0 53:0.0 54:0.0 55:0.0 56:0.0 57:0.0 58:0.0 
1.0 0:1.0 1:0.0 2:0.0 3:0.0 4:0.0 5:0.0 6:0.0 7:0.0 8:0.0 9:0.0 10:0.0 11:0.0 12:0.0 13:0.0 14:0.0 15:0.0 16:0.0 17:0.0 18:0.0 19:0.0 20:0.0 21:0.0 22:0.0 23:0.0 24:0.0 25:0.0 26:0.0 27:0.0 28:0.0 29:0.0 30:0.0 31:0.0 32:0.0 33:0.0 34:0.0 35:0.0 36:0.0 37:0.0 38:0.0 39:0.0 40:0.0 41:0.0 42:0.0 43:0.0 44:0.0 45:0.0 46:0.0 47:0.0 48:0.0 49:0.0 50:0.0 51:0.0 52:0.0 53:0.0 54:0.0 55:0.0 56:0.0 57:0.0 58:0.0 
1.0 0:1.0 1:0.0 2:0.0 3:0.0 4:0.0 5:0.0 6:0.0 7:0.0 8:0.0 9:0.0 10:0.0 11:0.0 12:0.0 13:0.0 14:0.0 15:0.0 16:0.0 17:0.0 18:0.0 19:0.0 20:0.0 21:0.0 22:0.0 23:0.0 24:0.0 25:0.0 26:0.0 27:0.0 28:0.0 29:0.0 30:0.0 31:0.0 32:0.0 33:0.0 34:0.0 35:0.0 36:0.0 37:0.0 38:0.0 39:0.0 40:0.0 41:0.0 42:0.0 43:0.0 44:0.0 45:0.0 46:0.0 47:0.0 48:0.0 49:0.0 50:0.0 51:0.0 52:0.0 53:0.0 54:0.0 55:0.0 56:0.0 57:0.0 58:0.0 
1.0 0:1.0 1:0.0 2:0.0 3:0.0 4:0.0 5:0.0 6:0.0 7:0.0 8:0.0 9:0.0 10:0.0 11:0.0 12:0.0 13:0.0 14:0.0 15:0.0 16:0.0 17:0.0 18:0.0 19:0.0 20:0.0 21:0.0 22:0.0 23:0.0 24:0.0 25:0.0 26:0.0 27:0.0 28:0.0 29:0.0 30:0.0 31:0.0 32:0.0 33:0.0 34:0.0 35:0.0 36:0.0 37:0.0 38:0.0 39:0.0 40:0.0 41:0.0 42:0.0 43:0.0 44:0.0 45:0.0 46:0.0 47:0.0 48:0.0 49:0.0 50:0.0 51:0.0 52:0.0 53:0.0 54:0.0 55:0.0 56:0.0 57:0.0 58:0.0 
1.0 0:1.0 1:0.0 2:0.0 3:0.0 4:0.0 5:0.0 6:0.0 7:0.0 8:0.0 9:0.0 10:0.0 11:0.0 12:0.0 13:0.0 14:0.0 15:0.0 16:0.0 17:0.0 18:0.0 19:0.0 20:0.0 21:0.0 22:0.0 23:0.0 24:0.0 25:0.0 26:0.0 27:0.0 28:0.0 29:0.0 30:0.0 31:0.0 32:0.0 33:0.0 34:0.0 35:0.0 36:0.0 37:0.0 38:0.0 39:0.0 40:0.0 41:0.0 42:0.0 43:0.0 44:0.0 45:0.0 46:0.0 47:0.0 48:0.0 49:0.0 50:0.0 51:0.0 52:0.0 53:0.0 54:0.0 55:0.0 56:0.0 57:0.0 58:0.0 
1.0 0:1.0 1:0.0 2:0.0 3:0.0 4:0.0 5:0.0 6:0.0 7:0.0 8:0.0 9:0.0 10:0.0 11:0.0 12:0.0 13:0.0 14:0.0 15:0.0 16:0.0 17:0.0 18:0.0 19:0.0 20:0.0 21:0.0 22:0.0 23:0.0 24:0.0 25:0.0 26:0.0 27:0.0 28:0.0 29:0.0 30:0.0 31:0.0 32:0.0 33:0.0 34:0.0 35:0.0 36:0.0 37:0.0 38:0.0 39:0.0 40:0.0 41:0.0 42:0.0 43:0.0 44:0.0 45:0.0 46:0.0 47:0.0 48:0.0 49:0.0 50:0.0 51:0.0 52:0.0 53:0.0 54:0.0 55:0.0 56:0.0 57:0.0 58:0.0 
1.0 0:1.0 1:0.0 2:0.0 3:0.0 4:0.0 5:0.0 6:0.0 7:0.0 8:0.0 9:0.0 10:0.0 11:0.0 12:0.0 13:0.0 14:0.0 15:0.0 16:0.0 17:0.0 18:0.0 19:0.0 20:0.0 21:0.0 22:0.0 23:0.0 24:0.0 25:0.0 26:0.0 27:0.0 28:0.0 29:0.0 30:0.0 31:0.0 32:0.0 33:0.0 34:0.0 35:0.0 36:0.0 37:0.0 38:0.0 39:0.0 40:0.0 41:0.0 42:0.0 43:0.0 44:0.0 45:0.0 46:0.0 47:0.0 48:0.0 49:0.0 50:0.0 51:0.0 52:0.0 53:0.0 54:0.0 55:0.0 56:0.0 57:0.0 58:0.0 
1.0 0:1.0 1:0.0 2:0.0 3:0.0 4:0.0 5:0.0 6:0.0 7:0.0 8:0.0 9:0.0 10:0.0 11:0.0 12:0.0 13:0.0 14:0.0 15:0.0 16:0.0 17:0.0 18:0.0 19:0.0 20:0.0 21:0.0 22:0.0 23:0.0 24:0.0 25:0.0 26:0.0 27:0.0 28:0.0 29:0.0 30:0.0 31:0.0 32:0.0 33:0.0 34:0.0 35:0.0 36:0.0 37:0.0 38:0.0 39:0.0 40:0.0 41:0.0 42:0.0 43:0.0 44:0.0 45:0.0 46:0.0 47:0.0 48:0.0 49:0.0 50:0.0 51:0.0 52:0.0 53:0.0 54:0.0 55:0.0 56:0.0 57:0.0 58:0.0 
1.0 0:1.0 1:0.0 2:0.0 3:0.0 4:0.0 5:0.0 6:0.0 7:0.0 8:0.0 9:0.0 10:0.0 11:0.0 12:0.0 13:0.0 14:0.0 15:0.0 16:0.0 17:0.0 18:0.0 19:0.0 20:0.0 21:0.0 22:0.0 23:0.0 24:0.0 25:0.0 26:0.0 27:0.0 28:0.0 29:0.0 30:0.0 31:0.0 32:0.0 33:0.0 34:0.0 35:0.0 36:0.0 37:0.0 38:0.0 39:0.0 40:0.0 41:0.0 42:0.0 43:0.0 44:0.0 45:0.0 46:0.0 47:0.0 48:0.0 49:0.0 50:0.0 51:0.0 52:0.0 53:0.0 54:0.0 55:0.0 56:0.0 57:0.0 58:0.0 
1.0 0:1.0 1:0.0 2:0.0 3:0.0 4:0.0 5:0.0 6:0.0 7:0.0 8:0.0 9:0.0 10:0.0 11:0.0 12:0.0 13:0.0 14:0.0 15:0.0 16:0.0 17:0.0 18:0.0 19:0.0 20:0.0 21:0.0 22:0.0 23:0.0 24:0.0 25:0.0 26:0.0 27:0.0 28:0.0 29:0.0 30:0.0 31:0.0 32:0.0 33:0.0 34:0.0 35:0.0 36:0.0 37:0.0 38:0.0 39:0.0 40:0.0 41:0.0 42:0.0 43:0.0 44:0.0 45:0.0 46:0.0 47:0.0 48:0.0 49:0.0 50:0.0 51:0.0 52:0.0 53:0.0 54:0.0 55:0.0 56:0.0 57:0.0 58:0.0 
1.0 0:1.0 1:0.0 2:0.0 3:0.0 4:0.0 5:0.0 6:0.0 7:0.0 8:0.0 9:0.0 10:0.0 11:0.0 12:0.0 13:0.0 14:0.0 15:0.0 16:0.0 17:0.0 18:0.0 19:0.0 20:0.0 21:0.0 22:0.0 23:0.0 24:0.0 25:0.0 26:0.0 27:0.0 28:0.0 29:0.0 30:0.0 31:0.0 32:0.0 33:0.0 34:0.0 35:0.0 36:0.0 37:0.0 38:0.0 39:0.0 40:0.0 41:0.0 42:0.0 43:0.0 44:0.0 45:0.0 46:0.0 47:0.0 48:0.0 49:0.0 50:0.0 51:0.0 52:0.0 53:0.0 54:0.0 55:0.0 56:0.0 57:0.0 58:0.0 
1.0 0:1.0 1:0.0 2:0.0 3:0.0 4:0.0 5:0.0 6:0.0 7:0.0 8:0.0 9:0.0 10:0.0 11:0.0 12:0.0 13:0.0 14:0.0 15:0.0 16:0.0 17:0.0 18:0.0 19:0.0 20:0.0 21:0.0 22:0.0 23:0.0 24:0.0 25:0.0 26:0.0 27:0.0 28:0.0 29:0.0 30:0.0 31:0.0 32:0.0 33:0.0 34:0.0 35:0.0 36:0.0 37:0.0 38:0.0 39:0.0 40:0.0 41:0.0 42:0.0 43:0.0 44:0.0 45:0.0 46:0.0 47:0.0 48:0.0 49:0.0 50:0.0 51:0.0 52:0.0 53:0.0 54:0.0 55:0.0 56:0.0 57:0.0 58:0.0 
1.0 0:1.0 1:0.0 2:0.0 3:0.0 4:0.0 5:0.0 6:0.0 7:0.0 8:0.0 9:0.0 10:0.0 11:0.0 12:0.0 13:0.0 14:0.0 15:0.0 16:0.0 17:0.0 18:0.0 19:0.0 20:0.0 21:0.0 22:0.0 23:0.0 24:0.0 25:0.0 26:0.0 27:0.0 28:0.0 29:0.0 30:0.0 31:0.0 32:0.0 33:0.0 34:0.0 35:0.0 36:0.0 37:0.0 38:0.0 39:0.0 40:0.0 41:0.0 42:0.0 43:0.0 44:0.0 45:0.0 46:0.0 47:0.0 48:0.0 49:0.0 50:0.0 51:0.0 52:0.0 53:0.0 54:0.0 55:0.0 56:0.0 57:0.0 58:0.0 
1.0 0:1.0 1:0.0 2:0.0 3:0.0 4:0.0 5:0.0 6:0.0 7:0.0 8:0.0 9:0.0 10:0.0 11:0.0 12:0.0 13:0.0 14:0.0 15:0.0 16:0.0 17:0.0 18:0.0 19:0.0 20:0.0 21:0.0 22:0.0 23:0.0 24:0.0 25:0.0 26:0.0 27:0.0 28:0.0 29:0.0 30:0.0 31:0.0 32:0.0 33:0.0 34:0.0 35:0.0 36:0.0 37:0.0 38:0.0 39:0.0 40:0.0 41:0.0 42:0.0 43:0.0 44:0.0 45:0.0 46:0.0 47:0.0 48:0.0 49:0.0 50:0.0 51:0.0 52:0.0 53:0.0 54:0.0 55:0.0 56:0.0 57:0.0 58:0.0 
1.0 0:1.0 1:0.0 2:0.0 3:0.0 4:0.0 5:0.0 6:0.0 7:0.0 8:0.0 9:0.0 10:0.0 11:0.0 12:0.0 13:0.0 14:0.0 15:0.0 16:0.0 17:0.0 18:0.0 19:0.0 20:0.0 21:0.0 22:0.0 23:0.0 24:0.0 25:0.0 26:0.0 27:0.0 28:0.0 29:0.0 30:0.0 31:0.0 32:0.0 33:0.0 34:0.0 35:0.0 36:0.0 37:0.0 38:0.0 39:0.0 40:0.0 41:0.0 42:0.0 43:0.0 44:0.0 45:0.0 46:0.0 47:0.0 48:0.0 49:0.0 50:0.0 51:0.0 52:0.0 53:0.0 54:0.0 55:0.0 56:0.0 57:0.0 58:0.0 
1.0 0:0.058823529411764705 1:0.058823529411764705 2:0.0 3:0.0 4:0.0 5:0.0 6:0.0 7:0.0 8:0.17647058823529413 9:0.0 10:0.7058823529411765 11:0.11764705882352941 12:0.058823529411764705 13:0.0 14:0.0 15:0.058823529411764705 16:0.058823529411764705 17:0.058823529411764705 18:0.0 19:0.0 20:0.0 21:0.17647058823529413 22:0.0 23:0.0 24:0.23529411764705882 25:0.0 26:0.0 27:0.058823529411764705 28:0.0 29:0.0 30:0.0 31:0.0 32:0.0 33:0.058823529411764705 34:0.0 35:0.11764705882352941 36:0.058823529411764705 37:0.0 38:0.0 39:0.0 40:0.058823529411764705 41:0.0 42:0.058823529411764705 43:0.058823529411764705 44:0.0 45:0.0 46:0.058823529411764705 47:1.0 48:0.11764705882352941 49:0.0 50:0.0 51:0.11764705882352941 52:0.0 53:0.0 54:0.0 55:0.0 56:0.0 57:0.058823529411764705 58:0.17647058823529413 
1.0 0:1.0 1:0.0 2:0.0 3:0.0 4:0.0 5:0.0 6:0.0 7:0.0 8:0.0 9:0.0 10:0.0 11:0.0 12:0.0 13:0.0 14:0.0 15:0.0 16:0.0 17:0.0 18:0.0 19:0.0 20:0.0 21:0.0 22:0.0 23:0.0 24:0.0 25:0.0 26:0.0 27:0.0 28:0.0 29:0.0 30:0.0 31:0.0 32:0.0 33:0.0 34:0.0 35:0.0 36:0.0 37:0.0 38:0.0 39:0.0 40:0.0 41:0.0 42:0.0 43:0.0 44:0.0 45:0.0 46:0.0 47:0.0 48:0.0 49:0.0 50:0.0 51:0.0 52:0.0 53:0.0 54:0.0 55:0.0 56:0.0 57:0.0 58:0.0 
1.0 0:1.0 1:0.0 2:0.0 3:0.0 4:0.0 5:0.0 6:0.0 7:0.0 8:0.0 9:0.0 10:0.0 11:0.0 12:0.0 13:0.0 14:0.0 15:0.0 16:0.0 17:0.0 18:0.0 19:0.0 20:0.0 21:0.0 22:0.0 23:0.0 24:0.0 25:0.0 26:0.0 27:0.0 28:0.0 29:0.0 30:0.0 31:0.0 32:0.0 33:0.0 34:0.0 35:0.0 36:0.0 37:0.0 38:0.0 39:0.0 40:0.0 41:0.0 42:0.0 43:0.0 44:0.0 45:0.0 46:0.0 47:0.0 48:0.0 49:0.0 50:0.0 51:0.0 52:0.0 53:0.0 54:0.0 55:0.0 56:0.0 57:0.0 58:0.0 
1.0 0:1.0 1:0.0 2:0.0 3:0.0 4:0.0 5:0.0 6:0.0 7:0.0 8:0.0 9:0.0 10:0.0 11:0.0 12:0.0 13:0.0 14:0.0 15:0.0 16:0.0 17:0.0 18:0.0 19:0.0 20:0.0 21:0.0 22:0.0 23:0.0 24:0.0 25:0.0 26:0.0 27:0.0 28:0.0 29:0.0 30:0.0 31:0.0 32:0.0 33:0.0 34:0.0 35:0.0 36:0.0 37:0.0 38:0.0 39:0.0 40:0.0 41:0.0 42:0.0 43:0.0 44:0.0 45:0.0 46:0.0 47:0.0 48:0.0 49:0.0 50:0.0 51:0.0 52:0.0 53:0.0 54:0.0 55:0.0 56:0.0 57:0.0 58:0.0 
1.0 0:1.0 1:0.0 2:0.0 3:0.0 4:0.0 5:0.0 6:0.0 7:0.0 8:0.0 9:0.0 10:0.0 11:0.0 12:0.0 13:0.0 14:0.0 15:0.0 16:0.0 17:0.0 18:0.0 19:0.0 20:0.0 21:0.0 22:0.0 23:0.0 24:0.0 25:0.0 26:0.0 27:0.0 28:0.0 29:0.0 30:0.0 31:0.0 32:0.0 33:0.0 34:0.0 35:0.0 36:0.0 37:0.0 38:0.0 39:0.0 40:0.0 41:0.0 42:0.0 43:0.0 44:0.0 45:0.0 46:0.0 47:0.0 48:0.0 49:0.0 50:0.0 51:0.0 52:0.0 53:0.0 54:0.0 55:0.0 56:0.0 57:0.0 58:0.0 
1.0 0:0.24 1:0.0 2:0.0 3:0.04 4:0.04 5:0.24 6:0.04 7:0.0 8:0.04 9:1.0 10:0.2 11:0.0 12:0.0 13:0.04 14:0.16 15:0.0 16:0.0 17:0.0 18:0.0 19:0.0 20:0.04 21:0.0 22:0.0 23:0.0 24:0.0 25:0.0 26:0.0 27:0.0 28:0.0 29:0.0 30:0.0 31:0.0 32:0.0 33:0.16 34:0.0 35:0.0 36:0.0 37:0.0 38:0.0 39:0.0 40:0.0 41:0.0 42:0.16 43:0.0 44:0.0 45:0.0 46:0.0 47:0.0 48:0.0 49:0.0 50:0.0 51:0.04 52:0.0 53:0.0 54:0.0 55:0.0 56:0.0 57:0.0 58:0.12 
1.0 0:1.0 1:0.0 2:0.0 3:0.0 4:0.0 5:0.0 6:0.0 7:0.0 8:0.0 9:0.0 10:0.0 11:0.0 12:0.0 13:0.0 14:0.0 15:0.0 16:0.0 17:0.0 18:0.0 19:0.0 20:0.0 21:0.0 22:0.0 23:0.0 24:0.0 25:0.0 26:0.0 27:0.0 28:0.0 29:0.0 30:0.0 31:0.0 32:0.0 33:0.0 34:0.0 35:0.0 36:0.0 37:0.0 38:0.0 39:0.0 40:0.0 41:0.0 42:0.0 43:0.0 44:0.0 45:0.0 46:0.0 47:0.0 48:0.0 49:0.0 50:0.0 51:0.0 52:0.0 53:0.0 54:0.0 55:0.0 56:0.0 57:0.0 58:0.0 
1.0 0:1.0 1:0.0 2:0.0 3:0.0 4:0.0 5:0.0 6:0.0 7:0.0 8:0.0 9:0.0 10:0.0 11:0.0 12:0.0 13:0.0 14:0.0 15:0.0 16:0.0 17:0.0 18:0.0 19:0.0 20:0.0 21:0.0 22:0.0 23:0.0 24:0.0 25:0.0 26:0.0 27:0.0 28:0.0 29:0.0 30:0.0 31:0.0 32:0.0 33:0.0 34:0.0 35:0.0 36:0.0 37:0.0 38:0.0 39:0.0 40:0.0 41:0.0 42:0.0 43:0.0 44:0.0 45:0.0 46:0.0 47:0.0 48:0.0 49:0.0 50:0.0 51:0.0 52:0.0 53:0.0 54:0.0 55:0.0 56:0.0 57:0.0 58:0.0 
1.0 0:0.11764705882352941 1:0.0 2:0.0 3:0.029411764705882353 4:0.0 5:0.029411764705882353 6:0.029411764705882353 7:0.058823529411764705 8:0.058823529411764705 9:0.0 10:0.08823529411764706 11:0.058823529411764705 12:0.029411764705882353 13:0.029411764705882353 14:0.0 15:0.0 16:0.0 17:0.0 18:0.0 19:0.0 20:0.0 21:0.0 22:0.0 23:0.0 24:0.029411764705882353 25:0.0 26:0.0 27:0.0 28:0.0 29:0.0 30:0.029411764705882353 31:0.0 32:0.0 33:0.0 34:0.0 35:0.0 36:0.0 37:0.0 38:0.0 39:0.0 40:0.0 41:0.0 42:0.0 43:0.0 44:0.0 45:0.0 46:0.0 47:1.0 48:0.029411764705882353 49:0.0 50:0.0 51:0.029411764705882353 52:0.0 53:0.0 54:0.0 55:0.0 56:0.058823529411764705 57:0.058823529411764705 58:0.11764705882352941 
1.0 0:0.03571428571428571 1:0.0 2:0.0 3:0.0 4:0.03571428571428571 5:0.0 6:0.0 7:0.0 8:0.0 9:0.03571428571428571 10:0.0 11:0.0 12:0.0 13:0.0 14:0.10714285714285714 15:0.0 16:0.0 17:0.03571428571428571 18:0.0 19:0.0 20:0.0 21:0.0 22:0.0 23:0.03571428571428571 24:0.0 25:0.0 26:0.0 27:0.0 28:0.0 29:0.03571428571428571 30:0.0 31:0.0 32:0.0 33:0.0 34:0.0 35:0.0 36:0.0 37:0.07142857142857142 38:0.0 39:0.0 40:0.0 41:0.0 42:0.07142857142857142 43:1.0 44:0.07142857142857142 45:0.0 46:0.03571428571428571 47:0.17857142857142858 48:0.07142857142857142 49:0.0 50:0.0 51:0.0 52:0.0 53:0.0 54:0.0 55:0.0 56:0.10714285714285714 57:0.03571428571428571 58:0.32142857142857145 
1.0 0:0.08333333333333333 1:0.041666666666666664 2:0.0 3:0.0 4:0.0 5:0.0 6:0.041666666666666664 7:0.0 8:0.0 9:0.125 10:0.25 11:0.041666666666666664 12:0.0 13:0.08333333333333333 14:0.0 15:0.0 16:0.041666666666666664 17:0.041666666666666664 18:0.0 19:0.041666666666666664 20:0.0 21:0.0 22:0.0 23:0.0 24:0.08333333333333333 25:0.041666666666666664 26:0.0 27:0.0 28:0.0 29:0.0 30:0.0 31:0.0 32:0.0 33:0.0 34:0.0 35:0.0 36:0.0 37:0.0 38:0.0 39:0.0 40:0.0 41:0.0 42:0.041666666666666664 43:0.0 44:0.041666666666666664 45:0.0 46:0.0 47:1.0 48:0.0 49:0.0 50:0.041666666666666664 51:0.041666666666666664 52:0.0 53:0.0 54:0.0 55:0.041666666666666664 56:0.08333333333333333 57:0.08333333333333333 58:0.375 
1.0 0:0.0 1:0.0 2:0.0 3:0.0 4:0.0 5:0.0 6:0.0 7:0.0 8:0.0 9:0.0 10:0.0 11:0.0 12:0.03333333333333333 13:0.0 14:0.0 15:0.0 16:0.0 17:0.0 18:0.16666666666666666 19:0.06666666666666667 20:0.0 21:0.0 22:0.03333333333333333 23:0.0 24:0.03333333333333333 25:1.0 26:0.03333333333333333 27:0.0 28:0.0 29:0.03333333333333333 30:0.06666666666666667 31:0.06666666666666667 32:0.06666666666666667 33:0.0 34:0.0 35:0.06666666666666667 36:0.0 37:0.03333333333333333 38:0.03333333333333333 39:0.0 40:0.0 41:0.0 42:0.0 43:0.0 44:0.03333333333333333 45:0.0 46:0.0 47:0.0 48:0.0 49:0.0 50:0.0 51:0.0 52:0.0 53:0.1 54:0.0 55:0.0 56:0.0 57:0.03333333333333333 58:0.23333333333333334 
1.0 0:0.08 1:0.12 2:0.0 3:0.0 4:0.0 5:0.0 6:0.0 7:0.0 8:0.0 9:0.08 10:0.0 11:0.08 12:0.0 13:0.0 14:0.08 15:0.04 16:0.0 17:0.0 18:0.0 19:0.0 20:0.0 21:0.0 22:0.0 23:0.0 24:0.0 25:0.0 26:0.0 27:0.0 28:0.0 29:0.0 30:0.0 31:0.0 32:0.0 33:0.0 34:0.04 35:0.0 36:0.0 37:0.12 38:0.0 39:0.0 40:0.0 41:0.0 42:0.2 43:1.0 44:0.12 45:0.0 46:0.0 47:0.08 48:0.12 49:0.0 50:0.0 51:0.0 52:0.04 53:0.0 54:0.08 55:0.0 56:0.0 57:0.04 58:0.24 
1.0 0:0.0 1:0.0 2:0.0 3:0.0 4:0.0 5:0.037037037037037035 6:0.037037037037037035 7:0.0 8:0.0 9:0.0 10:0.0 11:0.0 12:0.0 13:0.0 14:0.0 15:0.0 16:0.0 17:0.0 18:0.0 19:0.0 20:0.037037037037037035 21:0.037037037037037035 22:0.0 23:0.037037037037037035 24:0.0 25:1.0 26:0.0 27:0.037037037037037035 28:0.0 29:0.0 30:0.0 31:0.037037037037037035 32:0.7407407407407407 33:0.07407407407407407 34:0.0 35:0.037037037037037035 36:0.0 37:0.0 38:0.0 39:0.037037037037037035 40:0.0 41:0.0 42:0.0 43:0.0 44:0.0 45:0.0 46:0.0 47:0.0 48:0.0 49:0.07407407407407407 50:0.0 51:0.0 52:0.0 53:0.0 54:0.0 55:0.0 56:0.0 57:0.037037037037037035 58:0.1111111111111111 
1.0 0:1.0 1:0.0 2:0.0 3:0.0 4:0.0 5:0.0 6:0.0 7:0.0 8:0.0 9:0.0 10:0.0 11:0.0 12:0.0 13:0.0 14:0.0 15:0.0 16:0.0 17:0.0 18:0.0 19:0.0 20:0.0 21:0.0 22:0.0 23:0.0 24:0.0 25:0.0 26:0.0 27:0.0 28:0.0 29:0.0 30:0.0 31:0.0 32:0.0 33:0.0 34:0.0 35:0.0 36:0.0 37:0.0 38:0.0 39:0.0 40:0.0 41:0.0 42:0.0 43:0.0 44:0.0 45:0.0 46:0.0 47:0.0 48:0.0 49:0.0 50:0.0 51:0.0 52:0.0 53:0.0 54:0.0 55:0.0 56:0.0 57:0.0 58:0.0 
1.0 0:1.0 1:0.0 2:0.0 3:0.0 4:0.0 5:0.0 6:0.0 7:0.0 8:0.0 9:0.0 10:0.0 11:0.0 12:0.0 13:0.0 14:0.0 15:0.0 16:0.0 17:0.0 18:0.0 19:0.0 20:0.0 21:0.0 22:0.0 23:0.0 24:0.0 25:0.0 26:0.0 27:0.0 28:0.0 29:0.0 30:0.0 31:0.0 32:0.0 33:0.0 34:0.0 35:0.0 36:0.0 37:0.0 38:0.0 39:0.0 40:0.0 41:0.0 42:0.0 43:0.0 44:0.0 45:0.0 46:0.0 47:0.0 48:0.0 49:0.0 50:0.0 51:0.0 52:0.0 53:0.0 54:0.0 55:0.0 56:0.0 57:0.0 58:0.0 
1.0 0:1.0 1:0.0 2:0.0 3:0.0 4:0.0 5:0.0 6:0.0 7:0.0 8:0.0 9:0.0 10:0.0 11:0.0 12:0.0 13:0.0 14:0.0 15:0.0 16:0.0 17:0.0 18:0.0 19:0.0 20:0.0 21:0.0 22:0.0 23:0.0 24:0.0 25:0.0 26:0.0 27:0.0 28:0.0 29:0.0 30:0.0 31:0.0 32:0.0 33:0.0 34:0.0 35:0.0 36:0.0 37:0.0 38:0.0 39:0.0 40:0.0 41:0.0 42:0.0 43:0.0 44:0.0 45:0.0 46:0.0 47:0.0 48:0.0 49:0.0 50:0.0 51:0.0 52:0.0 53:0.0 54:0.0 55:0.0 56:0.0 57:0.0 58:0.0 
1.0 0:1.0 1:0.0 2:0.0 3:0.0 4:0.0 5:0.0 6:0.0 7:0.0 8:0.0 9:0.0 10:0.0 11:0.0 12:0.0 13:0.0 14:0.0 15:0.0 16:0.0 17:0.0 18:0.0 19:0.0 20:0.0 21:0.0 22:0.0 23:0.0 24:0.0 25:0.0 26:0.0 27:0.0 28:0.0 29:0.0 30:0.0 31:0.0 32:0.0 33:0.0 34:0.0 35:0.0 36:0.0 37:0.0 38:0.0 39:0.0 40:0.0 41:0.0 42:0.0 43:0.0 44:0.0 45:0.0 46:0.0 47:0.0 48:0.0 49:0.0 50:0.0 51:0.0 52:0.0 53:0.0 54:0.0 55:0.0 56:0.0 57:0.0 58:0.0 
1.0 0:1.0 1:0.0 2:0.0 3:0.0 4:0.0 5:0.0 6:0.0 7:0.0 8:0.0 9:0.0 10:0.0 11:0.0 12:0.0 13:0.0 14:0.0 15:0.0 16:0.0 17:0.0 18:0.0 19:0.0 20:0.0 21:0.0 22:0.0 23:0.0 24:0.0 25:0.0 26:0.0 27:0.0 28:0.0 29:0.0 30:0.0 31:0.0 32:0.0 33:0.0 34:0.0 35:0.0 36:0.0 37:0.0 38:0.0 39:0.0 40:0.0 41:0.0 42:0.0 43:0.0 44:0.0 45:0.0 46:0.0 47:0.0 48:0.0 49:0.0 50:0.0 51:0.0 52:0.0 53:0.0 54:0.0 55:0.0 56:0.0 57:0.0 58:0.0 
1.0 0:1.0 1:0.0 2:0.0 3:0.0 4:0.0 5:0.0 6:0.0 7:0.0 8:0.0 9:0.0 10:0.0 11:0.0 12:0.0 13:0.0 14:0.0 15:0.0 16:0.0 17:0.0 18:0.0 19:0.0 20:0.0 21:0.0 22:0.0 23:0.0 24:0.0 25:0.0 26:0.0 27:0.0 28:0.0 29:0.0 30:0.0 31:0.0 32:0.0 33:0.0 34:0.0 35:0.0 36:0.0 37:0.0 38:0.0 39:0.0 40:0.0 41:0.0 42:0.0 43:0.0 44:0.0 45:0.0 46:0.0 47:0.0 48:0.0 49:0.0 50:0.0 51:0.0 52:0.0 53:0.0 54:0.0 55:0.0 56:0.0 57:0.0 58:0.0 
1.0 0:1.0 1:0.0 2:0.0 3:0.0 4:0.0 5:0.0 6:0.0 7:0.0 8:0.0 9:0.0 10:0.0 11:0.0 12:0.0 13:0.0 14:0.0 15:0.0 16:0.0 17:0.0 18:0.0 19:0.0 20:0.0 21:0.0 22:0.0 23:0.0 24:0.0 25:0.0 26:0.0 27:0.0 28:0.0 29:0.0 30:0.0 31:0.0 32:0.0 33:0.0 34:0.0 35:0.0 36:0.0 37:0.0 38:0.0 39:0.0 40:0.0 41:0.0 42:0.0 43:0.0 44:0.0 45:0.0 46:0.0 47:0.0 48:0.0 49:0.0 50:0.0 51:0.0 52:0.0 53:0.0 54:0.0 55:0.0 56:0.0 57:0.0 58:0.0 
1.0 0:1.0 1:0.0 2:0.0 3:0.0 4:0.0 5:0.0 6:0.0 7:0.0 8:0.0 9:0.0 10:0.0 11:0.0 12:0.0 13:0.0 14:0.0 15:0.0 16:0.0 17:0.0 18:0.0 19:0.0 20:0.0 21:0.0 22:0.0 23:0.0 24:0.0 25:0.0 26:0.0 27:0.0 28:0.0 29:0.0 30:0.0 31:0.0 32:0.0 33:0.0 34:0.0 35:0.0 36:0.0 37:0.0 38:0.0 39:0.0 40:0.0 41:0.0 42:0.0 43:0.0 44:0.0 45:0.0 46:0.0 47:0.0 48:0.0 49:0.0 50:0.0 51:0.0 52:0.0 53:0.0 54:0.0 55:0.0 56:0.0 57:0.0 58:0.0 
1.0 0:1.0 1:0.0 2:0.0 3:0.0 4:0.0 5:0.0 6:0.0 7:0.0 8:0.0 9:0.0 10:0.0 11:0.0 12:0.0 13:0.0 14:0.0 15:0.0 16:0.0 17:0.0 18:0.0 19:0.0 20:0.0 21:0.0 22:0.0 23:0.0 24:0.0 25:0.0 26:0.0 27:0.0 28:0.0 29:0.0 30:0.0 31:0.0 32:0.0 33:0.0 34:0.0 35:0.0 36:0.0 37:0.0 38:0.0 39:0.0 40:0.0 41:0.0 42:0.0 43:0.0 44:0.0 45:0.0 46:0.0 47:0.0 48:0.0 49:0.0 50:0.0 51:0.0 52:0.0 53:0.0 54:0.0 55:0.0 56:0.0 57:0.0 58:0.0 
1.0 0:1.0 1:0.0 2:0.0 3:0.0 4:0.0 5:0.0 6:0.0 7:0.0 8:0.0 9:0.0 10:0.0 11:0.0 12:0.0 13:0.0 14:0.0 15:0.0 16:0.0 17:0.0 18:0.0 19:0.0 20:0.0 21:0.0 22:0.0 23:0.0 24:0.0 25:0.0 26:0.0 27:0.0 28:0.0 29:0.0 30:0.0 31:0.0 32:0.0 33:0.0 34:0.0 35:0.0 36:0.0 37:0.0 38:0.0 39:0.0 40:0.0 41:0.0 42:0.0 43:0.0 44:0.0 45:0.0 46:0.0 47:0.0 48:0.0 49:0.0 50:0.0 51:0.0 52:0.0 53:0.0 54:0.0 55:0.0 56:0.0 57:0.0 58:0.0 
1.0 0:1.0 1:0.0 2:0.0 3:0.0 4:0.0 5:0.0 6:0.0 7:0.0 8:0.0 9:0.0 10:0.0 11:0.0 12:0.0 13:0.0 14:0.0 15:0.0 16:0.0 17:0.0 18:0.0 19:0.0 20:0.0 21:0.0 22:0.0 23:0.0 24:0.0 25:0.0 26:0.0 27:0.0 28:0.0 29:0.0 30:0.0 31:0.0 32:0.0 33:0.0 34:0.0 35:0.0 36:0.0 37:0.0 38:0.0 39:0.0 40:0.0 41:0.0 42:0.0 43:0.0 44:0.0 45:0.0 46:0.0 47:0.0 48:0.0 49:0.0 50:0.0 51:0.0 52:0.0 53:0.0 54:0.0 55:0.0 56:0.0 57:0.0 58:0.0 
1.0 0:1.0 1:0.0 2:0.0 3:0.0 4:0.0 5:0.0 6:0.0 7:0.0 8:0.0 9:0.0 10:0.0 11:0.0 12:0.0 13:0.0 14:0.0 15:0.0 16:0.0 17:0.0 18:0.0 19:0.0 20:0.0 21:0.0 22:0.0 23:0.0 24:0.0 25:0.0 26:0.0 27:0.0 28:0.0 29:0.0 30:0.0 31:0.0 32:0.0 33:0.0 34:0.0 35:0.0 36:0.0 37:0.0 38:0.0 39:0.0 40:0.0 41:0.0 42:0.0 43:0.0 44:0.0 45:0.0 46:0.0 47:0.0 48:0.0 49:0.0 50:0.0 51:0.0 52:0.0 53:0.0 54:0.0 55:0.0 56:0.0 57:0.0 58:0.0 
1.0 0:0.05 1:0.0 2:0.15 3:0.0 4:0.25 5:0.15 6:0.2 7:0.0 8:0.0 9:0.0 10:0.05 11:0.0 12:0.0 13:0.05 14:0.0 15:0.0 16:0.0 17:0.0 18:0.15 19:1.0 20:0.05 21:0.15 22:0.1 23:0.15 24:0.0 25:0.05 26:0.0 27:0.0 28:0.0 29:0.05 30:0.05 31:0.15 32:0.0 33:0.0 34:0.0 35:0.1 36:0.15 37:0.0 38:0.0 39:0.0 40:0.0 41:0.0 42:0.0 43:0.0 44:0.0 45:0.0 46:0.0 47:0.0 48:0.0 49:0.0 50:0.0 51:0.0 52:0.0 53:0.0 54:0.0 55:0.0 56:0.0 57:0.0 58:0.15 
1.0 0:1.0 1:0.0 2:0.0 3:0.0 4:0.0 5:0.0 6:0.0 7:0.0 8:0.0 9:0.0 10:0.0 11:0.0 12:0.0 13:0.0 14:0.0 15:0.0 16:0.0 17:0.0 18:0.0 19:0.0 20:0.0 21:0.0 22:0.0 23:0.0 24:0.0 25:0.0 26:0.0 27:0.0 28:0.0 29:0.0 30:0.0 31:0.0 32:0.0 33:0.0 34:0.0 35:0.0 36:0.0 37:0.0 38:0.0 39:0.0 40:0.0 41:0.0 42:0.0 43:0.0 44:0.0 45:0.0 46:0.0 47:0.0 48:0.0 49:0.0 50:0.0 51:0.0 52:0.0 53:0.0 54:0.0 55:0.0 56:0.0 57:0.0 58:0.0 
1.0 0:1.0 1:0.0 2:0.0 3:0.0 4:0.0 5:0.0 6:0.0 7:0.0 8:0.0 9:0.0 10:0.0 11:0.0 12:0.0 13:0.0 14:0.0 15:0.0 16:0.0 17:0.0 18:0.0 19:0.0 20:0.0 21:0.0 22:0.0 23:0.0 24:0.0 25:0.0 26:0.0 27:0.0 28:0.0 29:0.0 30:0.0 31:0.0 32:0.0 33:0.0 34:0.0 35:0.0 36:0.0 37:0.0 38:0.0 39:0.0 40:0.0 41:0.0 42:0.0 43:0.0 44:0.0 45:0.0 46:0.0 47:0.0 48:0.0 49:0.0 50:0.0 51:0.0 52:0.0 53:0.0 54:0.0 55:0.0 56:0.0 57:0.0 58:0.0 
1.0 0:1.0 1:0.0 2:0.0 3:0.0 4:0.0 5:0.0 6:0.0 7:0.0 8:0.0 9:0.0 10:0.0 11:0.0 12:0.0 13:0.0 14:0.0 15:0.0 16:0.0 17:0.0 18:0.0 19:0.0 20:0.0 21:0.0 22:0.0 23:0.0 24:0.0 25:0.0 26:0.0 27:0.0 28:0.0 29:0.0 30:0.0 31:0.0 32:0.0 33:0.0 34:0.0 35:0.0 36:0.0 37:0.0 38:0.0 39:0.0 40:0.0 41:0.0 42:0.0 43:0.0 44:0.0 45:0.0 46:0.0 47:0.0 48:0.0 49:0.0 50:0.0 51:0.0 52:0.0 53:0.0 54:0.0 55:0.0 56:0.0 57:0.0 58:0.0 
1.0 0:1.0 1:0.0 2:0.0 3:0.0 4:0.0 5:0.0 6:0.0 7:0.0 8:0.0 9:0.0 10:0.0 11:0.0 12:0.0 13:0.0 14:0.0 15:0.0 16:0.0 17:0.0 18:0.0 19:0.0 20:0.0 21:0.0 22:0.0 23:0.0 24:0.0 25:0.0 26:0.0 27:0.0 28:0.0 29:0.0 30:0.0 31:0.0 32:0.0 33:0.0 34:0.0 35:0.0 36:0.0 37:0.0 38:0.0 39:0.0 40:0.0 41:0.0 42:0.0 43:0.0 44:0.0 45:0.0 46:0.0 47:0.0 48:0.0 49:0.0 50:0.0 51:0.0 52:0.0 53:0.0 54:0.0 55:0.0 56:0.0 57:0.0 58:0.0 
1.0 0:1.0 1:0.0 2:0.0 3:0.0 4:0.0 5:0.0 6:0.0 7:0.0 8:0.0 9:0.0 10:0.0 11:0.0 12:0.0 13:0.0 14:0.0 15:0.0 16:0.0 17:0.0 18:0.0 19:0.0 20:0.0 21:0.0 22:0.0 23:0.0 24:0.0 25:0.0 26:0.0 27:0.0 28:0.0 29:0.0 30:0.0 31:0.0 32:0.0 33:0.0 34:0.0 35:0.0 36:0.0 37:0.0 38:0.0 39:0.0 40:0.0 41:0.0 42:0.0 43:0.0 44:0.0 45:0.0 46:0.0 47:0.0 48:0.0 49:0.0 50:0.0 51:0.0 52:0.0 53:0.0 54:0.0 55:0.0 56:0.0 57:0.0 58:0.0 
1.0 0:1.0 1:0.0 2:0.0 3:0.0 4:0.0 5:0.0 6:0.0 7:0.0 8:0.0 9:0.0 10:0.0 11:0.0 12:0.0 13:0.0 14:0.0 15:0.0 16:0.0 17:0.0 18:0.0 19:0.0 20:0.0 21:0.0 22:0.0 23:0.0 24:0.0 25:0.0 26:0.0 27:0.0 28:0.0 29:0.0 30:0.0 31:0.0 32:0.0 33:0.0 34:0.0 35:0.0 36:0.0 37:0.0 38:0.0 39:0.0 40:0.0 41:0.0 42:0.0 43:0.0 44:0.0 45:0.0 46:0.0 47:0.0 48:0.0 49:0.0 50:0.0 51:0.0 52:0.0 53:0.0 54:0.0 55:0.0 56:0.0 57:0.0 58:0.0 
1.0 0:1.0 1:0.0 2:0.0 3:0.0 4:0.0 5:0.0 6:0.0 7:0.0 8:0.0 9:0.0 10:0.0 11:0.0 12:0.0 13:0.0 14:0.0 15:0.0 16:0.0 17:0.0 18:0.0 19:0.0 20:0.0 21:0.0 22:0.0 23:0.0 24:0.0 25:0.0 26:0.0 27:0.0 28:0.0 29:0.0 30:0.0 31:0.0 32:0.0 33:0.0 34:0.0 35:0.0 36:0.0 37:0.0 38:0.0 39:0.0 40:0.0 41:0.0 42:0.0 43:0.0 44:0.0 45:0.0 46:0.0 47:0.0 48:0.0 49:0.0 50:0.0 51:0.0 52:0.0 53:0.0 54:0.0 55:0.0 56:0.0 57:0.0 58:0.0 
1.0 0:1.0 1:0.0 2:0.0 3:0.0 4:0.0 5:0.0 6:0.0 7:0.0 8:0.0 9:0.0 10:0.0 11:0.0 12:0.0 13:0.0 14:0.0 15:0.0 16:0.0 17:0.0 18:0.0 19:0.0 20:0.0 21:0.0 22:0.0 23:0.0 24:0.0 25:0.0 26:0.0 27:0.0 28:0.0 29:0.0 30:0.0 31:0.0 32:0.0 33:0.0 34:0.0 35:0.0 36:0.0 37:0.0 38:0.0 39:0.0 40:0.0 41:0.0 42:0.0 43:0.0 44:0.0 45:0.0 46:0.0 47:0.0 48:0.0 49:0.0 50:0.0 51:0.0 52:0.0 53:0.0 54:0.0 55:0.0 56:0.0 57:0.0 58:0.0 
1.0 0:1.0 1:0.0 2:0.0 3:0.0 4:0.0 5:0.0 6:0.0 7:0.0 8:0.0 9:0.0 10:0.0 11:0.0 12:0.0 13:0.0 14:0.0 15:0.0 16:0.0 17:0.0 18:0.0 19:0.0 20:0.0 21:0.0 22:0.0 23:0.0 24:0.0 25:0.0 26:0.0 27:0.0 28:0.0 29:0.0 30:0.0 31:0.0 32:0.0 33:0.0 34:0.0 35:0.0 36:0.0 37:0.0 38:0.0 39:0.0 40:0.0 41:0.0 42:0.0 43:0.0 44:0.0 45:0.0 46:0.0 47:0.0 48:0.0 49:0.0 50:0.0 51:0.0 52:0.0 53:0.0 54:0.0 55:0.0 56:0.0 57:0.0 58:0.0 
1.0 0:1.0 1:0.0 2:0.0 3:0.0 4:0.0 5:0.0 6:0.0 7:0.0 8:0.0 9:0.0 10:0.0 11:0.0 12:0.0 13:0.0 14:0.0 15:0.0 16:0.0 17:0.0 18:0.0 19:0.0 20:0.0 21:0.0 22:0.0 23:0.0 24:0.0 25:0.0 26:0.0 27:0.0 28:0.0 29:0.0 30:0.0 31:0.0 32:0.0 33:0.0 34:0.0 35:0.0 36:0.0 37:0.0 38:0.0 39:0.0 40:0.0 41:0.0 42:0.0 43:0.0 44:0.0 45:0.0 46:0.0 47:0.0 48:0.0 49:0.0 50:0.0 51:0.0 52:0.0 53:0.0 54:0.0 55:0.0 56:0.0 57:0.0 58:0.0 
1.0 0:1.0 1:0.0 2:0.0 3:0.0 4:0.0 5:0.0 6:0.0 7:0.0 8:0.0 9:0.0 10:0.0 11:0.0 12:0.0 13:0.0 14:0.0 15:0.0 16:0.0 17:0.0 18:0.0 19:0.0 20:0.0 21:0.0 22:0.0 23:0.0 24:0.0 25:0.0 26:0.0 27:0.0 28:0.0 29:0.0 30:0.0 31:0.0 32:0.0 33:0.0 34:0.0 35:0.0 36:0.0 37:0.0 38:0.0 39:0.0 40:0.0 41:0.0 42:0.0 43:0.0 44:0.0 45:0.0 46:0.0 47:0.0 48:0.0 49:0.0 50:0.0 51:0.0 52:0.0 53:0.0 54:0.0 55:0.0 56:0.0 57:0.0 58:0.0 
1.0 0:1.0 1:0.0 2:0.0 3:0.0 4:0.0 5:0.0 6:0.0 7:0.0 8:0.0 9:0.0 10:0.0 11:0.0 12:0.0 13:0.0 14:0.0 15:0.0 16:0.0 17:0.0 18:0.0 19:0.0 20:0.0 21:0.0 22:0.0 23:0.0 24:0.0 25:0.0 26:0.0 27:0.0 28:0.0 29:0.0 30:0.0 31:0.0 32:0.0 33:0.0 34:0.0 35:0.0 36:0.0 37:0.0 38:0.0 39:0.0 40:0.0 41:0.0 42:0.0 43:0.0 44:0.0 45:0.0 46:0.0 47:0.0 48:0.0 49:0.0 50:0.0 51:0.0 52:0.0 53:0.0 54:0.0 55:0.0 56:0.0 57:0.0 58:0.0 
1.0 0:1.0 1:0.0 2:0.0 3:0.0 4:0.0 5:0.0 6:0.0 7:0.0 8:0.0 9:0.0 10:0.0 11:0.0 12:0.0 13:0.0 14:0.0 15:0.0 16:0.0 17:0.0 18:0.0 19:0.0 20:0.0 21:0.0 22:0.0 23:0.0 24:0.0 25:0.0 26:0.0 27:0.0 28:0.0 29:0.0 30:0.0 31:0.0 32:0.0 33:0.0 34:0.0 35:0.0 36:0.0 37:0.0 38:0.0 39:0.0 40:0.0 41:0.0 42:0.0 43:0.0 44:0.0 45:0.0 46:0.0 47:0.0 48:0.0 49:0.0 50:0.0 51:0.0 52:0.0 53:0.0 54:0.0 55:0.0 56:0.0 57:0.0 58:0.0 
1.0 0:0.18181818181818182 1:0.0 2:0.0 3:0.045454545454545456 4:0.0 5:0.0 6:0.0 7:0.0 8:0.045454545454545456 9:0.5 10:0.045454545454545456 11:0.09090909090909091 12:0.045454545454545456 13:0.0 14:1.0 15:0.13636363636363635 16:0.0 17:0.0 18:0.045454545454545456 19:0.0 20:0.0 21:0.0 22:0.045454545454545456 23:0.0 24:0.09090909090909091 25:0.0 26:0.0 27:0.0 28:0.0 29:0.0 30:0.0 31:0.0 32:0.0 33:0.0 34:0.0 35:0.0 36:0.0 37:0.0 38:0.0 39:0.0 40:0.0 41:0.0 42:0.13636363636363635 43:0.045454545454545456 44:0.045454545454545456 45:0.0 46:0.09090909090909091 47:0.0 48:0.0 49:0.0 50:0.0 51:0.045454545454545456 52:0.0 53:0.0 54:0.0 55:0.0 56:0.045454545454545456 57:0.09090909090909091 58:0.13636363636363635 
1.0 0:0.2413793103448276 1:0.034482758620689655 2:0.0 3:0.034482758620689655 4:0.13793103448275862 5:0.0 6:0.0 7:0.0 8:0.0 9:0.0 10:0.0 11:0.0 12:0.0 13:0.0 14:0.0 15:0.0 16:0.034482758620689655 17:0.034482758620689655 18:0.0 19:0.0 20:0.034482758620689655 21:0.034482758620689655 22:0.034482758620689655 23:0.0 24:0.0 25:0.0 26:0.0 27:0.0 28:0.034482758620689655 29:0.034482758620689655 30:0.0 31:0.0 32:0.0 33:0.0 34:0.034482758620689655 35:0.034482758620689655 36:0.034482758620689655 37:0.0 38:0.0 39:0.0 40:0.0 41:0.034482758620689655 42:0.034482758620689655 43:0.0 44:0.034482758620689655 45:0.0 46:0.0 47:0.0 48:0.0 49:0.034482758620689655 50:0.034482758620689655 51:0.0 52:0.0 53:0.06896551724137931 54:0.0 55:0.034482758620689655 56:0.034482758620689655 57:0.10344827586206896 58:1.0 
1.0 0:0.25 1:0.0 2:0.041666666666666664 3:0.0 4:0.0 5:0.0 6:0.041666666666666664 7:0.0 8:0.041666666666666664 9:0.041666666666666664 10:0.041666666666666664 11:0.0 12:0.0 13:0.041666666666666664 14:0.0 15:0.0 16:0.0 17:0.041666666666666664 18:0.0 19:0.041666666666666664 20:0.0 21:0.0 22:0.0 23:0.125 24:0.041666666666666664 25:0.0 26:0.0 27:0.0 28:0.0 29:0.041666666666666664 30:0.0 31:0.0 32:0.0 33:0.0 34:0.0 35:0.0 36:0.125 37:0.041666666666666664 38:0.0 39:0.0 40:0.0 41:0.0 42:0.16666666666666666 43:1.0 44:0.041666666666666664 45:0.0 46:0.041666666666666664 47:0.041666666666666664 48:0.08333333333333333 49:0.041666666666666664 50:0.0 51:0.0 52:0.041666666666666664 53:0.0 54:0.0 55:0.0 56:0.0 57:0.041666666666666664 58:0.20833333333333334 
1.0 0:0.14285714285714285 1:0.09523809523809523 2:0.047619047619047616 3:0.0 4:0.0 5:0.047619047619047616 6:0.14285714285714285 7:0.09523809523809523 8:0.14285714285714285 9:0.047619047619047616 10:0.047619047619047616 11:0.09523809523809523 12:0.09523809523809523 13:0.0 14:1.0 15:0.0 16:0.047619047619047616 17:0.047619047619047616 18:0.047619047619047616 19:0.0 20:0.047619047619047616 21:0.0 22:0.0 23:0.09523809523809523 24:0.0 25:0.0 26:0.0 27:0.0 28:0.0 29:0.09523809523809523 30:0.0 31:0.0 32:0.0 33:0.0 34:0.0 35:0.0 36:0.047619047619047616 37:0.0 38:0.0 39:0.0 40:0.0 41:0.0 42:0.047619047619047616 43:0.09523809523809523 44:0.0 45:0.0 46:0.09523809523809523 47:0.0 48:0.0 49:0.0 50:0.0 51:0.0 52:0.0 53:0.0 54:0.047619047619047616 55:0.0 56:0.14285714285714285 57:0.0 58:0.19047619047619047 
1.0 0:0.24324324324324326 1:0.0 2:0.0 3:0.0 4:0.0 5:0.0 6:0.0 7:0.02702702702702703 8:0.0 9:0.0 10:0.0 11:0.0 12:0.0 13:0.0 14:0.0 15:0.0 16:0.0 17:0.0 18:0.16216216216216217 19:0.05405405405405406 20:0.0 21:0.0 22:0.0 23:0.0 24:0.0 25:0.0 26:0.0 27:0.0 28:0.0 29:0.0 30:0.0 31:1.0 32:0.05405405405405406 33:0.0 34:0.0 35:0.02702702702702703 36:0.0 37:0.0 38:0.02702702702702703 39:0.0 40:0.0 41:0.0 42:0.0 43:0.0 44:0.0 45:0.0 46:0.0 47:0.0 48:0.0 49:0.0 50:0.0 51:0.0 52:0.0 53:0.0 54:0.0 55:0.0 56:0.0 57:0.0 58:0.13513513513513514 
1.0 0:0.0 1:0.0 2:0.024390243902439025 3:0.07317073170731707 4:0.0 5:0.0 6:0.0 7:0.0 8:0.0 9:0.0 10:0.0 11:0.0 12:0.0 13:0.0 14:0.0 15:0.0 16:0.0 17:0.0 18:0.0 19:0.0 20:0.0 21:0.0 22:0.0 23:0.0 24:0.0 25:0.0 26:0.0 27:0.0 28:0.0 29:0.0 30:0.024390243902439025 31:1.0 32:0.3902439024390244 33:0.0 34:0.0 35:0.0 36:0.0 37:0.0 38:0.024390243902439025 39:0.0 40:0.0 41:0.0 42:0.0 43:0.0 44:0.0 45:0.0 46:0.0 47:0.0 48:0.0 49:0.0 50:0.0 51:0.0 52:0.0 53:0.0 54:0.0 55:0.0 56:0.0 57:0.0 58:0.024390243902439025 
1.0 0:0.0 1:0.0 2:0.14814814814814814 3:0.14814814814814814 4:0.0 5:0.0 6:0.14814814814814814 7:0.0 8:0.0 9:0.0 10:0.0 11:0.0 12:0.0 13:0.0 14:0.0 15:0.0 16:0.0 17:0.0 18:0.0 19:0.0 20:0.0 21:0.0 22:0.0 23:0.0 24:0.0 25:0.0 26:0.0 27:0.0 28:0.0 29:0.037037037037037035 30:0.1111111111111111 31:1.0 32:0.5185185185185185 33:0.0 34:0.0 35:0.0 36:0.0 37:0.0 38:0.2222222222222222 39:0.037037037037037035 40:0.0 41:0.0 42:0.0 43:0.0 44:0.0 45:0.0 46:0.0 47:0.0 48:0.0 49:0.0 50:0.0 51:0.0 52:0.0 53:0.0 54:0.0 55:0.0 56:0.0 57:0.0 58:0.0 
1.0 0:0.16666666666666666 1:0.0 2:0.0 3:0.020833333333333332 4:0.0 5:0.0 6:0.0 7:0.0 8:0.0 9:0.0 10:0.0 11:0.0 12:0.0 13:0.0 14:0.0 15:0.0 16:0.0 17:0.0 18:1.0 19:0.0 20:0.0 21:0.0 22:0.0 23:0.0 24:0.0 25:0.0 26:0.0 27:0.0 28:0.0 29:0.0 30:0.0 31:0.14583333333333334 32:0.0 33:0.0 34:0.0 35:0.0 36:0.0 37:0.0 38:0.0 39:0.0 40:0.0 41:0.0 42:0.0 43:0.0 44:0.0 45:0.0 46:0.0 47:0.0 48:0.0 49:0.0 50:0.0 51:0.0 52:0.0 53:0.0 54:0.0 55:0.0 56:0.0 57:0.0 58:0.0 
1.0 0:0.2 1:0.0 2:0.0 3:0.0 4:0.0 5:0.0 6:0.06666666666666667 7:0.0 8:0.0 9:0.0 10:0.0 11:0.0 12:0.0 13:0.0 14:0.0 15:0.0 16:0.03333333333333333 17:0.06666666666666667 18:0.16666666666666666 19:0.03333333333333333 20:0.0 21:0.03333333333333333 22:0.03333333333333333 23:0.0 24:0.06666666666666667 25:0.06666666666666667 26:0.0 27:0.0 28:0.0 29:0.0 30:0.0 31:0.13333333333333333 32:1.0 33:0.0 34:0.03333333333333333 35:0.03333333333333333 36:0.0 37:0.0 38:0.0 39:0.0 40:0.0 41:0.0 42:0.0 43:0.0 44:0.0 45:0.0 46:0.0 47:0.0 48:0.0 49:0.0 50:0.0 51:0.0 52:0.0 53:0.0 54:0.0 55:0.0 56:0.0 57:0.0 58:0.16666666666666666 
1.0 0:0.09090909090909091 1:0.09090909090909091 2:0.13636363636363635 3:0.045454545454545456 4:0.045454545454545456 5:0.045454545454545456 6:0.09090909090909091 7:0.0 8:0.0 9:0.13636363636363635 10:0.09090909090909091 11:0.0 12:0.0 13:0.0 14:1.0 15:0.0 16:0.0 17:0.0 18:0.0 19:0.0 20:0.0 21:0.0 22:0.0 23:0.0 24:0.0 25:0.0 26:0.0 27:0.0 28:0.0 29:0.0 30:0.0 31:0.045454545454545456 32:0.0 33:0.045454545454545456 34:0.09090909090909091 35:0.0 36:0.0 37:0.0 38:0.45454545454545453 39:0.0 40:0.045454545454545456 41:0.0 42:0.0 43:0.045454545454545456 44:0.09090909090909091 45:0.045454545454545456 46:0.0 47:0.0 48:0.0 49:0.0 50:0.0 51:0.0 52:0.0 53:0.0 54:0.0 55:0.0 56:0.0 57:0.0 58:0.2727272727272727 
1.0 0:0.0 1:0.0 2:0.045454545454545456 3:0.045454545454545456 4:0.0 5:0.0 6:0.09090909090909091 7:0.0 8:0.045454545454545456 9:0.4090909090909091 10:0.5909090909090909 11:0.0 12:0.045454545454545456 13:0.36363636363636365 14:1.0 15:0.045454545454545456 16:0.0 17:0.0 18:0.0 19:0.09090909090909091 20:0.09090909090909091 21:0.045454545454545456 22:0.0 23:0.0 24:0.0 25:0.0 26:0.0 27:0.0 28:0.0 29:0.0 30:0.0 31:0.0 32:0.0 33:0.0 34:0.0 35:0.0 36:0.0 37:0.0 38:0.0 39:0.0 40:0.0 41:0.0 42:0.0 43:0.0 44:0.0 45:0.0 46:0.0 47:0.0 48:0.0 49:0.0 50:0.0 51:0.0 52:0.0 53:0.0 54:0.0 55:0.0 56:0.0 57:0.0 58:0.0 
1.0 0:0.16 1:0.0 2:0.04 3:0.0 4:0.08 5:0.08 6:0.0 7:0.0 8:0.0 9:0.0 10:0.0 11:0.08 12:0.0 13:0.0 14:0.0 15:0.04 16:0.0 17:0.08 18:0.0 19:0.0 20:0.0 21:0.0 22:0.08 23:0.0 24:0.08 25:0.0 26:0.0 27:0.0 28:0.04 29:0.0 30:0.0 31:0.0 32:0.0 33:0.0 34:0.0 35:0.12 36:0.04 37:0.08 38:0.0 39:0.0 40:0.0 41:0.0 42:0.08 43:0.0 44:0.0 45:0.04 46:0.0 47:0.08 48:0.04 49:0.0 50:0.0 51:0.04 52:0.0 53:0.04 54:0.0 55:0.0 56:0.0 57:0.24 58:1.0 
1.0 0:0.0 1:0.0 2:0.0 3:0.0 4:0.0 5:0.0 6:0.0 7:0.0 8:0.0 9:0.0 10:0.0 11:0.0 12:0.0 13:0.0 14:0.0 15:0.0 16:0.0 17:0.0 18:0.0 19:0.0 20:0.0 21:0.0 22:0.0 23:0.0 24:0.0 25:0.0 26:0.0 27:0.0 28:0.0 29:0.0 30:0.0 31:0.0 32:0.0 33:0.0 34:0.0 35:0.0 36:0.0 37:0.0 38:0.0 39:0.0 40:0.0 41:0.0 42:0.32558139534883723 43:1.0 44:0.0 45:0.0 46:0.0 47:0.16279069767441862 48:0.0 49:0.0 50:0.0 51:0.0 52:0.0 53:0.0 54:0.0 55:0.0 56:0.0 57:0.0 58:0.0 
1.0 0:0.047619047619047616 1:0.047619047619047616 2:0.0 3:0.0 4:0.0 5:0.0 6:0.0 7:0.0 8:0.0 9:0.0 10:0.0 11:0.0 12:0.0 13:0.0 14:0.0 15:0.0 16:0.0 17:0.09523809523809523 18:0.0 19:0.0 20:0.0 21:0.0 22:0.047619047619047616 23:0.0 24:0.09523809523809523 25:0.0 26:0.0 27:0.0 28:0.0 29:0.0 30:0.047619047619047616 31:0.0 32:0.0 33:0.0 34:0.0 35:0.0 36:0.0 37:0.09523809523809523 38:0.0 39:0.0 40:0.0 41:0.0 42:0.5238095238095238 43:1.0 44:0.14285714285714285 45:0.0 46:0.0 47:0.7619047619047619 48:0.09523809523809523 49:0.0 50:0.0 51:0.0 52:0.0 53:0.0 54:0.0 55:0.0 56:0.0 57:0.0 58:0.047619047619047616 
1.0 0:0.15789473684210525 1:0.0 2:0.05263157894736842 3:0.0 4:0.10526315789473684 5:0.05263157894736842 6:0.15789473684210525 7:0.0 8:0.10526315789473684 9:0.15789473684210525 10:0.0 11:0.0 12:0.10526315789473684 13:0.3157894736842105 14:1.0 15:0.10526315789473684 16:0.05263157894736842 17:0.05263157894736842 18:0.05263157894736842 19:0.10526315789473684 20:0.0 21:0.10526315789473684 22:0.05263157894736842 23:0.0 24:0.05263157894736842 25:0.05263157894736842 26:0.0 27:0.0 28:0.0 29:0.0 30:0.0 31:0.05263157894736842 32:0.0 33:0.0 34:0.0 35:0.05263157894736842 36:0.0 37:0.0 38:0.0 39:0.0 40:0.0 41:0.0 42:0.0 43:0.0 44:0.0 45:0.0 46:0.0 47:0.0 48:0.0 49:0.0 50:0.0 51:0.0 52:0.0 53:0.05263157894736842 54:0.0 55:0.05263157894736842 56:0.0 57:0.05263157894736842 58:0.2631578947368421 
1.0 0:0.18181818181818182 1:0.0 2:0.030303030303030304 3:0.030303030303030304 4:0.06060606060606061 5:0.0 6:0.0 7:0.0 8:0.0 9:0.0 10:0.0 11:0.0 12:0.0 13:0.0 14:0.0 15:0.0 16:0.0 17:0.0 18:0.06060606060606061 19:0.030303030303030304 20:0.0 21:0.0 22:0.06060606060606061 23:0.0 24:0.030303030303030304 25:0.09090909090909091 26:0.0 27:0.0 28:0.0 29:0.030303030303030304 30:0.0 31:0.0 32:0.030303030303030304 33:0.0 34:0.0 35:0.0 36:0.0 37:0.06060606060606061 38:1.0 39:0.0 40:0.0 41:0.0 42:0.0 43:0.0 44:0.0 45:0.0 46:0.0 47:0.0 48:0.0 49:0.0 50:0.0 51:0.0 52:0.0 53:0.0 54:0.0 55:0.0 56:0.0 57:0.030303030303030304 58:0.21212121212121213 
1.0 0:0.15789473684210525 1:0.0 2:0.0 3:0.05263157894736842 4:0.05263157894736842 5:0.0 6:0.0 7:0.0 8:0.0 9:0.0 10:0.0 11:0.0 12:0.0 13:0.0 14:0.0 15:0.0 16:0.05263157894736842 17:0.0 18:0.0 19:0.0 20:0.0 21:0.0 22:0.05263157894736842 23:0.0 24:0.0 25:0.05263157894736842 26:0.0 27:0.0 28:0.0 29:0.0 30:0.05263157894736842 31:0.0 32:0.0 33:0.0 34:0.0 35:0.0 36:0.0 37:0.10526315789473684 38:0.0 39:0.0 40:0.0 41:0.0 42:0.3684210526315789 43:1.0 44:0.15789473684210525 45:0.0 46:0.0 47:0.3684210526315789 48:0.6842105263157895 49:0.0 50:0.0 51:0.15789473684210525 52:0.05263157894736842 53:0.0 54:0.0 55:0.0 56:0.0 57:0.0 58:0.0 
1.0 0:0.043478260869565216 1:0.0 2:0.0 3:0.0 4:0.13043478260869565 5:0.0 6:0.0 7:0.0 8:0.0 9:0.0 10:0.0 11:0.043478260869565216 12:0.0 13:0.043478260869565216 14:0.0 15:0.0 16:0.0 17:0.0 18:0.0 19:0.0 20:0.043478260869565216 21:0.0 22:0.0 23:0.043478260869565216 24:0.0 25:1.0 26:0.0 27:0.0 28:0.0 29:0.0 30:0.0 31:0.0 32:0.2608695652173913 33:0.0 34:0.0 35:0.043478260869565216 36:0.0 37:0.043478260869565216 38:0.17391304347826086 39:0.043478260869565216 40:0.0 41:0.0 42:0.0 43:0.043478260869565216 44:0.17391304347826086 45:0.043478260869565216 46:0.0 47:0.08695652173913043 48:0.13043478260869565 49:0.0 50:0.0 51:0.21739130434782608 52:0.0 53:0.08695652173913043 54:0.0 55:0.0 56:0.0 57:0.0 58:0.08695652173913043 
1.0 0:0.07142857142857142 1:0.0 2:0.0 3:0.0 4:0.03571428571428571 5:0.0 6:0.10714285714285714 7:0.0 8:0.0 9:0.0 10:0.0 11:0.0 12:0.0 13:0.0 14:0.0 15:0.0 16:0.0 17:0.0 18:0.0 19:0.0 20:0.0 21:0.0 22:0.0 23:0.0 24:0.0 25:1.0 26:0.03571428571428571 27:0.0 28:0.0 29:0.0 30:0.0 31:0.0 32:0.21428571428571427 33:0.0 34:0.0 35:0.03571428571428571 36:0.0 37:0.0 38:0.0 39:0.0 40:0.0 41:0.0 42:0.0 43:0.0 44:0.0 45:0.0 46:0.0 47:0.10714285714285714 48:0.0 49:0.0 50:0.0 51:0.2857142857142857 52:0.0 53:0.03571428571428571 54:0.0 55:0.0 56:0.0 57:0.0 58:0.35714285714285715 
1.0 0:0.0 1:0.0 2:0.0 3:0.0 4:0.0 5:0.0 6:0.0 7:0.0 8:0.0 9:0.0 10:0.0 11:0.0 12:0.0 13:0.16666666666666666 14:0.03333333333333333 15:0.0 16:0.0 17:0.0 18:0.03333333333333333 19:0.16666666666666666 20:0.0 21:0.0 22:0.0 23:0.0 24:0.0 25:0.0 26:0.0 27:0.0 28:0.0 29:0.0 30:0.0 31:0.13333333333333333 32:0.0 33:0.0 34:0.03333333333333333 35:0.03333333333333333 36:0.0 37:0.0 38:1.0 39:0.0 40:0.0 41:0.0 42:0.03333333333333333 43:0.1 44:0.13333333333333333 45:0.0 46:0.0 47:0.0 48:0.0 49:0.0 50:0.0 51:0.0 52:0.03333333333333333 53:0.03333333333333333 54:0.06666666666666667 55:0.0 56:0.0 57:0.0 58:0.13333333333333333 
1.0 0:0.0 1:0.0 2:0.0 3:0.0 4:0.0 5:0.0 6:0.0 7:0.0 8:0.0 9:0.0 10:0.0 11:0.0 12:0.0 13:0.0 14:0.0 15:0.0 16:0.0 17:0.0 18:0.07142857142857142 19:0.0 20:0.0 21:0.0 22:0.0 23:0.03571428571428571 24:0.0 25:1.0 26:0.0 27:0.0 28:0.03571428571428571 29:0.0 30:0.0 31:0.03571428571428571 32:0.75 33:0.0 34:0.0 35:0.07142857142857142 36:0.0 37:0.0 38:0.07142857142857142 39:0.03571428571428571 40:0.0 41:0.0 42:0.0 43:0.0 44:0.0 45:0.0 46:0.0 47:0.0 48:0.0 49:0.0 50:0.0 51:0.0 52:0.0 53:0.10714285714285714 54:0.0 55:0.0 56:0.0 57:0.0 58:0.07142857142857142 
1.0 0:0.36666666666666664 1:0.0 2:0.03333333333333333 3:0.0 4:0.1 5:0.0 6:0.0 7:0.03333333333333333 8:0.03333333333333333 9:0.0 10:0.0 11:0.0 12:0.03333333333333333 13:0.0 14:0.0 15:0.0 16:0.0 17:0.0 18:0.0 19:0.0 20:0.0 21:0.0 22:0.03333333333333333 23:0.06666666666666667 24:0.0 25:0.0 26:0.0 27:0.0 28:0.0 29:0.03333333333333333 30:0.0 31:0.0 32:1.0 33:0.0 34:0.0 35:0.06666666666666667 36:0.1 37:0.0 38:0.0 39:0.03333333333333333 40:0.0 41:0.0 42:0.0 43:0.0 44:0.0 45:0.0 46:0.0 47:0.03333333333333333 48:0.0 49:0.0 50:0.03333333333333333 51:0.0 52:0.0 53:0.03333333333333333 54:0.0 55:0.0 56:0.0 57:0.0 58:0.1 
1.0 0:0.0 1:0.0 2:0.0 3:0.0 4:0.0 5:0.0 6:0.0 7:0.0 8:0.0 9:0.0 10:0.0 11:0.0 12:0.0 13:0.0 14:0.03333333333333333 15:0.0 16:0.0 17:0.0 18:0.0 19:1.0 20:0.0 21:0.0 22:0.0 23:0.0 24:0.0 25:0.0 26:0.0 27:0.0 28:0.0 29:0.0 30:0.0 31:0.0 32:0.0 33:0.03333333333333333 34:0.1 35:0.03333333333333333 36:0.06666666666666667 37:0.16666666666666666 38:0.3 39:0.03333333333333333 40:0.03333333333333333 41:0.03333333333333333 42:0.1 43:0.0 44:0.03333333333333333 45:0.0 46:0.0 47:0.0 48:0.0 49:0.0 50:0.0 51:0.0 52:0.0 53:0.03333333333333333 54:0.0 55:0.0 56:0.0 57:0.0 58:0.13333333333333333 
1.0 0:0.15625 1:0.0 2:0.0 3:0.0 4:0.09375 5:0.0 6:0.03125 7:0.0 8:0.0 9:0.0 10:0.0625 11:0.0 12:0.0 13:0.0 14:0.0 15:0.0 16:0.0 17:0.0 18:0.0 19:0.0 20:0.03125 21:0.03125 22:0.0 23:0.0 24:0.0 25:0.28125 26:0.03125 27:0.03125 28:0.0 29:0.0 30:0.0 31:0.0 32:1.0 33:0.0625 34:0.0 35:0.0625 36:0.0 37:0.0 38:0.0 39:0.0 40:0.0 41:0.0 42:0.0 43:0.0 44:0.0 45:0.0 46:0.0 47:0.0 48:0.0 49:0.0 50:0.0 51:0.0 52:0.0 53:0.0625 54:0.0 55:0.0 56:0.0 57:0.0 58:0.0625 
1.0 0:0.037037037037037035 1:0.0 2:0.07407407407407407 3:0.1111111111111111 4:0.0 5:0.037037037037037035 6:0.037037037037037035 7:0.0 8:0.0 9:0.0 10:0.037037037037037035 11:0.0 12:0.0 13:0.0 14:0.037037037037037035 15:0.037037037037037035 16:0.0 17:0.0 18:0.0 19:0.07407407407407407 20:0.0 21:0.0 22:0.0 23:0.0 24:0.0 25:0.0 26:0.0 27:0.0 28:0.0 29:0.037037037037037035 30:0.07407407407407407 31:0.2222222222222222 32:0.18518518518518517 33:0.037037037037037035 34:0.0 35:0.0 36:0.07407407407407407 37:0.0 38:1.0 39:0.0 40:0.0 41:0.0 42:0.0 43:0.0 44:0.037037037037037035 45:0.0 46:0.037037037037037035 47:0.0 48:0.0 49:0.0 50:0.0 51:0.0 52:0.037037037037037035 53:0.0 54:0.0 55:0.0 56:0.0 57:0.0 58:0.14814814814814814 
1.0 0:0.16 1:0.12 2:0.0 3:0.0 4:0.04 5:0.04 6:0.0 7:0.0 8:0.0 9:0.28 10:0.04 11:0.0 12:0.0 13:0.04 14:0.04 15:0.04 16:0.0 17:0.04 18:0.04 19:0.0 20:0.04 21:0.0 22:0.04 23:0.0 24:0.0 25:0.0 26:0.0 27:0.0 28:0.0 29:0.04 30:0.0 31:0.0 32:0.04 33:0.0 34:0.0 35:0.04 36:0.04 37:0.04 38:0.0 39:0.0 40:0.0 41:0.0 42:1.0 43:0.04 44:0.0 45:0.04 46:0.04 47:0.04 48:0.12 49:0.0 50:0.0 51:0.0 52:0.0 53:0.0 54:0.0 55:0.0 56:0.08 57:0.0 58:0.04 
1.0 0:0.17857142857142858 1:0.0 2:0.03571428571428571 3:0.03571428571428571 4:0.14285714285714285 5:0.03571428571428571 6:0.0 7:0.0 8:0.0 9:0.03571428571428571 10:0.0 11:0.03571428571428571 12:0.03571428571428571 13:0.03571428571428571 14:0.0 15:0.0 16:0.03571428571428571 17:0.0 18:0.0 19:0.03571428571428571 20:0.0 21:0.0 22:0.03571428571428571 23:0.03571428571428571 24:0.03571428571428571 25:0.0 26:0.0 27:0.0 28:0.07142857142857142 29:0.03571428571428571 30:0.03571428571428571 31:0.0 32:0.0 33:0.0 34:0.0 35:0.0 36:0.0 37:0.0 38:0.0 39:0.0 40:0.0 41:0.03571428571428571 42:0.0 43:0.0 44:0.0 45:0.0 46:0.07142857142857142 47:0.0 48:0.0 49:0.0 50:0.0 51:0.0 52:0.03571428571428571 53:0.0 54:0.0 55:0.03571428571428571 56:0.03571428571428571 57:0.17857142857142858 58:1.0 
1.0 0:0.0 1:0.0 2:0.0 3:0.0 4:0.0 5:0.0 6:0.0 7:0.0 8:0.0 9:0.0 10:0.0 11:0.0 12:0.0 13:0.0 14:0.0 15:0.0 16:0.0 17:0.0 18:0.038461538461538464 19:0.038461538461538464 20:0.038461538461538464 21:0.0 22:0.038461538461538464 23:0.038461538461538464 24:0.07692307692307693 25:1.0 26:0.0 27:0.0 28:0.0 29:0.038461538461538464 30:0.038461538461538464 31:0.11538461538461539 32:0.19230769230769232 33:0.0 34:0.0 35:0.038461538461538464 36:0.038461538461538464 37:0.07692307692307693 38:0.038461538461538464 39:0.0 40:0.0 41:0.0 42:0.0 43:0.0 44:0.0 45:0.038461538461538464 46:0.0 47:0.0 48:0.038461538461538464 49:0.038461538461538464 50:0.038461538461538464 51:0.038461538461538464 52:0.0 53:0.07692307692307693 54:0.038461538461538464 55:0.0 56:0.0 57:0.0 58:0.3076923076923077 
1.0 0:0.4074074074074074 1:0.0 2:0.0 3:0.0 4:0.0 5:0.0 6:0.0 7:0.0 8:0.0 9:0.0 10:0.0 11:0.037037037037037035 12:0.0 13:0.0 14:0.0 15:0.0 16:0.037037037037037035 17:0.037037037037037035 18:0.0 19:0.0 20:0.0 21:0.0 22:0.037037037037037035 23:0.037037037037037035 24:0.0 25:0.0 26:0.0 27:0.0 28:0.0 29:0.037037037037037035 30:0.0 31:0.0 32:0.0 33:0.0 34:0.0 35:0.0 36:0.07407407407407407 37:0.1111111111111111 38:0.1111111111111111 39:0.0 40:0.0 41:0.0 42:1.0 43:0.037037037037037035 44:0.0 45:0.0 46:0.0 47:0.07407407407407407 48:0.0 49:0.0 50:0.0 51:0.14814814814814814 52:0.0 53:0.0 54:0.0 55:0.0 56:0.0 57:0.037037037037037035 58:0.14814814814814814 
1.0 0:0.14814814814814814 1:0.0 2:0.037037037037037035 3:0.037037037037037035 4:0.07407407407407407 5:0.0 6:0.0 7:0.0 8:0.0 9:0.0 10:0.037037037037037035 11:0.0 12:0.0 13:0.037037037037037035 14:0.0 15:0.0 16:0.0 17:0.037037037037037035 18:0.0 19:0.0 20:0.0 21:0.0 22:0.037037037037037035 23:0.037037037037037035 24:0.1111111111111111 25:0.037037037037037035 26:0.0 27:0.037037037037037035 28:0.0 29:0.0 30:0.0 31:0.037037037037037035 32:0.0 33:0.0 34:0.0 35:0.037037037037037035 36:0.07407407407407407 37:0.07407407407407407 38:0.1111111111111111 39:0.0 40:0.0 41:0.0 42:0.0 43:0.0 44:0.0 45:0.0 46:0.037037037037037035 47:0.0 48:0.07407407407407407 49:0.0 50:0.0 51:0.037037037037037035 52:0.0 53:0.037037037037037035 54:0.0 55:0.0 56:0.037037037037037035 57:0.14814814814814814 58:1.0 
1.0 0:0.05263157894736842 1:0.0 2:0.05263157894736842 3:0.05263157894736842 4:0.15789473684210525 5:0.0 6:0.0 7:0.05263157894736842 8:0.0 9:0.0 10:0.05263157894736842 11:0.0 12:0.10526315789473684 13:0.05263157894736842 14:0.05263157894736842 15:0.0 16:0.0 17:0.0 18:0.05263157894736842 19:0.0 20:0.05263157894736842 21:0.0 22:0.0 23:0.21052631578947367 24:0.0 25:0.0 26:0.05263157894736842 27:0.0 28:0.0 29:0.0 30:0.0 31:0.0 32:0.0 33:0.0 34:0.0 35:0.0 36:0.10526315789473684 37:0.10526315789473684 38:0.0 39:0.0 40:0.05263157894736842 41:0.0 42:1.0 43:0.05263157894736842 44:0.0 45:0.0 46:0.0 47:0.6842105263157895 48:0.05263157894736842 49:0.0 50:0.0 51:0.10526315789473684 52:0.05263157894736842 53:0.0 54:0.0 55:0.0 56:0.0 57:0.05263157894736842 58:0.10526315789473684 
1.0 0:0.038461538461538464 1:0.11538461538461539 2:0.0 3:0.038461538461538464 4:0.0 5:0.038461538461538464 6:0.2692307692307692 7:0.038461538461538464 8:0.07692307692307693 9:0.038461538461538464 10:0.038461538461538464 11:0.0 12:0.0 13:0.0 14:0.0 15:0.0 16:0.0 17:0.038461538461538464 18:0.0 19:0.0 20:0.0 21:0.038461538461538464 22:0.0 23:0.038461538461538464 24:0.0 25:0.07692307692307693 26:0.0 27:0.038461538461538464 28:0.038461538461538464 29:0.0 30:0.0 31:0.0 32:1.0 33:0.038461538461538464 34:0.0 35:0.07692307692307693 36:0.0 37:0.038461538461538464 38:0.038461538461538464 39:0.0 40:0.038461538461538464 41:0.0 42:0.038461538461538464 43:0.0 44:0.0 45:0.0 46:0.0 47:0.0 48:0.0 49:0.0 50:0.0 51:0.0 52:0.0 53:0.07692307692307693 54:0.0 55:0.0 56:0.0 57:0.0 58:0.15384615384615385 
1.0 0:0.21739130434782608 1:0.0 2:0.0 3:0.08695652173913043 4:0.08695652173913043 5:0.043478260869565216 6:0.0 7:0.043478260869565216 8:0.08695652173913043 9:0.0 10:0.0 11:0.0 12:0.13043478260869565 13:0.08695652173913043 14:0.043478260869565216 15:0.0 16:0.0 17:0.043478260869565216 18:0.08695652173913043 19:1.0 20:0.0 21:0.043478260869565216 22:0.13043478260869565 23:0.0 24:0.0 25:0.043478260869565216 26:0.043478260869565216 27:0.0 28:0.0 29:0.043478260869565216 30:0.0 31:0.043478260869565216 32:0.0 33:0.0 34:0.0 35:0.08695652173913043 36:0.0 37:0.043478260869565216 38:0.043478260869565216 39:0.0 40:0.0 41:0.0 42:0.0 43:0.0 44:0.043478260869565216 45:0.0 46:0.0 47:0.0 48:0.0 49:0.0 50:0.0 51:0.0 52:0.0 53:0.0 54:0.0 55:0.0 56:0.0 57:0.08695652173913043 58:0.17391304347826086 
1.0 0:0.1724137931034483 1:0.0 2:0.06896551724137931 3:0.0 4:0.0 5:0.06896551724137931 6:0.06896551724137931 7:0.06896551724137931 8:0.06896551724137931 9:1.0 10:0.1724137931034483 11:0.0 12:0.0 13:0.0 14:0.1724137931034483 15:0.0 16:0.0 17:0.0 18:0.10344827586206896 19:0.06896551724137931 20:0.034482758620689655 21:0.0 22:0.0 23:0.0 24:0.0 25:0.0 26:0.0 27:0.0 28:0.0 29:0.0 30:0.0 31:0.034482758620689655 32:0.034482758620689655 33:0.034482758620689655 34:0.0 35:0.034482758620689655 36:0.0 37:0.0 38:0.0 39:0.0 40:0.0 41:0.0 42:0.0 43:0.0 44:0.0 45:0.0 46:0.0 47:0.0 48:0.0 49:0.0 50:0.0 51:0.0 52:0.0 53:0.0 54:0.0 55:0.0 56:0.0 57:0.0 58:0.0 
1.0 0:0.1111111111111111 1:0.0 2:0.0 3:0.037037037037037035 4:0.0 5:0.0 6:0.0 7:0.037037037037037035 8:0.0 9:0.0 10:0.037037037037037035 11:0.0 12:0.07407407407407407 13:0.1111111111111111 14:0.037037037037037035 15:0.0 16:0.0 17:0.0 18:0.037037037037037035 19:1.0 20:0.0 21:0.037037037037037035 22:0.1111111111111111 23:0.0 24:0.0 25:0.0 26:0.0 27:0.0 28:0.0 29:0.0 30:0.0 31:0.037037037037037035 32:0.07407407407407407 33:0.037037037037037035 34:0.0 35:0.07407407407407407 36:0.0 37:0.0 38:0.0 39:0.0 40:0.0 41:0.0 42:0.0 43:0.0 44:0.0 45:0.0 46:0.0 47:0.0 48:0.0 49:0.037037037037037035 50:0.037037037037037035 51:0.0 52:0.0 53:0.0 54:0.0 55:0.0 56:0.0 57:0.1111111111111111 58:0.3333333333333333 
1.0 0:0.25 1:0.0 2:0.0 3:0.0 4:0.21428571428571427 5:0.0 6:0.0 7:0.0 8:0.0 9:0.0 10:0.0 11:0.0 12:0.03571428571428571 13:0.0 14:0.0 15:0.0 16:0.0 17:0.0 18:0.14285714285714285 19:0.0 20:0.0 21:0.0 22:0.10714285714285714 23:0.0 24:0.0 25:0.03571428571428571 26:0.0 27:0.0 28:0.0 29:0.0 30:0.0 31:0.03571428571428571 32:1.0 33:0.0 34:0.0 35:0.32142857142857145 36:0.0 37:0.0 38:0.0 39:0.0 40:0.0 41:0.0 42:0.0 43:0.0 44:0.0 45:0.0 46:0.0 47:0.0 48:0.0 49:0.0 50:0.0 51:0.03571428571428571 52:0.0 53:0.0 54:0.0 55:0.0 56:0.0 57:0.0 58:0.10714285714285714 
1.0 0:0.0 1:0.0 2:0.0 3:0.0 4:0.0 5:0.0 6:0.0 7:0.0 8:0.0 9:0.0 10:0.0 11:0.0 12:0.0 13:0.0 14:0.0 15:0.0 16:0.0 17:0.0 18:0.48 19:0.08 20:0.0 21:0.0 22:0.0 23:0.0 24:0.0 25:1.0 26:0.24 27:0.0 28:0.0 29:0.0 30:0.0 31:0.0 32:0.0 33:0.0 34:0.0 35:0.04 36:0.0 37:0.0 38:0.0 39:0.0 40:0.0 41:0.0 42:0.04 43:0.04 44:0.0 45:0.0 46:0.0 47:0.04 48:0.08 49:0.04 50:0.0 51:0.32 52:0.0 53:0.08 54:0.0 55:0.0 56:0.0 57:0.04 58:0.04 
1.0 0:0.2 1:0.12 2:0.0 3:0.0 4:0.08 5:0.0 6:0.08 7:0.0 8:0.08 9:0.0 10:0.0 11:0.0 12:0.08 13:0.0 14:0.0 15:0.0 16:0.0 17:0.04 18:0.0 19:0.0 20:0.0 21:0.0 22:0.0 23:0.08 24:0.0 25:0.0 26:0.0 27:0.04 28:0.0 29:0.04 30:0.04 31:0.0 32:0.0 33:0.0 34:0.04 35:0.0 36:0.0 37:0.0 38:0.0 39:0.0 40:0.0 41:0.0 42:0.0 43:0.04 44:0.0 45:0.0 46:0.08 47:0.04 48:0.04 49:0.04 50:0.0 51:0.0 52:0.04 53:0.08 54:0.0 55:0.0 56:0.08 57:0.2 58:1.0 
1.0 0:0.0625 1:0.0 2:0.0 3:0.0 4:0.03125 5:0.0 6:0.03125 7:0.0 8:0.0 9:0.0625 10:0.0 11:0.0 12:0.0 13:0.0 14:0.0 15:0.0 16:0.0 17:0.0 18:0.03125 19:0.03125 20:0.0 21:0.0 22:0.125 23:0.0 24:0.0 25:0.125 26:0.0 27:0.0 28:0.0 29:0.0 30:0.03125 31:0.15625 32:0.0625 33:0.0625 34:0.0 35:0.0 36:0.03125 37:0.0 38:1.0 39:0.0 40:0.0 41:0.0 42:0.0 43:0.03125 44:0.03125 45:0.0 46:0.03125 47:0.0 48:0.0 49:0.0 50:0.0 51:0.0625 52:0.0 53:0.0 54:0.0 55:0.0 56:0.0 57:0.0 58:0.0 
1.0 0:0.05555555555555555 1:0.1111111111111111 2:0.0 3:0.0 4:0.0 5:0.05555555555555555 6:0.16666666666666666 7:0.0 8:0.05555555555555555 9:0.05555555555555555 10:0.0 11:0.0 12:0.0 13:0.05555555555555555 14:0.05555555555555555 15:0.05555555555555555 16:0.0 17:0.05555555555555555 18:0.05555555555555555 19:0.0 20:0.2222222222222222 21:0.0 22:0.0 23:0.05555555555555555 24:0.0 25:0.0 26:0.0 27:0.0 28:0.0 29:0.0 30:0.1111111111111111 31:0.16666666666666666 32:0.05555555555555555 33:0.0 34:0.0 35:0.05555555555555555 36:0.0 37:0.3888888888888889 38:0.05555555555555555 39:0.0 40:0.05555555555555555 41:0.0 42:0.2222222222222222 43:1.0 44:0.0 45:0.0 46:0.0 47:0.0 48:0.0 49:0.1111111111111111 50:0.0 51:0.0 52:0.05555555555555555 53:0.05555555555555555 54:0.0 55:0.0 56:0.0 57:0.0 58:0.16666666666666666 
1.0 0:0.1111111111111111 1:0.037037037037037035 2:0.0 3:0.07407407407407407 4:0.1111111111111111 5:0.0 6:0.0 7:0.037037037037037035 8:0.0 9:0.0 10:0.0 11:0.0 12:0.0 13:0.0 14:0.0 15:0.0 16:0.0 17:0.0 18:0.0 19:0.0 20:0.0 21:0.0 22:0.0 23:0.0 24:0.0 25:0.0 26:0.0 27:0.0 28:0.0 29:0.037037037037037035 30:0.0 31:0.2222222222222222 32:1.0 33:0.0 34:0.037037037037037035 35:0.0 36:0.0 37:0.0 38:0.37037037037037035 39:0.18518518518518517 40:0.0 41:0.0 42:0.0 43:0.0 44:0.0 45:0.0 46:0.0 47:0.0 48:0.0 49:0.0 50:0.0 51:0.0 52:0.0 53:0.0 54:0.0 55:0.0 56:0.0 57:0.037037037037037035 58:0.1111111111111111 
1.0 0:0.07407407407407407 1:0.0 2:0.037037037037037035 3:0.0 4:0.037037037037037035 5:0.0 6:0.25925925925925924 7:0.037037037037037035 8:0.1111111111111111 9:0.037037037037037035 10:0.037037037037037035 11:0.0 12:0.037037037037037035 13:0.037037037037037035 14:0.0 15:0.0 16:0.0 17:0.0 18:0.0 19:0.0 20:0.0 21:0.0 22:0.037037037037037035 23:0.0 24:0.0 25:0.18518518518518517 26:0.0 27:0.0 28:0.0 29:0.037037037037037035 30:0.037037037037037035 31:0.1111111111111111 32:1.0 33:0.07407407407407407 34:0.0 35:0.0 36:0.0 37:0.037037037037037035 38:0.07407407407407407 39:0.07407407407407407 40:0.0 41:0.0 42:0.0 43:0.0 44:0.0 45:0.0 46:0.0 47:0.0 48:0.0 49:0.0 50:0.0 51:0.0 52:0.0 53:0.0 54:0.0 55:0.0 56:0.0 57:0.0 58:0.0 
1.0 0:0.11764705882352941 1:0.0 2:0.0 3:0.0 4:0.08823529411764706 5:0.029411764705882353 6:0.08823529411764706 7:0.0 8:0.0 9:0.0 10:0.0 11:0.0 12:0.0 13:0.0 14:0.0 15:0.0 16:0.0 17:0.0 18:0.17647058823529413 19:0.058823529411764705 20:0.029411764705882353 21:0.0 22:0.029411764705882353 23:0.0 24:0.0 25:0.0 26:0.029411764705882353 27:0.0 28:0.0 29:0.0 30:0.0 31:0.11764705882352941 32:1.0 33:0.058823529411764705 34:0.029411764705882353 35:0.0 36:0.0 37:0.0 38:0.0 39:0.0 40:0.0 41:0.0 42:0.0 43:0.0 44:0.0 45:0.0 46:0.0 47:0.0 48:0.0 49:0.0 50:0.0 51:0.0 52:0.0 53:0.0 54:0.0 55:0.0 56:0.0 57:0.029411764705882353 58:0.0 
1.0 0:0.2222222222222222 1:0.0 2:0.0 3:0.0 4:0.0 5:0.0 6:0.0 7:0.0 8:0.0 9:0.0 10:0.0 11:0.0 12:0.0 13:0.0 14:0.0 15:0.0 16:0.0 17:0.0 18:1.0 19:0.0 20:0.022222222222222223 21:0.0 22:0.0 23:0.0 24:0.0 25:0.022222222222222223 26:0.022222222222222223 27:0.0 28:0.0 29:0.0 30:0.0 31:0.0 32:0.0 33:0.022222222222222223 34:0.0 35:0.0 36:0.0 37:0.0 38:0.0 39:0.0 40:0.0 41:0.0 42:0.0 43:0.0 44:0.0 45:0.0 46:0.0 47:0.0 48:0.0 49:0.0 50:0.0 51:0.0 52:0.0 53:0.022222222222222223 54:0.0 55:0.0 56:0.0 57:0.0 58:0.08888888888888889 
1.0 0:0.2222222222222222 1:0.07407407407407407 2:0.1111111111111111 3:0.0 4:0.0 5:0.0 6:0.0 7:0.0 8:0.0 9:0.0 10:0.0 11:0.0 12:0.0 13:0.0 14:0.0 15:0.0 16:0.0 17:0.0 18:0.0 19:0.0 20:0.0 21:0.0 22:0.07407407407407407 23:0.0 24:0.0 25:0.0 26:0.0 27:0.0 28:0.0 29:0.037037037037037035 30:0.0 31:1.0 32:0.1111111111111111 33:0.0 34:0.0 35:0.0 36:0.0 37:0.0 38:0.3333333333333333 39:0.0 40:0.0 41:0.0 42:0.0 43:0.0 44:0.0 45:0.0 46:0.0 47:0.0 48:0.0 49:0.0 50:0.0 51:0.0 52:0.0 53:0.037037037037037035 54:0.0 55:0.0 56:0.0 57:0.1111111111111111 58:0.25925925925925924 
1.0 0:0.047619047619047616 1:0.0 2:0.0 3:0.047619047619047616 4:0.047619047619047616 5:0.09523809523809523 6:0.09523809523809523 7:0.0 8:0.0 9:0.14285714285714285 10:0.09523809523809523 11:0.09523809523809523 12:0.0 13:0.14285714285714285 14:1.0 15:0.14285714285714285 16:0.0 17:0.0 18:0.0 19:0.0 20:0.09523809523809523 21:0.047619047619047616 22:0.0 23:0.0 24:0.0 25:0.0 26:0.047619047619047616 27:0.0 28:0.0 29:0.0 30:0.0 31:0.0 32:0.0 33:0.047619047619047616 34:0.0 35:0.0 36:0.0 37:0.0 38:0.0 39:0.0 40:0.0 41:0.047619047619047616 42:0.047619047619047616 43:0.047619047619047616 44:0.0 45:0.047619047619047616 46:0.047619047619047616 47:0.047619047619047616 48:0.0 49:0.0 50:0.0 51:0.0 52:0.0 53:0.0 54:0.047619047619047616 55:0.047619047619047616 56:0.0 57:0.047619047619047616 58:0.42857142857142855 
1.0 0:0.18181818181818182 1:0.0 2:0.0 3:0.030303030303030304 4:0.0 5:0.0 6:0.0 7:0.0 8:0.030303030303030304 9:0.0 10:0.0 11:0.0 12:0.0 13:0.09090909090909091 14:0.15151515151515152 15:0.0 16:0.0 17:0.0 18:0.030303030303030304 19:0.030303030303030304 20:0.0 21:0.030303030303030304 22:0.06060606060606061 23:0.0 24:0.0 25:0.0 26:0.0 27:0.030303030303030304 28:0.030303030303030304 29:0.0 30:0.0 31:0.030303030303030304 32:0.0 33:0.0 34:0.0 35:0.0 36:0.0 37:0.030303030303030304 38:0.0 39:0.0 40:0.0 41:0.0 42:0.0 43:0.0 44:0.0 45:0.0 46:0.030303030303030304 47:0.0 48:0.0 49:0.0 50:0.0 51:0.0 52:0.0 53:0.030303030303030304 54:0.0 55:0.0 56:0.030303030303030304 57:0.09090909090909091 58:1.0 
1.0 0:0.19230769230769232 1:0.0 2:0.0 3:0.0 4:0.0 5:0.0 6:0.15384615384615385 7:0.0 8:0.038461538461538464 9:0.07692307692307693 10:1.0 11:0.038461538461538464 12:0.0 13:0.0 14:0.0 15:0.0 16:0.0 17:0.0 18:0.0 19:0.0 20:0.0 21:0.0 22:0.0 23:0.038461538461538464 24:0.07692307692307693 25:0.038461538461538464 26:0.0 27:0.0 28:0.0 29:0.038461538461538464 30:0.038461538461538464 31:0.0 32:0.0 33:0.0 34:0.0 35:0.0 36:0.0 37:0.0 38:0.0 39:0.0 40:0.0 41:0.0 42:0.0 43:0.0 44:0.0 45:0.0 46:0.0 47:0.19230769230769232 48:0.11538461538461539 49:0.0 50:0.0 51:0.11538461538461539 52:0.0 53:0.0 54:0.0 55:0.0 56:0.0 57:0.0 58:0.3076923076923077 
1.0 0:0.09090909090909091 1:0.18181818181818182 2:0.0 3:0.0 4:0.045454545454545456 5:0.0 6:0.045454545454545456 7:0.045454545454545456 8:0.0 9:0.0 10:0.0 11:0.13636363636363635 12:0.0 13:0.0 14:0.0 15:0.045454545454545456 16:0.0 17:0.0 18:0.0 19:0.0 20:0.045454545454545456 21:0.0 22:0.09090909090909091 23:0.0 24:0.0 25:0.0 26:0.0 27:0.0 28:0.0 29:0.0 30:0.0 31:0.0 32:0.0 33:0.045454545454545456 34:0.0 35:0.0 36:0.0 37:0.22727272727272727 38:0.0 39:0.0 40:0.0 41:0.0 42:0.22727272727272727 43:1.0 44:0.045454545454545456 45:0.0 46:0.045454545454545456 47:0.045454545454545456 48:0.0 49:0.0 50:0.0 51:0.045454545454545456 52:0.045454545454545456 53:0.0 54:0.0 55:0.0 56:0.0 57:0.09090909090909091 58:0.36363636363636365 
1.0 0:0.125 1:0.041666666666666664 2:0.16666666666666666 3:0.08333333333333333 4:0.041666666666666664 5:0.08333333333333333 6:0.16666666666666666 7:0.08333333333333333 8:0.041666666666666664 9:0.25 10:1.0 11:0.0 12:0.041666666666666664 13:0.041666666666666664 14:0.041666666666666664 15:0.08333333333333333 16:0.0 17:0.0 18:0.0 19:0.0 20:0.0 21:0.0 22:0.0 23:0.0 24:0.0 25:0.0 26:0.0 27:0.041666666666666664 28:0.0 29:0.0 30:0.0 31:0.0 32:0.0 33:0.041666666666666664 34:0.041666666666666664 35:0.0 36:0.0 37:0.0 38:0.0 39:0.0 40:0.041666666666666664 41:0.0 42:0.0 43:0.0 44:0.041666666666666664 45:0.0 46:0.0 47:0.0 48:0.0 49:0.0 50:0.0 51:0.0 52:0.0 53:0.041666666666666664 54:0.0 55:0.0 56:0.0 57:0.08333333333333333 58:0.041666666666666664 
1.0 0:0.10344827586206896 1:0.0 2:0.0 3:0.0 4:0.20689655172413793 5:0.0 6:0.0 7:0.0 8:0.0 9:0.0 10:0.0 11:0.0 12:0.0 13:0.0 14:0.0 15:0.0 16:0.0 17:0.0 18:0.0 19:0.0 20:0.0 21:0.0 22:0.20689655172413793 23:0.0 24:0.0 25:0.27586206896551724 26:0.0 27:0.0 28:0.0 29:0.0 30:0.0 31:0.034482758620689655 32:1.0 33:0.0 34:0.0 35:0.06896551724137931 36:0.0 37:0.0 38:0.034482758620689655 39:0.034482758620689655 40:0.0 41:0.0 42:0.0 43:0.0 44:0.0 45:0.0 46:0.0 47:0.0 48:0.0 49:0.0 50:0.0 51:0.0 52:0.0 53:0.034482758620689655 54:0.0 55:0.0 56:0.0 57:0.0 58:0.20689655172413793 
1.0 0:0.15384615384615385 1:0.0 2:0.0 3:0.0 4:0.15384615384615385 5:0.0 6:0.0 7:0.0 8:0.0 9:0.0 10:0.0 11:0.0 12:0.038461538461538464 13:0.0 14:0.0 15:0.0 16:0.0 17:0.038461538461538464 18:0.11538461538461539 19:0.07692307692307693 20:0.0 21:0.0 22:0.038461538461538464 23:0.0 24:0.038461538461538464 25:0.19230769230769232 26:0.0 27:0.0 28:0.0 29:0.0 30:0.038461538461538464 31:1.0 32:0.0 33:0.038461538461538464 34:0.0 35:0.11538461538461539 36:0.0 37:0.0 38:0.0 39:0.0 40:0.0 41:0.0 42:0.0 43:0.0 44:0.0 45:0.0 46:0.0 47:0.0 48:0.0 49:0.0 50:0.0 51:0.0 52:0.0 53:0.038461538461538464 54:0.0 55:0.0 56:0.0 57:0.0 58:0.38461538461538464 
1.0 0:0.0 1:0.02857142857142857 2:0.02857142857142857 3:0.0 4:0.0 5:0.02857142857142857 6:0.0 7:0.0 8:0.0 9:0.0 10:0.0 11:0.0 12:0.02857142857142857 13:0.0 14:0.0 15:0.0 16:0.0 17:0.0 18:0.02857142857142857 19:0.0 20:0.0 21:0.0 22:0.0 23:0.0 24:0.0 25:0.0 26:0.0 27:0.0 28:0.0 29:0.0 30:0.02857142857142857 31:1.0 32:0.11428571428571428 33:0.05714285714285714 34:0.0 35:0.0 36:0.0 37:0.0 38:0.3142857142857143 39:0.0 40:0.02857142857142857 41:0.0 42:0.0 43:0.02857142857142857 44:0.02857142857142857 45:0.0 46:0.0 47:0.0 48:0.0 49:0.0 50:0.0 51:0.0 52:0.0 53:0.0 54:0.0 55:0.0 56:0.0 57:0.0 58:0.08571428571428572 
1.0 0:0.125 1:0.0 2:0.0 3:0.0 4:0.0 5:0.0 6:0.0 7:0.08333333333333333 8:0.125 9:0.0 10:0.0 11:0.0 12:0.2916666666666667 13:0.16666666666666666 14:0.041666666666666664 15:0.0 16:0.0 17:0.0 18:0.8333333333333334 19:1.0 20:0.0 21:0.0 22:0.0 23:0.0 24:0.0 25:0.0 26:0.0 27:0.0 28:0.0 29:0.0 30:0.0 31:0.0 32:0.0 33:0.0 34:0.0 35:0.0 36:0.0 37:0.0 38:0.0 39:0.0 40:0.0 41:0.0 42:0.0 43:0.0 44:0.0 45:0.0 46:0.0 47:0.0 48:0.0 49:0.0 50:0.0 51:0.0 52:0.0 53:0.0 54:0.0 55:0.0 56:0.0 57:0.0 58:0.0 
1.0 0:0.0 1:0.0 2:0.0 3:0.0 4:0.0 5:0.0 6:0.03333333333333333 7:0.0 8:0.0 9:0.0 10:0.0 11:0.0 12:0.03333333333333333 13:0.0 14:0.0 15:0.0 16:0.0 17:0.0 18:0.16666666666666666 19:0.06666666666666667 20:0.0 21:0.0 22:0.0 23:0.0 24:0.0 25:0.0 26:0.0 27:0.0 28:0.0 29:0.0 30:0.0 31:1.0 32:0.13333333333333333 33:0.0 34:0.0 35:0.03333333333333333 36:0.0 37:0.0 38:0.43333333333333335 39:0.0 40:0.0 41:0.0 42:0.0 43:0.0 44:0.0 45:0.0 46:0.0 47:0.0 48:0.0 49:0.0 50:0.0 51:0.0 52:0.0 53:0.0 54:0.0 55:0.0 56:0.0 57:0.0 58:0.23333333333333334 
1.0 0:0.10714285714285714 1:0.0 2:0.017857142857142856 3:0.017857142857142856 4:0.0 5:0.0 6:0.0 7:0.0 8:0.0 9:0.0 10:0.0 11:0.0 12:0.0 13:0.0 14:0.0 15:0.0 16:0.0 17:0.0 18:0.0 19:0.0 20:0.0 21:0.0 22:0.0 23:0.0 24:0.0 25:0.0 26:0.0 27:0.0 28:0.0 29:0.0 30:0.0 31:1.0 32:0.0 33:0.0 34:0.0 35:0.0 36:0.0 37:0.0 38:0.0 39:0.0 40:0.0 41:0.0 42:0.0 43:0.0 44:0.0 45:0.0 46:0.0 47:0.0 48:0.0 49:0.0 50:0.0 51:0.0 52:0.0 53:0.0 54:0.0 55:0.0 56:0.0 57:0.0 58:0.0 
1.0 0:0.25 1:0.0 2:0.0 3:0.0 4:0.0 5:0.0 6:0.0 7:0.0 8:0.0 9:0.5 10:0.0 11:0.0 12:0.0 13:0.0 14:0.0 15:0.0 16:0.0 17:0.0 18:0.0 19:0.0 20:0.0 21:0.0 22:0.0 23:0.0 24:0.0 25:0.0 26:0.0 27:0.0 28:0.0 29:0.0 30:0.0 31:0.0 32:0.0 33:0.0 34:0.0 35:0.0 36:0.0 37:0.0 38:0.0 39:0.0 40:0.0 41:0.0 42:1.0 43:0.0 44:0.0 45:0.0 46:0.0 47:0.0 48:0.0 49:0.0 50:0.0 51:0.0 52:0.0 53:0.0 54:0.0 55:0.0 56:0.0 57:0.0 58:0.25 
1.0 0:0.30434782608695654 1:0.0 2:0.0 3:0.043478260869565216 4:0.0 5:0.0 6:0.0 7:0.13043478260869565 8:0.043478260869565216 9:0.08695652173913043 10:0.043478260869565216 11:0.0 12:0.0 13:0.043478260869565216 14:0.043478260869565216 15:0.0 16:0.0 17:0.0 18:0.0 19:0.0 20:0.0 21:0.0 22:0.0 23:0.0 24:0.0 25:0.0 26:0.0 27:0.0 28:0.0 29:0.08695652173913043 30:0.13043478260869565 31:0.043478260869565216 32:0.0 33:0.0 34:0.0 35:0.0 36:0.2608695652173913 37:0.043478260869565216 38:0.0 39:0.0 40:0.0 41:0.0 42:1.0 43:0.30434782608695654 44:0.0 45:0.043478260869565216 46:0.0 47:0.0 48:0.0 49:0.0 50:0.0 51:0.0 52:0.0 53:0.0 54:0.043478260869565216 55:0.0 56:0.0 57:0.0 58:0.08695652173913043 
1.0 0:0.07692307692307693 1:0.0 2:0.0 3:0.038461538461538464 4:0.07692307692307693 5:0.0 6:0.0 7:0.038461538461538464 8:0.0 9:0.0 10:0.0 11:0.038461538461538464 12:0.0 13:0.038461538461538464 14:0.038461538461538464 15:0.0 16:0.0 17:0.0 18:0.038461538461538464 19:0.038461538461538464 20:0.0 21:0.038461538461538464 22:0.038461538461538464 23:0.07692307692307693 24:0.15384615384615385 25:0.07692307692307693 26:0.0 27:0.0 28:0.0 29:0.0 30:0.0 31:0.15384615384615385 32:1.0 33:0.038461538461538464 34:0.0 35:0.0 36:0.0 37:0.0 38:0.07692307692307693 39:0.0 40:0.0 41:0.0 42:0.0 43:0.0 44:0.038461538461538464 45:0.038461538461538464 46:0.0 47:0.038461538461538464 48:0.0 49:0.0 50:0.0 51:0.038461538461538464 52:0.0 53:0.07692307692307693 54:0.0 55:0.0 56:0.0 57:0.0 58:0.15384615384615385 
1.0 0:0.0 1:0.0 2:0.0 3:0.0 4:0.11538461538461539 5:0.0 6:0.0 7:0.0 8:0.0 9:0.0 10:0.0 11:0.0 12:0.0 13:0.0 14:0.0 15:0.0 16:0.038461538461538464 17:0.0 18:0.0 19:0.3076923076923077 20:0.0 21:0.0 22:0.038461538461538464 23:0.0 24:0.038461538461538464 25:0.23076923076923078 26:0.038461538461538464 27:0.0 28:0.0 29:0.0 30:0.0 31:0.038461538461538464 32:0.038461538461538464 33:0.0 34:0.0 35:0.07692307692307693 36:0.07692307692307693 37:0.038461538461538464 38:1.0 39:0.0 40:0.0 41:0.0 42:0.0 43:0.0 44:0.038461538461538464 45:0.0 46:0.0 47:0.038461538461538464 48:0.0 49:0.0 50:0.0 51:0.038461538461538464 52:0.0 53:0.11538461538461539 54:0.0 55:0.0 56:0.0 57:0.0 58:0.15384615384615385 
1.0 0:0.041666666666666664 1:0.0 2:0.0 3:0.0 4:0.0 5:0.041666666666666664 6:0.0 7:0.0 8:0.0 9:0.0 10:0.0 11:0.0 12:0.041666666666666664 13:0.041666666666666664 14:0.0 15:0.0 16:0.0 17:0.0 18:0.20833333333333334 19:1.0 20:0.0 21:0.041666666666666664 22:0.0 23:0.0 24:0.041666666666666664 25:0.125 26:0.041666666666666664 27:0.041666666666666664 28:0.0 29:0.0 30:0.041666666666666664 31:0.08333333333333333 32:0.041666666666666664 33:0.041666666666666664 34:0.041666666666666664 35:0.041666666666666664 36:0.0 37:0.041666666666666664 38:0.20833333333333334 39:0.08333333333333333 40:0.0 41:0.0 42:0.0 43:0.0 44:0.041666666666666664 45:0.0 46:0.0 47:0.041666666666666664 48:0.0 49:0.0 50:0.0 51:0.0 52:0.0 53:0.041666666666666664 54:0.0 55:0.0 56:0.041666666666666664 57:0.08333333333333333 58:0.125 
1.0 0:0.043478260869565216 1:0.0 2:0.0 3:0.0 4:0.0 5:0.043478260869565216 6:0.0 7:0.0 8:0.08695652173913043 9:0.0 10:0.043478260869565216 11:0.043478260869565216 12:0.043478260869565216 13:0.043478260869565216 14:0.0 15:0.0 16:0.0 17:0.0 18:0.043478260869565216 19:0.0 20:0.13043478260869565 21:0.0 22:0.13043478260869565 23:0.0 24:0.08695652173913043 25:0.08695652173913043 26:0.0 27:0.0 28:0.0 29:0.0 30:0.0 31:0.21739130434782608 32:0.043478260869565216 33:0.0 34:0.0 35:0.043478260869565216 36:0.0 37:0.0 38:1.0 39:0.13043478260869565 40:0.08695652173913043 41:0.0 42:0.0 43:0.0 44:0.0 45:0.0 46:0.0 47:0.0 48:0.0 49:0.0 50:0.0 51:0.0 52:0.0 53:0.043478260869565216 54:0.0 55:0.0 56:0.0 57:0.043478260869565216 58:0.34782608695652173 
1.0 0:0.13043478260869565 1:0.0 2:0.0 3:0.0 4:0.043478260869565216 5:0.043478260869565216 6:0.0 7:0.0 8:0.0 9:0.0 10:0.0 11:0.0 12:0.0 13:0.0 14:0.043478260869565216 15:0.0 16:0.0 17:0.0 18:0.0 19:1.0 20:0.13043478260869565 21:0.0 22:0.08695652173913043 23:0.0 24:0.0 25:0.043478260869565216 26:0.0 27:0.0 28:0.0 29:0.0 30:0.043478260869565216 31:0.08695652173913043 32:0.043478260869565216 33:0.0 34:0.043478260869565216 35:0.17391304347826086 36:0.0 37:0.0 38:0.043478260869565216 39:0.043478260869565216 40:0.0 41:0.0 42:0.0 43:0.0 44:0.043478260869565216 45:0.0 46:0.0 47:0.0 48:0.0 49:0.08695652173913043 50:0.0 51:0.0 52:0.043478260869565216 53:0.17391304347826086 54:0.0 55:0.043478260869565216 56:0.0 57:0.0 58:0.391304347826087 
1.0 0:0.22580645161290322 1:0.06451612903225806 2:0.0 3:0.0 4:0.06451612903225806 5:0.03225806451612903 6:0.0 7:0.0 8:0.0 9:0.0 10:0.0 11:0.0 12:0.0 13:0.0 14:0.0 15:0.0 16:0.0 17:0.03225806451612903 18:0.0 19:0.0 20:0.0 21:0.0 22:0.06451612903225806 23:0.03225806451612903 24:0.0 25:0.0 26:0.0 27:0.0 28:0.0 29:0.0 30:0.0 31:0.0 32:0.0 33:0.0 34:0.03225806451612903 35:0.06451612903225806 36:0.0 37:0.0 38:0.0 39:0.0 40:0.03225806451612903 41:0.0 42:0.0 43:0.0 44:0.0 45:0.0 46:0.03225806451612903 47:0.0 48:0.03225806451612903 49:0.0 50:0.03225806451612903 51:0.0 52:0.0 53:0.03225806451612903 54:0.0 55:0.06451612903225806 56:0.03225806451612903 57:0.1935483870967742 58:1.0 
1.0 0:0.12 1:0.04 2:0.04 3:0.0 4:0.04 5:0.08 6:0.04 7:0.04 8:0.08 9:0.0 10:0.0 11:0.04 12:0.04 13:0.04 14:0.0 15:0.0 16:0.0 17:0.0 18:0.0 19:0.0 20:0.0 21:0.0 22:0.0 23:0.04 24:0.0 25:0.0 26:0.04 27:0.04 28:0.0 29:0.08 30:0.04 31:0.08 32:0.0 33:0.0 34:0.0 35:0.04 36:0.04 37:0.12 38:0.08 39:0.0 40:0.0 41:0.0 42:0.0 43:0.04 44:0.04 45:0.08 46:0.0 47:0.0 48:0.0 49:0.0 50:0.0 51:0.0 52:0.0 53:0.04 54:0.0 55:0.0 56:0.0 57:0.16 58:1.0 
1.0 0:0.1111111111111111 1:0.0 2:0.037037037037037035 3:0.0 4:0.07407407407407407 5:0.0 6:0.0 7:0.037037037037037035 8:0.0 9:0.0 10:0.037037037037037035 11:0.0 12:0.0 13:0.0 14:0.0 15:0.037037037037037035 16:0.037037037037037035 17:0.0 18:0.0 19:0.0 20:0.0 21:0.0 22:0.07407407407407407 23:0.1111111111111111 24:0.1111111111111111 25:0.07407407407407407 26:0.0 27:0.0 28:0.0 29:0.07407407407407407 30:0.0 31:0.0 32:0.07407407407407407 33:0.0 34:0.0 35:0.037037037037037035 36:0.0 37:0.037037037037037035 38:0.037037037037037035 39:0.0 40:0.037037037037037035 41:0.0 42:0.0 43:0.0 44:0.0 45:0.0 46:0.0 47:0.0 48:0.0 49:0.0 50:0.0 51:0.037037037037037035 52:0.0 53:0.037037037037037035 54:0.0 55:0.07407407407407407 56:0.0 57:0.18518518518518517 58:1.0 
1.0 0:0.21739130434782608 1:0.0 2:0.08695652173913043 3:0.043478260869565216 4:0.043478260869565216 5:0.0 6:0.0 7:0.0 8:0.0 9:0.0 10:0.0 11:0.043478260869565216 12:0.043478260869565216 13:0.0 14:1.0 15:0.043478260869565216 16:0.0 17:0.0 18:0.043478260869565216 19:0.0 20:0.0 21:0.0 22:0.08695652173913043 23:0.0 24:0.043478260869565216 25:0.043478260869565216 26:0.0 27:0.0 28:0.0 29:0.0 30:0.043478260869565216 31:0.0 32:0.043478260869565216 33:0.043478260869565216 34:0.0 35:0.0 36:0.0 37:0.0 38:0.0 39:0.043478260869565216 40:0.0 41:0.0 42:0.0 43:0.17391304347826086 44:0.0 45:0.043478260869565216 46:0.0 47:0.0 48:0.0 49:0.0 50:0.0 51:0.08695652173913043 52:0.043478260869565216 53:0.0 54:0.08695652173913043 55:0.0 56:0.043478260869565216 57:0.08695652173913043 58:0.30434782608695654 
1.0 0:0.20833333333333334 1:0.125 2:0.0 3:0.041666666666666664 4:0.0 5:0.0 6:0.0 7:0.0 8:0.0 9:0.041666666666666664 10:0.041666666666666664 11:0.125 12:0.0 13:0.041666666666666664 14:0.125 15:0.041666666666666664 16:0.0 17:0.08333333333333333 18:0.0 19:0.0 20:0.0 21:0.0 22:0.041666666666666664 23:0.041666666666666664 24:0.0 25:0.0 26:0.0 27:0.08333333333333333 28:0.0 29:0.0 30:0.0 31:0.0 32:0.0 33:0.0 34:0.0 35:0.0 36:0.0 37:0.0 38:0.0 39:0.0 40:0.0 41:0.0 42:0.0 43:1.0 44:0.041666666666666664 45:0.0 46:0.041666666666666664 47:0.0 48:0.08333333333333333 49:0.0 50:0.0 51:0.125 52:0.0 53:0.0 54:0.0 55:0.0 56:0.041666666666666664 57:0.08333333333333333 58:0.20833333333333334 
1.0 0:0.11538461538461539 1:0.038461538461538464 2:0.038461538461538464 3:0.0 4:0.038461538461538464 5:0.07692307692307693 6:0.15384615384615385 7:0.0 8:0.07692307692307693 9:0.23076923076923078 10:1.0 11:0.0 12:0.0 13:0.0 14:0.038461538461538464 15:0.07692307692307693 16:0.0 17:0.0 18:0.0 19:0.0 20:0.0 21:0.0 22:0.038461538461538464 23:0.0 24:0.0 25:0.0 26:0.0 27:0.0 28:0.0 29:0.0 30:0.0 31:0.038461538461538464 32:0.3076923076923077 33:0.0 34:0.0 35:0.0 36:0.0 37:0.0 38:0.038461538461538464 39:0.0 40:0.0 41:0.0 42:0.0 43:0.0 44:0.0 45:0.0 46:0.0 47:0.0 48:0.0 49:0.0 50:0.0 51:0.0 52:0.0 53:0.0 54:0.0 55:0.0 56:0.0 57:0.0 58:0.15384615384615385 
1.0 0:0.125 1:0.0 2:0.20833333333333334 3:0.125 4:0.0 5:0.125 6:0.041666666666666664 7:0.041666666666666664 8:0.0 9:0.041666666666666664 10:0.08333333333333333 11:0.0 12:0.0 13:0.0 14:0.0 15:0.0 16:0.0 17:0.0 18:0.0 19:0.0 20:0.0 21:0.0 22:0.0 23:0.0 24:0.0 25:0.0 26:0.0 27:0.0 28:0.0 29:0.0 30:0.041666666666666664 31:0.5 32:1.0 33:0.16666666666666666 34:0.0 35:0.041666666666666664 36:0.0 37:0.0 38:0.08333333333333333 39:0.0 40:0.0 41:0.0 42:0.0 43:0.0 44:0.0 45:0.0 46:0.0 47:0.0 48:0.0 49:0.0 50:0.0 51:0.0 52:0.0 53:0.0 54:0.0 55:0.0 56:0.0 57:0.0 58:0.041666666666666664 
1.0 0:0.0 1:0.0 2:0.0 3:0.05263157894736842 4:0.10526315789473684 5:0.10526315789473684 6:0.10526315789473684 7:0.0 8:0.2631578947368421 9:0.0 10:0.21052631578947367 11:0.0 12:0.15789473684210525 13:0.05263157894736842 14:0.0 15:0.05263157894736842 16:0.0 17:0.0 18:0.05263157894736842 19:0.05263157894736842 20:0.0 21:0.15789473684210525 22:0.0 23:0.05263157894736842 24:0.0 25:1.0 26:0.0 27:0.10526315789473684 28:0.0 29:0.0 30:0.0 31:0.10526315789473684 32:0.0 33:0.0 34:0.0 35:0.15789473684210525 36:0.0 37:0.0 38:0.05263157894736842 39:0.0 40:0.0 41:0.0 42:0.0 43:0.0 44:0.0 45:0.0 46:0.0 47:0.0 48:0.0 49:0.0 50:0.0 51:0.0 52:0.0 53:0.2631578947368421 54:0.0 55:0.0 56:0.0 57:0.0 58:0.2631578947368421 
1.0 0:0.125 1:0.08333333333333333 2:0.041666666666666664 3:0.041666666666666664 4:0.125 5:0.08333333333333333 6:0.08333333333333333 7:0.041666666666666664 8:0.08333333333333333 9:0.08333333333333333 10:0.08333333333333333 11:0.0 12:0.0 13:0.041666666666666664 14:0.0 15:0.0 16:0.0 17:0.0 18:0.041666666666666664 19:0.0 20:0.0 21:0.0 22:0.041666666666666664 23:0.0 24:0.041666666666666664 25:0.0 26:0.041666666666666664 27:0.08333333333333333 28:0.0 29:0.041666666666666664 30:0.041666666666666664 31:0.0 32:0.0 33:0.041666666666666664 34:0.0 35:0.041666666666666664 36:0.041666666666666664 37:0.041666666666666664 38:0.041666666666666664 39:0.0 40:0.0 41:0.0 42:0.0 43:0.0 44:0.0 45:0.0 46:0.0 47:0.0 48:0.0 49:0.0 50:0.041666666666666664 51:0.0 52:0.0 53:0.041666666666666664 54:0.0 55:0.0 56:0.0 57:0.125 58:1.0 
1.0 0:0.39285714285714285 1:0.03571428571428571 2:0.03571428571428571 3:0.0 4:0.0 5:0.14285714285714285 6:0.0 7:0.0 8:0.0 9:0.2857142857142857 10:0.17857142857142858 11:0.0 12:0.0 13:0.0 14:0.0 15:0.0 16:0.0 17:0.0 18:0.0 19:0.0 20:0.0 21:0.0 22:0.0 23:0.0 24:0.0 25:0.0 26:0.0 27:0.0 28:0.0 29:0.07142857142857142 30:0.0 31:0.0 32:0.0 33:0.0 34:0.0 35:0.0 36:0.03571428571428571 37:0.03571428571428571 38:0.0 39:0.0 40:0.0 41:0.0 42:1.0 43:0.03571428571428571 44:0.0 45:0.0 46:0.0 47:0.03571428571428571 48:0.0 49:0.0 50:0.0 51:0.0 52:0.0 53:0.0 54:0.0 55:0.0 56:0.0 57:0.0 58:0.0 
1.0 0:0.4827586206896552 1:0.0 2:0.0 3:0.0 4:0.0 5:0.0 6:0.0 7:0.034482758620689655 8:0.034482758620689655 9:0.1724137931034483 10:0.0 11:0.0 12:0.034482758620689655 13:0.0 14:0.034482758620689655 15:0.0 16:0.034482758620689655 17:0.034482758620689655 18:0.0 19:0.0 20:0.0 21:0.0 22:0.0 23:0.13793103448275862 24:0.0 25:0.0 26:0.0 27:0.0 28:0.0 29:0.0 30:0.0 31:0.0 32:0.0 33:0.0 34:0.0 35:0.0 36:0.0 37:0.0 38:0.0 39:0.0 40:0.0 41:0.0 42:1.0 43:0.0 44:0.0 45:0.0 46:0.0 47:0.20689655172413793 48:0.0 49:0.0 50:0.0 51:0.0 52:0.0 53:0.0 54:0.0 55:0.0 56:0.0 57:0.0 58:0.0 
1.0 0:0.4857142857142857 1:0.0 2:0.0 3:0.0 4:0.0 5:0.0 6:0.0 7:0.0 8:0.0 9:0.17142857142857143 10:0.02857142857142857 11:0.0 12:0.0 13:0.0 14:0.0 15:0.0 16:0.0 17:0.0 18:0.0 19:0.0 20:0.0 21:0.0 22:0.0 23:0.05714285714285714 24:0.0 25:0.0 26:0.0 27:0.0 28:0.0 29:0.0 30:0.0 31:0.0 32:0.0 33:0.0 34:0.0 35:0.0 36:0.02857142857142857 37:0.0 38:0.0 39:0.0 40:0.0 41:0.0 42:1.0 43:0.05714285714285714 44:0.0 45:0.0 46:0.0 47:0.0 48:0.0 49:0.0 50:0.0 51:0.0 52:0.0 53:0.0 54:0.0 55:0.0 56:0.0 57:0.0 58:0.0 
1.0 0:0.6 1:0.0 2:0.0 3:0.0 4:0.0 5:0.0 6:0.0 7:0.0 8:0.0 9:0.0 10:0.0 11:0.0 12:0.0 13:0.0 14:0.0 15:0.0 16:0.0 17:0.0 18:0.0 19:0.0 20:0.0 21:0.0 22:0.0 23:0.0 24:0.0 25:0.0 26:0.0 27:0.0 28:0.0 29:0.0 30:0.0 31:0.0 32:0.0 33:0.0 34:0.0 35:0.0 36:0.0 37:0.0 38:0.0 39:0.0 40:0.0 41:0.0 42:1.0 43:0.0 44:0.0 45:0.0 46:0.0 47:0.0 48:0.0 49:0.0 50:0.0 51:0.0 52:0.0 53:0.0 54:0.0 55:0.0 56:0.0 57:0.0 58:0.0 
1.0 0:0.6 1:0.0 2:0.0 3:0.0 4:0.0 5:0.0 6:0.0 7:0.0 8:0.0 9:0.0 10:0.0 11:0.0 12:0.0 13:0.0 14:0.0 15:0.0 16:0.0 17:0.0 18:0.0 19:0.0 20:0.0 21:0.0 22:0.0 23:0.0 24:0.0 25:0.0 26:0.0 27:0.0 28:0.0 29:0.0 30:0.0 31:0.0 32:0.0 33:0.0 34:0.0 35:0.0 36:0.0 37:0.0 38:0.0 39:0.0 40:0.0 41:0.0 42:1.0 43:0.0 44:0.0 45:0.0 46:0.0 47:0.0 48:0.0 49:0.0 50:0.0 51:0.0 52:0.0 53:0.0 54:0.0 55:0.0 56:0.0 57:0.0 58:0.0 
1.0 0:0.041666666666666664 1:0.0 2:0.0 3:0.0 4:0.0 5:0.08333333333333333 6:0.0 7:0.0 8:0.0 9:1.0 10:0.7083333333333334 11:0.0 12:0.0 13:0.0 14:0.2916666666666667 15:0.041666666666666664 16:0.0 17:0.0 18:0.041666666666666664 19:0.0 20:0.041666666666666664 21:0.0 22:0.0 23:0.041666666666666664 24:0.0 25:0.0 26:0.0 27:0.0 28:0.0 29:0.0 30:0.0 31:0.0 32:0.0 33:0.0 34:0.041666666666666664 35:0.041666666666666664 36:0.08333333333333333 37:0.0 38:0.0 39:0.0 40:0.0 41:0.0 42:0.0 43:0.0 44:0.041666666666666664 45:0.0 46:0.041666666666666664 47:0.0 48:0.0 49:0.0 50:0.0 51:0.0 52:0.0 53:0.041666666666666664 54:0.0 55:0.0 56:0.0 57:0.0 58:0.08333333333333333 
1.0 0:0.16 1:0.04 2:0.08 3:0.0 4:0.08 5:0.04 6:0.08 7:0.08 8:0.0 9:0.0 10:0.0 11:0.04 12:0.04 13:0.04 14:0.04 15:0.04 16:0.0 17:0.04 18:0.0 19:0.0 20:0.12 21:0.04 22:0.0 23:0.0 24:0.0 25:0.08 26:0.0 27:0.0 28:0.0 29:0.08 30:0.0 31:0.04 32:0.0 33:0.04 34:0.0 35:0.04 36:0.0 37:0.04 38:0.0 39:0.0 40:0.04 41:0.0 42:0.0 43:0.0 44:0.0 45:0.04 46:0.0 47:0.0 48:0.0 49:0.0 50:0.0 51:0.08 52:0.0 53:0.0 54:0.0 55:0.0 56:0.0 57:0.12 58:1.0 
1.0 0:0.5588235294117647 1:0.0 2:0.058823529411764705 3:0.029411764705882353 4:0.0 5:0.058823529411764705 6:0.0 7:0.0 8:0.0 9:1.0 10:0.029411764705882353 11:0.0 12:0.0 13:0.0 14:0.029411764705882353 15:0.0 16:0.0 17:0.0 18:0.0 19:0.0 20:0.0 21:0.0 22:0.0 23:0.0 24:0.0 25:0.0 26:0.0 27:0.0 28:0.0 29:0.0 30:0.0 31:0.029411764705882353 32:0.0 33:0.058823529411764705 34:0.0 35:0.0 36:0.0 37:0.0 38:0.0 39:0.0 40:0.0 41:0.0 42:0.0 43:0.0 44:0.029411764705882353 45:0.0 46:0.0 47:0.0 48:0.0 49:0.0 50:0.0 51:0.0 52:0.0 53:0.0 54:0.0 55:0.0 56:0.0 57:0.0 58:0.0 
1.0 0:0.4 1:0.0 2:0.0 3:0.0 4:0.0 5:0.0 6:0.0 7:0.06666666666666667 8:0.0 9:0.0 10:0.0 11:0.03333333333333333 12:0.0 13:0.0 14:0.0 15:0.0 16:0.03333333333333333 17:0.0 18:0.43333333333333335 19:0.06666666666666667 20:0.0 21:0.0 22:0.0 23:0.0 24:0.0 25:0.03333333333333333 26:0.0 27:0.0 28:0.0 29:0.0 30:0.0 31:1.0 32:0.0 33:0.0 34:0.0 35:0.0 36:0.0 37:0.0 38:0.0 39:0.06666666666666667 40:0.0 41:0.0 42:0.0 43:0.0 44:0.0 45:0.0 46:0.0 47:0.0 48:0.0 49:0.0 50:0.0 51:0.0 52:0.0 53:0.0 54:0.0 55:0.0 56:0.0 57:0.0 58:0.0 
1.0 0:0.2 1:0.03333333333333333 2:0.0 3:0.03333333333333333 4:0.03333333333333333 5:0.0 6:0.06666666666666667 7:0.0 8:0.0 9:0.0 10:0.03333333333333333 11:0.0 12:0.0 13:0.0 14:0.03333333333333333 15:0.03333333333333333 16:0.0 17:0.0 18:0.0 19:0.0 20:0.0 21:0.03333333333333333 22:0.1 23:0.0 24:0.0 25:0.03333333333333333 26:0.0 27:0.0 28:0.03333333333333333 29:0.0 30:0.03333333333333333 31:0.0 32:0.0 33:0.06666666666666667 34:0.0 35:0.0 36:0.0 37:0.0 38:0.0 39:0.0 40:0.0 41:0.0 42:0.0 43:0.0 44:0.0 45:0.0 46:0.03333333333333333 47:0.06666666666666667 48:0.03333333333333333 49:0.03333333333333333 50:0.03333333333333333 51:0.0 52:0.0 53:0.06666666666666667 54:0.0 55:0.0 56:0.03333333333333333 57:0.06666666666666667 58:1.0 
1.0 0:0.0 1:0.0 2:0.0 3:0.0 4:0.05 5:0.05 6:0.2 7:0.0 8:0.1 9:0.05 10:0.35 11:0.0 12:0.1 13:0.05 14:0.05 15:0.0 16:0.0 17:0.0 18:0.1 19:0.0 20:0.05 21:0.0 22:0.0 23:0.0 24:0.0 25:0.0 26:0.0 27:0.0 28:0.0 29:0.0 30:0.0 31:0.1 32:0.0 33:0.0 34:0.0 35:0.0 36:0.0 37:0.0 38:0.05 39:0.0 40:0.05 41:0.0 42:0.2 43:0.1 44:0.0 45:0.0 46:0.15 47:1.0 48:0.05 49:0.1 50:0.0 51:0.0 52:0.0 53:0.0 54:0.0 55:0.0 56:0.05 57:0.0 58:0.2 
1.0 0:0.10526315789473684 1:0.10526315789473684 2:0.0 3:0.0 4:0.0 5:0.0 6:0.10526315789473684 7:0.05263157894736842 8:0.21052631578947367 9:0.42105263157894735 10:1.0 11:0.0 12:0.10526315789473684 13:0.15789473684210525 14:0.10526315789473684 15:0.05263157894736842 16:0.0 17:0.0 18:0.05263157894736842 19:0.0 20:0.05263157894736842 21:0.0 22:0.0 23:0.0 24:0.0 25:0.0 26:0.05263157894736842 27:0.10526315789473684 28:0.0 29:0.05263157894736842 30:0.05263157894736842 31:0.0 32:0.0 33:0.05263157894736842 34:0.0 35:0.0 36:0.05263157894736842 37:0.05263157894736842 38:0.0 39:0.0 40:0.0 41:0.0 42:0.0 43:0.05263157894736842 44:0.0 45:0.0 46:0.05263157894736842 47:0.0 48:0.0 49:0.0 50:0.0 51:0.0 52:0.0 53:0.0 54:0.0 55:0.0 56:0.05263157894736842 57:0.05263157894736842 58:0.21052631578947367 
1.0 0:0.09090909090909091 1:0.045454545454545456 2:0.0 3:0.0 4:0.0 5:0.0 6:0.0 7:0.045454545454545456 8:0.0 9:0.0 10:0.0 11:0.045454545454545456 12:0.0 13:0.0 14:0.0 15:0.0 16:0.0 17:0.0 18:0.045454545454545456 19:0.0 20:0.0 21:0.045454545454545456 22:0.0 23:0.045454545454545456 24:0.0 25:1.0 26:0.0 27:0.0 28:0.0 29:0.0 30:0.0 31:0.09090909090909091 32:0.22727272727272727 33:0.045454545454545456 34:0.0 35:0.045454545454545456 36:0.0 37:0.0 38:0.0 39:0.045454545454545456 40:0.0 41:0.0 42:0.13636363636363635 43:0.0 44:0.045454545454545456 45:0.0 46:0.045454545454545456 47:0.2727272727272727 48:0.0 49:0.13636363636363635 50:0.045454545454545456 51:0.22727272727272727 52:0.045454545454545456 53:0.0 54:0.0 55:0.0 56:0.0 57:0.09090909090909091 58:0.045454545454545456 
1.0 0:0.0 1:0.05263157894736842 2:0.0 3:0.0 4:0.0 5:0.0 6:0.0 7:0.0 8:0.05263157894736842 9:0.15789473684210525 10:1.0 11:0.0 12:0.0 13:0.0 14:0.0 15:0.10526315789473684 16:0.0 17:0.05263157894736842 18:0.10526315789473684 19:0.05263157894736842 20:0.05263157894736842 21:0.0 22:0.0 23:0.0 24:0.0 25:0.15789473684210525 26:0.0 27:0.10526315789473684 28:0.0 29:0.0 30:0.0 31:0.05263157894736842 32:0.05263157894736842 33:0.2631578947368421 34:0.0 35:0.05263157894736842 36:0.05263157894736842 37:0.0 38:0.3684210526315789 39:0.10526315789473684 40:0.05263157894736842 41:0.0 42:0.10526315789473684 43:0.0 44:0.05263157894736842 45:0.0 46:0.0 47:0.0 48:0.0 49:0.05263157894736842 50:0.0 51:0.0 52:0.05263157894736842 53:0.0 54:0.0 55:0.0 56:0.0 57:0.10526315789473684 58:0.10526315789473684 
1.0 0:0.0 1:0.0 2:0.0 3:0.08333333333333333 4:0.0 5:0.0 6:0.0 7:0.0 8:0.0 9:0.20833333333333334 10:0.9583333333333334 11:0.0 12:0.0 13:0.0 14:0.0 15:0.0 16:0.0 17:0.0 18:0.0 19:0.0 20:0.0 21:0.0 22:0.0 23:0.0 24:0.0 25:0.0 26:0.0 27:0.0 28:0.0 29:0.0 30:0.0 31:0.0 32:0.0 33:0.041666666666666664 34:0.0 35:0.0 36:0.0 37:0.0 38:0.0 39:0.0 40:0.0 41:0.0 42:0.0 43:0.0 44:0.0 45:0.0 46:0.125 47:1.0 48:0.0 49:0.0 50:0.0 51:0.0 52:0.0 53:0.0 54:0.0 55:0.0 56:0.041666666666666664 57:0.08333333333333333 58:0.125 
1.0 0:0.041666666666666664 1:0.041666666666666664 2:0.041666666666666664 3:0.0 4:0.041666666666666664 5:0.0 6:0.0 7:0.041666666666666664 8:0.041666666666666664 9:0.16666666666666666 10:1.0 11:0.0 12:0.0 13:0.041666666666666664 14:0.08333333333333333 15:0.08333333333333333 16:0.0 17:0.0 18:0.0 19:0.0 20:0.0 21:0.0 22:0.0 23:0.0 24:0.0 25:0.0 26:0.0 27:0.0 28:0.0 29:0.0 30:0.0 31:0.0 32:0.0 33:0.0 34:0.0 35:0.0 36:0.0 37:0.0 38:0.0 39:0.0 40:0.0 41:0.0 42:0.08333333333333333 43:0.08333333333333333 44:0.0 45:0.0 46:0.16666666666666666 47:0.4166666666666667 48:0.08333333333333333 49:0.0 50:0.0 51:0.0 52:0.0 53:0.0 54:0.0 55:0.0 56:0.041666666666666664 57:0.08333333333333333 58:0.08333333333333333 
1.0 0:0.12 1:0.12 2:0.0 3:0.0 4:0.0 5:0.0 6:0.0 7:0.0 8:0.08 9:0.0 10:1.0 11:0.0 12:0.0 13:0.0 14:0.04 15:0.12 16:0.0 17:0.0 18:0.0 19:0.0 20:0.0 21:0.0 22:0.0 23:0.04 24:0.0 25:0.0 26:0.0 27:0.0 28:0.0 29:0.0 30:0.0 31:0.0 32:0.0 33:0.0 34:0.0 35:0.0 36:0.04 37:0.04 38:0.0 39:0.0 40:0.0 41:0.0 42:0.08 43:0.0 44:0.0 45:0.0 46:0.0 47:0.4 48:0.04 49:0.0 50:0.0 51:0.0 52:0.0 53:0.0 54:0.0 55:0.0 56:0.16 57:0.04 58:0.24 
1.0 0:0.2222222222222222 1:0.037037037037037035 2:0.037037037037037035 3:0.0 4:0.0 5:0.0 6:0.0 7:0.0 8:0.037037037037037035 9:0.14814814814814814 10:1.0 11:0.0 12:0.0 13:0.037037037037037035 14:0.0 15:0.07407407407407407 16:0.0 17:0.0 18:0.0 19:0.0 20:0.0 21:0.0 22:0.0 23:0.037037037037037035 24:0.037037037037037035 25:0.0 26:0.0 27:0.0 28:0.0 29:0.0 30:0.0 31:0.0 32:0.0 33:0.037037037037037035 34:0.0 35:0.0 36:0.0 37:0.0 38:0.0 39:0.0 40:0.0 41:0.0 42:0.1111111111111111 43:0.037037037037037035 44:0.0 45:0.0 46:0.1111111111111111 47:0.07407407407407407 48:0.0 49:0.0 50:0.0 51:0.0 52:0.037037037037037035 53:0.0 54:0.0 55:0.0 56:0.1111111111111111 57:0.0 58:0.18518518518518517 
1.0 0:0.20833333333333334 1:0.0 2:0.0 3:0.0 4:0.0 5:0.0 6:0.0 7:0.08333333333333333 8:0.0 9:0.041666666666666664 10:0.041666666666666664 11:0.041666666666666664 12:0.041666666666666664 13:0.041666666666666664 14:0.041666666666666664 15:0.041666666666666664 16:0.041666666666666664 17:0.0 18:0.6666666666666666 19:0.0 20:0.0 21:0.0 22:0.041666666666666664 23:0.0 24:0.041666666666666664 25:0.0 26:0.0 27:0.0 28:0.0 29:0.0 30:0.0 31:1.0 32:0.041666666666666664 33:0.08333333333333333 34:0.041666666666666664 35:0.0 36:0.0 37:0.0 38:0.0 39:0.0 40:0.0 41:0.0 42:0.0 43:0.0 44:0.0 45:0.0 46:0.041666666666666664 47:0.0 48:0.0 49:0.0 50:0.0 51:0.0 52:0.0 53:0.0 54:0.0 55:0.0 56:0.041666666666666664 57:0.0 58:0.041666666666666664 
1.0 0:0.0 1:0.0 2:0.043478260869565216 3:0.043478260869565216 4:0.13043478260869565 5:0.08695652173913043 6:0.0 7:0.043478260869565216 8:0.043478260869565216 9:0.0 10:0.0 11:0.0 12:0.043478260869565216 13:0.043478260869565216 14:0.0 15:0.0 16:0.0 17:0.0 18:0.43478260869565216 19:1.0 20:0.043478260869565216 21:0.0 22:0.043478260869565216 23:0.0 24:0.0 25:0.13043478260869565 26:0.08695652173913043 27:0.0 28:0.0 29:0.0 30:0.0 31:0.0 32:0.0 33:0.0 34:0.0 35:0.043478260869565216 36:0.0 37:0.0 38:0.13043478260869565 39:0.0 40:0.0 41:0.0 42:0.0 43:0.0 44:0.0 45:0.0 46:0.0 47:0.0 48:0.0 49:0.0 50:0.0 51:0.0 52:0.0 53:0.17391304347826086 54:0.0 55:0.0 56:0.0 57:0.0 58:0.21739130434782608 
1.0 0:0.0 1:0.0 2:0.0 3:0.0 4:0.0 5:0.0 6:0.18181818181818182 7:0.0 8:0.09090909090909091 9:0.09090909090909091 10:0.22727272727272727 11:0.0 12:0.0 13:0.045454545454545456 14:0.0 15:0.045454545454545456 16:0.0 17:0.0 18:0.0 19:0.045454545454545456 20:0.0 21:0.0 22:0.045454545454545456 23:0.045454545454545456 24:0.0 25:0.0 26:0.0 27:0.0 28:0.0 29:0.0 30:0.0 31:0.0 32:0.09090909090909091 33:0.0 34:0.045454545454545456 35:0.0 36:0.045454545454545456 37:0.0 38:0.0 39:0.0 40:0.0 41:0.045454545454545456 42:0.18181818181818182 43:0.0 44:0.0 45:0.0 46:0.0 47:1.0 48:0.13636363636363635 49:0.0 50:0.0 51:0.045454545454545456 52:0.0 53:0.0 54:0.0 55:0.0 56:0.09090909090909091 57:0.0 58:0.4090909090909091 
1.0 0:0.0 1:0.0 2:0.0 3:0.0 4:0.0 5:0.0 6:0.0 7:0.0 8:0.0 9:0.0 10:0.0 11:0.0 12:0.047619047619047616 13:0.047619047619047616 14:0.0 15:0.0 16:0.0 17:0.23809523809523808 18:0.38095238095238093 19:0.47619047619047616 20:0.0 21:0.0 22:0.0 23:0.047619047619047616 24:0.38095238095238093 25:1.0 26:0.09523809523809523 27:0.0 28:0.0 29:0.0 30:0.0 31:0.0 32:0.0 33:0.0 34:0.0 35:0.0 36:0.0 37:0.0 38:0.0 39:0.0 40:0.0 41:0.0 42:0.047619047619047616 43:0.0 44:0.0 45:0.0 46:0.0 47:0.19047619047619047 48:0.0 49:0.0 50:0.0 51:0.09523809523809523 52:0.0 53:0.0 54:0.0 55:0.0 56:0.0 57:0.0 58:0.0 
1.0 0:0.225 1:0.0 2:0.0 3:0.0 4:0.0 5:0.0 6:0.0 7:0.0 8:0.0 9:0.0 10:0.0 11:0.0 12:0.025 13:0.0 14:0.0 15:0.0 16:0.025 17:0.025 18:0.0 19:0.0 20:0.025 21:0.0 22:0.05 23:0.0 24:0.0 25:0.025 26:0.0 27:0.0 28:0.0 29:0.025 30:0.05 31:0.075 32:1.0 33:0.0 34:0.0 35:0.0 36:0.0 37:0.0 38:0.0 39:0.025 40:0.0 41:0.0 42:0.0 43:0.0 44:0.0 45:0.0 46:0.0 47:0.025 48:0.0 49:0.0 50:0.0 51:0.0 52:0.0 53:0.0 54:0.0 55:0.0 56:0.0 57:0.0 58:0.0 
1.0 0:0.0 1:0.0 2:0.0 3:0.0 4:0.0 5:0.0 6:0.0 7:0.0 8:0.0 9:0.0 10:0.0 11:0.045454545454545456 12:0.045454545454545456 13:0.13636363636363635 14:0.09090909090909091 15:0.0 16:0.0 17:0.0 18:0.045454545454545456 19:0.045454545454545456 20:0.0 21:0.045454545454545456 22:0.0 23:0.0 24:0.13636363636363635 25:0.3181818181818182 26:0.0 27:0.0 28:0.0 29:0.0 30:0.09090909090909091 31:0.09090909090909091 32:1.0 33:0.045454545454545456 34:0.0 35:0.09090909090909091 36:0.09090909090909091 37:0.0 38:0.045454545454545456 39:0.045454545454545456 40:0.045454545454545456 41:0.0 42:0.0 43:0.0 44:0.0 45:0.0 46:0.0 47:0.0 48:0.0 49:0.045454545454545456 50:0.0 51:0.18181818181818182 52:0.0 53:0.09090909090909091 54:0.0 55:0.0 56:0.0 57:0.0 58:0.13636363636363635 
1.0 0:0.0 1:0.2 2:0.0 3:0.0 4:0.0 5:0.0 6:0.1 7:0.0 8:0.0 9:0.05 10:1.0 11:0.1 12:0.0 13:0.0 14:0.0 15:0.05 16:0.0 17:0.0 18:0.0 19:0.0 20:0.0 21:0.15 22:0.0 23:0.0 24:0.0 25:0.0 26:0.0 27:0.05 28:0.0 29:0.0 30:0.05 31:0.0 32:0.1 33:0.2 34:0.0 35:0.0 36:0.0 37:0.2 38:0.0 39:0.0 40:0.1 41:0.0 42:0.25 43:0.5 44:0.0 45:0.0 46:0.0 47:0.05 48:0.0 49:0.0 50:0.0 51:0.0 52:0.0 53:0.0 54:0.0 55:0.0 56:0.0 57:0.0 58:0.05 
1.0 0:0.09090909090909091 1:0.0 2:0.045454545454545456 3:0.045454545454545456 4:0.0 5:0.0 6:0.09090909090909091 7:0.0 8:0.0 9:0.09090909090909091 10:1.0 11:0.0 12:0.0 13:0.0 14:0.3181818181818182 15:0.13636363636363635 16:0.0 17:0.0 18:0.0 19:0.18181818181818182 20:0.18181818181818182 21:0.045454545454545456 22:0.0 23:0.0 24:0.0 25:0.0 26:0.0 27:0.0 28:0.0 29:0.0 30:0.0 31:0.045454545454545456 32:0.0 33:0.09090909090909091 34:0.045454545454545456 35:0.0 36:0.045454545454545456 37:0.045454545454545456 38:0.0 39:0.045454545454545456 40:0.0 41:0.0 42:0.0 43:0.0 44:0.0 45:0.045454545454545456 46:0.0 47:0.0 48:0.0 49:0.0 50:0.0 51:0.0 52:0.0 53:0.0 54:0.0 55:0.0 56:0.045454545454545456 57:0.09090909090909091 58:0.18181818181818182 
1.0 0:0.05 1:0.0 2:0.05 3:0.0 4:0.0 5:0.0 6:0.1 7:0.0 8:0.0 9:0.15 10:0.0 11:0.05 12:0.0 13:0.05 14:0.3 15:0.0 16:0.0 17:0.0 18:0.0 19:0.05 20:0.05 21:0.0 22:0.0 23:0.0 24:0.0 25:0.0 26:0.0 27:0.0 28:0.0 29:0.0 30:0.0 31:0.0 32:0.0 33:0.0 34:0.0 35:0.0 36:0.0 37:0.05 38:0.25 39:0.0 40:0.0 41:0.0 42:0.0 43:1.0 44:0.3 45:0.0 46:0.05 47:0.05 48:0.05 49:0.0 50:0.0 51:0.05 52:0.05 53:0.1 54:0.0 55:0.0 56:0.05 57:0.05 58:0.3 
1.0 0:0.0 1:0.0 2:0.0 3:0.0 4:0.0 5:0.0 6:0.0 7:0.0 8:0.0 9:1.0 10:0.0 11:0.0 12:0.0 13:0.0 14:0.0 15:0.0 16:0.037037037037037035 17:0.0 18:0.0 19:0.0 20:0.037037037037037035 21:0.0 22:0.0 23:0.07407407407407407 24:0.0 25:0.0 26:0.0 27:0.0 28:0.0 29:0.0 30:0.0 31:0.0 32:0.0 33:0.14814814814814814 34:0.0 35:0.0 36:0.037037037037037035 37:0.0 38:0.0 39:0.0 40:0.0 41:0.0 42:0.9259259259259259 43:0.0 44:0.07407407407407407 45:0.0 46:0.0 47:0.0 48:0.0 49:0.0 50:0.0 51:0.037037037037037035 52:0.0 53:0.0 54:0.0 55:0.0 56:0.0 57:0.0 58:0.0 
1.0 0:0.0 1:0.0 2:0.0 3:0.0 4:0.0 5:0.045454545454545456 6:0.045454545454545456 7:0.0 8:0.045454545454545456 9:0.2727272727272727 10:0.09090909090909091 11:0.0 12:0.045454545454545456 13:0.18181818181818182 14:0.22727272727272727 15:0.09090909090909091 16:0.0 17:0.0 18:0.0 19:0.0 20:0.0 21:0.0 22:0.0 23:0.0 24:0.0 25:0.0 26:0.0 27:0.0 28:0.0 29:0.0 30:0.0 31:0.0 32:0.0 33:0.0 34:0.0 35:0.0 36:0.045454545454545456 37:0.0 38:0.0 39:0.0 40:0.0 41:0.0 42:1.0 43:0.2727272727272727 44:0.0 45:0.0 46:0.09090909090909091 47:0.09090909090909091 48:0.045454545454545456 49:0.0 50:0.0 51:0.0 52:0.0 53:0.0 54:0.0 55:0.0 56:0.09090909090909091 57:0.0 58:0.22727272727272727 
1.0 0:0.0 1:0.0 2:0.0 3:0.0 4:0.0 5:0.05 6:0.1 7:0.0 8:0.15 9:0.55 10:1.0 11:0.0 12:0.1 13:0.05 14:0.4 15:0.3 16:0.0 17:0.0 18:0.0 19:0.0 20:0.0 21:0.0 22:0.0 23:0.0 24:0.0 25:0.0 26:0.0 27:0.05 28:0.0 29:0.0 30:0.0 31:0.0 32:0.0 33:0.1 34:0.0 35:0.0 36:0.0 37:0.0 38:0.0 39:0.05 40:0.05 41:0.0 42:0.05 43:0.0 44:0.0 45:0.0 46:0.0 47:0.0 48:0.0 49:0.0 50:0.0 51:0.05 52:0.0 53:0.0 54:0.0 55:0.0 56:0.05 57:0.05 58:0.05 
1.0 0:0.05 1:0.05 2:0.1 3:0.05 4:0.0 5:0.1 6:0.2 7:0.0 8:0.0 9:0.35 10:1.0 11:0.0 12:0.0 13:0.05 14:0.65 15:0.1 16:0.0 17:0.0 18:0.15 19:0.0 20:0.1 21:0.05 22:0.05 23:0.0 24:0.0 25:0.0 26:0.0 27:0.0 28:0.0 29:0.0 30:0.0 31:0.0 32:0.05 33:0.05 34:0.0 35:0.0 36:0.0 37:0.05 38:0.0 39:0.0 40:0.0 41:0.0 42:0.0 43:0.0 44:0.0 45:0.0 46:0.0 47:0.0 48:0.0 49:0.0 50:0.0 51:0.0 52:0.0 53:0.0 54:0.0 55:0.0 56:0.0 57:0.0 58:0.0 
0.8490221184958884 0:0.2727272727272727 1:0.0 2:0.0 3:0.0 4:0.0 5:0.045454545454545456 6:0.0 7:0.0 8:0.13636363636363635 9:1.0 10:0.0 11:0.0 12:0.045454545454545456 13:0.0 14:0.13636363636363635 15:0.09090909090909091 16:0.0 17:0.0 18:0.0 19:0.09090909090909091 20:0.18181818181818182 21:0.045454545454545456 22:0.09090909090909091 23:0.09090909090909091 24:0.0 25:0.0 26:0.045454545454545456 27:0.0 28:0.0 29:0.0 30:0.0 31:0.0 32:0.0 33:0.045454545454545456 34:0.0 35:0.0 36:0.0 37:0.0 38:0.0 39:0.0 40:0.0 41:0.0 42:0.36363636363636365 43:0.0 44:0.0 45:0.0 46:0.0 47:0.13636363636363635 48:0.045454545454545456 49:0.0 50:0.0 51:0.0 52:0.0 53:0.0 54:0.0 55:0.0 56:0.0 57:0.0 58:0.045454545454545456 
1.0 0:0.2222222222222222 1:0.07407407407407407 2:0.0 3:0.0 4:0.0 5:0.0 6:0.0 7:0.0 8:0.0 9:0.0 10:0.0 11:0.0 12:0.037037037037037035 13:0.0 14:0.0 15:0.0 16:0.0 17:0.0 18:0.0 19:0.0 20:0.037037037037037035 21:0.0 22:0.0 23:0.037037037037037035 24:0.0 25:0.0 26:0.0 27:0.0 28:0.0 29:0.037037037037037035 30:0.0 31:0.0 32:0.0 33:0.0 34:0.0 35:0.0 36:0.037037037037037035 37:0.07407407407407407 38:0.037037037037037035 39:0.0 40:0.0 41:0.0 42:1.0 43:0.18518518518518517 44:0.07407407407407407 45:0.0 46:0.0 47:0.2222222222222222 48:0.0 49:0.0 50:0.0 51:0.07407407407407407 52:0.0 53:0.0 54:0.0 55:0.0 56:0.0 57:0.037037037037037035 58:0.18518518518518517 
1.0 0:0.15384615384615385 1:0.038461538461538464 2:0.0 3:0.0 4:0.07692307692307693 5:0.0 6:0.038461538461538464 7:0.038461538461538464 8:0.038461538461538464 9:0.0 10:0.0 11:0.038461538461538464 12:0.0 13:0.0 14:0.0 15:0.0 16:0.038461538461538464 17:0.0 18:0.0 19:0.0 20:0.0 21:0.038461538461538464 22:0.07692307692307693 23:0.0 24:0.038461538461538464 25:0.0 26:0.0 27:0.0 28:0.038461538461538464 29:0.0 30:0.038461538461538464 31:0.0 32:0.0 33:0.038461538461538464 34:0.0 35:0.038461538461538464 36:0.11538461538461539 37:0.038461538461538464 38:0.0 39:0.0 40:0.0 41:0.0 42:0.07692307692307693 43:0.038461538461538464 44:0.038461538461538464 45:0.07692307692307693 46:0.0 47:0.07692307692307693 48:0.038461538461538464 49:0.038461538461538464 50:0.0 51:0.0 52:0.038461538461538464 53:0.0 54:0.0 55:0.0 56:0.0 57:0.11538461538461539 58:1.0 
1.0 0:0.4444444444444444 1:0.0 2:0.027777777777777776 3:0.027777777777777776 4:0.0 5:0.027777777777777776 6:0.0 7:0.0 8:0.0 9:1.0 10:0.05555555555555555 11:0.0 12:0.0 13:0.0 14:0.16666666666666666 15:0.0 16:0.0 17:0.0 18:0.0 19:0.0 20:0.027777777777777776 21:0.0 22:0.0 23:0.0 24:0.0 25:0.0 26:0.0 27:0.0 28:0.0 29:0.0 30:0.0 31:0.0 32:0.0 33:0.0 34:0.0 35:0.0 36:0.0 37:0.0 38:0.0 39:0.0 40:0.0 41:0.0 42:0.0 43:0.0 44:0.0 45:0.0 46:0.0 47:0.0 48:0.0 49:0.0 50:0.0 51:0.0 52:0.0 53:0.0 54:0.0 55:0.0 56:0.0 57:0.0 58:0.0 
1.0 0:0.21875 1:0.03125 2:0.0 3:0.0 4:0.0 5:0.0 6:0.0 7:0.0 8:0.0 9:1.0 10:0.0625 11:0.0 12:0.0 13:0.0 14:0.09375 15:0.0 16:0.0 17:0.0 18:0.0 19:0.0 20:0.0 21:0.0 22:0.0 23:0.0 24:0.0 25:0.0 26:0.0 27:0.0 28:0.0 29:0.03125 30:0.03125 31:0.0 32:0.0 33:0.03125 34:0.0 35:0.0 36:0.03125 37:0.0 38:0.0 39:0.0 40:0.0 41:0.0 42:0.375 43:0.0 44:0.0 45:0.0 46:0.0 47:0.03125 48:0.0 49:0.0 50:0.0 51:0.0 52:0.0 53:0.0 54:0.0 55:0.0 56:0.0 57:0.0 58:0.0625 
1.0 0:0.3 1:0.0 2:0.0 3:0.0 4:0.0 5:0.025 6:0.0 7:0.0 8:0.0 9:1.0 10:0.0 11:0.0 12:0.0 13:0.0 14:0.1 15:0.0 16:0.0 17:0.025 18:0.05 19:0.0 20:0.05 21:0.0 22:0.0 23:0.0 24:0.0 25:0.025 26:0.025 27:0.0 28:0.0 29:0.0 30:0.0 31:0.0 32:0.0 33:0.0 34:0.0 35:0.0 36:0.0 37:0.0 38:0.0 39:0.0 40:0.0 41:0.0 42:0.0 43:0.0 44:0.0 45:0.0 46:0.0 47:0.0 48:0.0 49:0.0 50:0.0 51:0.0 52:0.0 53:0.0 54:0.0 55:0.0 56:0.0 57:0.0 58:0.0 
1.0 0:0.0 1:0.0 2:0.0 3:0.0 4:0.0 5:0.0 6:0.0 7:0.0 8:0.08695652173913043 9:1.0 10:0.0 11:0.0 12:0.0 13:0.0 14:0.7391304347826086 15:0.0 16:0.0 17:0.0 18:0.0 19:0.0 20:0.043478260869565216 21:0.0 22:0.0 23:0.0 24:0.0 25:0.0 26:0.0 27:0.0 28:0.0 29:0.043478260869565216 30:0.0 31:0.0 32:0.0 33:0.043478260869565216 34:0.0 35:0.0 36:0.21739130434782608 37:0.043478260869565216 38:0.0 39:0.0 40:0.0 41:0.0 42:0.13043478260869565 43:0.13043478260869565 44:0.043478260869565216 45:0.0 46:0.0 47:0.043478260869565216 48:0.0 49:0.0 50:0.0 51:0.043478260869565216 52:0.0 53:0.0 54:0.0 55:0.0 56:0.043478260869565216 57:0.0 58:0.13043478260869565 
1.0 0:0.4444444444444444 1:0.0 2:0.0 3:0.0 4:0.0 5:0.0 6:0.0 7:0.0 8:0.0 9:0.0 10:0.0 11:0.0 12:0.0 13:0.0 14:0.0 15:0.0 16:0.0 17:0.0 18:0.0 19:0.0 20:0.0 21:0.0 22:0.0 23:0.05555555555555555 24:0.0 25:0.0 26:0.0 27:0.0 28:0.0 29:0.0 30:0.0 31:0.0 32:0.0 33:0.0 34:0.0 35:0.0 36:0.0 37:0.0 38:0.0 39:0.0 40:0.0 41:0.0 42:1.0 43:0.05555555555555555 44:0.0 45:0.0 46:0.027777777777777776 47:0.0 48:0.0 49:0.0 50:0.0 51:0.0 52:0.0 53:0.0 54:0.0 55:0.0 56:0.0 57:0.0 58:0.19444444444444445 
1.0 0:0.10526315789473684 1:0.0 2:0.0 3:0.0 4:0.0 5:0.0 6:0.0 7:0.05263157894736842 8:0.0 9:0.0 10:0.05263157894736842 11:0.05263157894736842 12:0.05263157894736842 13:0.05263157894736842 14:0.10526315789473684 15:0.0 16:0.05263157894736842 17:0.2631578947368421 18:0.05263157894736842 19:0.3684210526315789 20:0.05263157894736842 21:0.05263157894736842 22:0.05263157894736842 23:0.05263157894736842 24:0.05263157894736842 25:0.0 26:0.15789473684210525 27:0.0 28:0.0 29:0.0 30:0.0 31:0.0 32:0.0 33:0.10526315789473684 34:0.0 35:0.0 36:0.05263157894736842 37:0.0 38:0.0 39:0.0 40:0.0 41:0.0 42:0.42105263157894735 43:0.10526315789473684 44:0.0 45:0.0 46:0.0 47:1.0 48:0.0 49:0.0 50:0.0 51:0.0 52:0.0 53:0.0 54:0.0 55:0.0 56:0.0 57:0.0 58:0.05263157894736842 
1.0 0:0.125 1:0.0 2:0.041666666666666664 3:0.0 4:0.041666666666666664 5:0.041666666666666664 6:0.041666666666666664 7:0.0 8:0.125 9:0.0 10:0.0 11:0.041666666666666664 12:0.041666666666666664 13:0.041666666666666664 14:0.0 15:0.0 16:0.0 17:0.0 18:0.041666666666666664 19:0.041666666666666664 20:0.041666666666666664 21:0.041666666666666664 22:0.0 23:0.041666666666666664 24:0.125 25:1.0 26:0.0 27:0.0 28:0.0 29:0.0 30:0.0 31:0.0 32:0.0 33:0.041666666666666664 34:0.041666666666666664 35:0.0 36:0.0 37:0.041666666666666664 38:0.08333333333333333 39:0.0 40:0.0 41:0.0 42:0.08333333333333333 43:0.125 44:0.0 45:0.0 46:0.0 47:0.0 48:0.0 49:0.0 50:0.0 51:0.0 52:0.0 53:0.0 54:0.0 55:0.0 56:0.041666666666666664 57:0.08333333333333333 58:0.25 
1.0 0:0.14814814814814814 1:0.0 2:0.0 3:0.037037037037037035 4:0.1111111111111111 5:0.0 6:0.07407407407407407 7:0.037037037037037035 8:0.037037037037037035 9:0.0 10:0.0 11:0.0 12:0.037037037037037035 13:0.037037037037037035 14:0.0 15:0.0 16:0.037037037037037035 17:0.037037037037037035 18:0.0 19:0.0 20:0.0 21:0.0 22:0.0 23:0.0 24:0.07407407407407407 25:1.0 26:0.037037037037037035 27:0.0 28:0.0 29:0.0 30:0.0 31:0.0 32:0.0 33:0.0 34:0.0 35:0.0 36:0.0 37:0.07407407407407407 38:0.0 39:0.0 40:0.0 41:0.0 42:0.0 43:0.0 44:0.0 45:0.037037037037037035 46:0.0 47:0.037037037037037035 48:0.0 49:0.0 50:0.0 51:0.0 52:0.037037037037037035 53:0.037037037037037035 54:0.0 55:0.0 56:0.0 57:0.037037037037037035 58:0.4074074074074074 
1.0 0:0.034482758620689655 1:0.0 2:0.0 3:0.0 4:0.0 5:0.0 6:0.0 7:0.0 8:0.0 9:0.0 10:0.0 11:0.0 12:0.034482758620689655 13:0.0 14:0.0 15:0.0 16:0.0 17:0.06896551724137931 18:1.0 19:0.2413793103448276 20:0.0 21:0.0 22:0.0 23:0.0 24:0.0 25:0.4482758620689655 26:0.0 27:0.0 28:0.0 29:0.0 30:0.0 31:0.0 32:0.0 33:0.0 34:0.034482758620689655 35:0.034482758620689655 36:0.0 37:0.0 38:0.0 39:0.0 40:0.0 41:0.0 42:0.0 43:0.0 44:0.0 45:0.0 46:0.0 47:0.0 48:0.0 49:0.0 50:0.0 51:0.0 52:0.0 53:0.034482758620689655 54:0.0 55:0.0 56:0.0 57:0.034482758620689655 58:0.2413793103448276 
1.0 0:0.08 1:0.0 2:0.0 3:0.0 4:0.0 5:0.0 6:0.0 7:0.0 8:0.0 9:0.0 10:0.0 11:0.0 12:0.0 13:0.0 14:0.0 15:0.0 16:0.0 17:0.0 18:1.0 19:0.36 20:0.0 21:0.0 22:0.0 23:0.0 24:0.0 25:0.16 26:0.04 27:0.0 28:0.0 29:0.0 30:0.0 31:0.04 32:0.04 33:0.04 34:0.04 35:0.08 36:0.0 37:0.08 38:0.24 39:0.0 40:0.0 41:0.0 42:0.08 43:0.04 44:0.0 45:0.0 46:0.0 47:0.0 48:0.0 49:0.0 50:0.0 51:0.0 52:0.04 53:0.04 54:0.04 55:0.0 56:0.0 57:0.04 58:0.08 
1.0 0:0.4074074074074074 1:0.0 2:0.0 3:0.0 4:0.037037037037037035 5:0.0 6:0.0 7:0.0 8:0.0 9:0.0 10:0.0 11:0.0 12:0.037037037037037035 13:0.0 14:0.0 15:0.0 16:0.037037037037037035 17:0.037037037037037035 18:0.0 19:0.0 20:0.0 21:0.0 22:0.0 23:0.037037037037037035 24:0.0 25:0.0 26:0.0 27:0.0 28:0.0 29:0.037037037037037035 30:0.037037037037037035 31:0.0 32:0.0 33:0.0 34:0.0 35:0.0 36:0.0 37:0.0 38:0.037037037037037035 39:0.0 40:0.0 41:0.0 42:1.0 43:0.037037037037037035 44:0.18518518518518517 45:0.0 46:0.037037037037037035 47:0.1111111111111111 48:0.037037037037037035 49:0.037037037037037035 50:0.0 51:0.0 52:0.0 53:0.0 54:0.0 55:0.0 56:0.0 57:0.0 58:0.2222222222222222 
1.0 0:0.14814814814814814 1:0.0 2:0.0 3:0.0 4:0.0 5:0.037037037037037035 6:0.0 7:0.0 8:0.0 9:0.0 10:0.0 11:0.0 12:0.0 13:0.0 14:0.0 15:0.0 16:0.0 17:0.037037037037037035 18:0.0 19:0.0 20:0.037037037037037035 21:0.0 22:0.037037037037037035 23:0.0 24:0.0 25:0.0 26:0.0 27:0.0 28:0.0 29:0.0 30:0.0 31:0.4074074074074074 32:0.4074074074074074 33:0.037037037037037035 34:0.0 35:0.037037037037037035 36:0.0 37:0.0 38:1.0 39:0.0 40:0.0 41:0.0 42:0.0 43:0.07407407407407407 44:0.0 45:0.0 46:0.0 47:0.0 48:0.0 49:0.037037037037037035 50:0.0 51:0.0 52:0.037037037037037035 53:0.0 54:0.0 55:0.0 56:0.0 57:0.0 58:0.037037037037037035 
