svm_type one_class
kernel_type linear
nr_class 2
total_sv 1004
rho 393.24578703785846
SV
1.0 0:1.0 1:0.0 2:0.0 3:0.0 4:0.0 5:0.0 6:0.0 7:0.0 8:0.0 9:0.0 10:0.0 11:0.0 12:0.0 13:0.0 14:0.0 15:0.0 16:0.0 17:0.0 18:0.0 19:0.0 20:0.0 21:0.0 22:0.0 23:0.0 24:0.0 25:0.0 26:0.0 27:0.0 28:0.0 29:0.0 30:0.0 31:0.0 32:0.0 33:0.0 34:0.0 35:0.0 36:0.0 37:0.0 38:0.0 39:0.0 40:0.0 41:0.0 42:0.0 43:0.0 44:0.0 45:0.0 46:0.0 47:0.0 48:0.0 49:0.0 50:0.0 51:0.0 52:0.0 53:0.0 54:0.0 55:0.0 56:0.0 57:0.0 58:0.0 
1.0 0:1.0 1:0.0 2:0.0 3:0.0 4:0.0 5:0.0 6:0.0 7:0.0 8:0.0 9:0.0 10:0.0 11:0.0 12:0.0 13:0.0 14:0.0 15:0.0 16:0.0 17:0.0 18:0.0 19:0.0 20:0.0 21:0.0 22:0.0 23:0.0 24:0.0 25:0.0 26:0.0 27:0.0 28:0.0 29:0.0 30:0.0 31:0.0 32:0.0 33:0.0 34:0.0 35:0.0 36:0.0 37:0.0 38:0.0 39:0.0 40:0.0 41:0.0 42:0.0 43:0.0 44:0.0 45:0.0 46:0.0 47:0.0 48:0.0 49:0.0 50:0.0 51:0.0 52:0.0 53:0.0 54:0.0 55:0.0 56:0.0 57:0.0 58:0.0 
1.0 0:1.0 1:0.0 2:0.0 3:0.0 4:0.0 5:0.0 6:0.0 7:0.0 8:0.0 9:0.0 10:0.0 11:0.0 12:0.0 13:0.0 14:0.0 15:0.0 16:0.0 17:0.0 18:0.0 19:0.0 20:0.0 21:0.0 22:0.0 23:0.0 24:0.0 25:0.0 26:0.0 27:0.0 28:0.0 29:0.0 30:0.0 31:0.0 32:0.0 33:0.0 34:0.0 35:0.0 36:0.0 37:0.0 38:0.0 39:0.0 40:0.0 41:0.0 42:0.0 43:0.0 44:0.0 45:0.0 46:0.0 47:0.0 48:0.0 49:0.0 50:0.0 51:0.0 52:0.0 53:0.0 54:0.0 55:0.0 56:0.0 57:0.0 58:0.0 
1.0 0:1.0 1:0.0 2:0.0 3:0.0 4:0.0 5:0.0 6:0.0 7:0.0 8:0.0 9:0.0 10:0.0 11:0.0 12:0.0 13:0.0 14:0.0 15:0.0 16:0.0 17:0.0 18:0.0 19:0.0 20:0.0 21:0.0 22:0.0 23:0.0 24:0.0 25:0.0 26:0.0 27:0.0 28:0.0 29:0.0 30:0.0 31:0.0 32:0.0 33:0.0 34:0.0 35:0.0 36:0.0 37:0.0 38:0.0 39:0.0 40:0.0 41:0.0 42:0.0 43:0.0 44:0.0 45:0.0 46:0.0 47:0.0 48:0.0 49:0.0 50:0.0 51:0.0 52:0.0 53:0.0 54:0.0 55:0.0 56:0.0 57:0.0 58:0.0 
1.0 0:1.0 1:0.0 2:0.0 3:0.0 4:0.0 5:0.0 6:0.0 7:0.0 8:0.0 9:0.0 10:0.0 11:0.0 12:0.0 13:0.0 14:0.0 15:0.0 16:0.0 17:0.0 18:0.0 19:0.0 20:0.0 21:0.0 22:0.0 23:0.0 24:0.0 25:0.0 26:0.0 27:0.0 28:0.0 29:0.0 30:0.0 31:0.0 32:0.0 33:0.0 34:0.0 35:0.0 36:0.0 37:0.0 38:0.0 39:0.0 40:0.0 41:0.0 42:0.0 43:0.0 44:0.0 45:0.0 46:0.0 47:0.0 48:0.0 49:0.0 50:0.0 51:0.0 52:0.0 53:0.0 54:0.0 55:0.0 56:0.0 57:0.0 58:0.0 
1.0 0:1.0 1:0.0 2:0.0 3:0.0 4:0.0 5:0.0 6:0.0 7:0.0 8:0.0 9:0.0 10:0.0 11:0.0 12:0.0 13:0.0 14:0.0 15:0.0 16:0.0 17:0.0 18:0.0 19:0.0 20:0.0 21:0.0 22:0.0 23:0.0 24:0.0 25:0.0 26:0.0 27:0.0 28:0.0 29:0.0 30:0.0 31:0.0 32:0.0 33:0.0 34:0.0 35:0.0 36:0.0 37:0.0 38:0.0 39:0.0 40:0.0 41:0.0 42:0.0 43:0.0 44:0.0 45:0.0 46:0.0 47:0.0 48:0.0 49:0.0 50:0.0 51:0.0 52:0.0 53:0.0 54:0.0 55:0.0 56:0.0 57:0.0 58:0.0 
1.0 0:1.0 1:0.0 2:0.0 3:0.0 4:0.0 5:0.0 6:0.0 7:0.0 8:0.0 9:0.0 10:0.0 11:0.0 12:0.0 13:0.0 14:0.0 15:0.0 16:0.0 17:0.0 18:0.0 19:0.0 20:0.0 21:0.0 22:0.0 23:0.0 24:0.0 25:0.0 26:0.0 27:0.0 28:0.0 29:0.0 30:0.0 31:0.0 32:0.0 33:0.0 34:0.0 35:0.0 36:0.0 37:0.0 38:0.0 39:0.0 40:0.0 41:0.0 42:0.0 43:0.0 44:0.0 45:0.0 46:0.0 47:0.0 48:0.0 49:0.0 50:0.0 51:0.0 52:0.0 53:0.0 54:0.0 55:0.0 56:0.0 57:0.0 58:0.0 
1.0 0:1.0 1:0.0 2:0.0 3:0.0 4:0.0 5:0.0 6:0.0 7:0.0 8:0.0 9:0.0 10:0.0 11:0.0 12:0.0 13:0.0 14:0.0 15:0.0 16:0.0 17:0.0 18:0.0 19:0.0 20:0.0 21:0.0 22:0.0 23:0.0 24:0.0 25:0.0 26:0.0 27:0.0 28:0.0 29:0.0 30:0.0 31:0.0 32:0.0 33:0.0 34:0.0 35:0.0 36:0.0 37:0.0 38:0.0 39:0.0 40:0.0 41:0.0 42:0.0 43:0.0 44:0.0 45:0.0 46:0.0 47:0.0 48:0.0 49:0.0 50:0.0 51:0.0 52:0.0 53:0.0 54:0.0 55:0.0 56:0.0 57:0.0 58:0.0 
1.0 0:1.0 1:0.0 2:0.0 3:0.0 4:0.0 5:0.0 6:0.0 7:0.0 8:0.0 9:0.0 10:0.0 11:0.0 12:0.0 13:0.0 14:0.0 15:0.0 16:0.0 17:0.0 18:0.0 19:0.0 20:0.0 21:0.0 22:0.0 23:0.0 24:0.0 25:0.0 26:0.0 27:0.0 28:0.0 29:0.0 30:0.0 31:0.0 32:0.0 33:0.0 34:0.0 35:0.0 36:0.0 37:0.0 38:0.0 39:0.0 40:0.0 41:0.0 42:0.0 43:0.0 44:0.0 45:0.0 46:0.0 47:0.0 48:0.0 49:0.0 50:0.0 51:0.0 52:0.0 53:0.0 54:0.0 55:0.0 56:0.0 57:0.0 58:0.0 
1.0 0:1.0 1:0.0 2:0.0 3:0.0 4:0.0 5:0.0 6:0.0 7:0.0 8:0.0 9:0.0 10:0.0 11:0.0 12:0.0 13:0.0 14:0.0 15:0.0 16:0.0 17:0.0 18:0.0 19:0.0 20:0.0 21:0.0 22:0.0 23:0.0 24:0.0 25:0.0 26:0.0 27:0.0 28:0.0 29:0.0 30:0.0 31:0.0 32:0.0 33:0.0 34:0.0 35:0.0 36:0.0 37:0.0 38:0.0 39:0.0 40:0.0 41:0.0 42:0.0 43:0.0 44:0.0 45:0.0 46:0.0 47:0.0 48:0.0 49:0.0 50:0.0 51:0.0 52:0.0 53:0.0 54:0.0 55:0.0 56:0.0 57:0.0 58:0.0 
1.0 0:1.0 1:0.0 2:0.0 3:0.0 4:0.0 5:0.0 6:0.0 7:0.0 8:0.0 9:0.0 10:0.0 11:0.0 12:0.0 13:0.0 14:0.0 15:0.0 16:0.0 17:0.0 18:0.0 19:0.0 20:0.0 21:0.0 22:0.0 23:0.0 24:0.0 25:0.0 26:0.0 27:0.0 28:0.0 29:0.0 30:0.0 31:0.0 32:0.0 33:0.0 34:0.0 35:0.0 36:0.0 37:0.0 38:0.0 39:0.0 40:0.0 41:0.0 42:0.0 43:0.0 44:0.0 45:0.0 46:0.0 47:0.0 48:0.0 49:0.0 50:0.0 51:0.0 52:0.0 53:0.0 54:0.0 55:0.0 56:0.0 57:0.0 58:0.0 
1.0 0:1.0 1:0.0 2:0.0 3:0.0 4:0.0 5:0.0 6:0.0 7:0.0 8:0.0 9:0.0 10:0.0 11:0.0 12:0.0 13:0.0 14:0.0 15:0.0 16:0.0 17:0.0 18:0.0 19:0.0 20:0.0 21:0.0 22:0.0 23:0.0 24:0.0 25:0.0 26:0.0 27:0.0 28:0.0 29:0.0 30:0.0 31:0.0 32:0.0 33:0.0 34:0.0 35:0.0 36:0.0 37:0.0 38:0.0 39:0.0 40:0.0 41:0.0 42:0.0 43:0.0 44:0.0 45:0.0 46:0.0 47:0.0 48:0.0 49:0.0 50:0.0 51:0.0 52:0.0 53:0.0 54:0.0 55:0.0 56:0.0 57:0.0 58:0.0 
1.0 0:1.0 1:0.0 2:0.0 3:0.0 4:0.0 5:0.0 6:0.0 7:0.0 8:0.0 9:0.0 10:0.0 11:0.0 12:0.0 13:0.0 14:0.0 15:0.0 16:0.0 17:0.0 18:0.0 19:0.0 20:0.0 21:0.0 22:0.0 23:0.0 24:0.0 25:0.0 26:0.0 27:0.0 28:0.0 29:0.0 30:0.0 31:0.0 32:0.0 33:0.0 34:0.0 35:0.0 36:0.0 37:0.0 38:0.0 39:0.0 40:0.0 41:0.0 42:0.0 43:0.0 44:0.0 45:0.0 46:0.0 47:0.0 48:0.0 49:0.0 50:0.0 51:0.0 52:0.0 53:0.0 54:0.0 55:0.0 56:0.0 57:0.0 58:0.0 
1.0 0:1.0 1:0.0 2:0.0 3:0.0 4:0.0 5:0.0 6:0.0 7:0.0 8:0.0 9:0.0 10:0.0 11:0.0 12:0.0 13:0.0 14:0.0 15:0.0 16:0.0 17:0.0 18:0.0 19:0.0 20:0.0 21:0.0 22:0.0 23:0.0 24:0.0 25:0.0 26:0.0 27:0.0 28:0.0 29:0.0 30:0.0 31:0.0 32:0.0 33:0.0 34:0.0 35:0.0 36:0.0 37:0.0 38:0.0 39:0.0 40:0.0 41:0.0 42:0.0 43:0.0 44:0.0 45:0.0 46:0.0 47:0.0 48:0.0 49:0.0 50:0.0 51:0.0 52:0.0 53:0.0 54:0.0 55:0.0 56:0.0 57:0.0 58:0.0 
1.0 0:1.0 1:0.0 2:0.0 3:0.0 4:0.0 5:0.0 6:0.0 7:0.0 8:0.0 9:0.0 10:0.0 11:0.0 12:0.0 13:0.0 14:0.0 15:0.0 16:0.0 17:0.0 18:0.0 19:0.0 20:0.0 21:0.0 22:0.0 23:0.0 24:0.0 25:0.0 26:0.0 27:0.0 28:0.0 29:0.0 30:0.0 31:0.0 32:0.0 33:0.0 34:0.0 35:0.0 36:0.0 37:0.0 38:0.0 39:0.0 40:0.0 41:0.0 42:0.0 43:0.0 44:0.0 45:0.0 46:0.0 47:0.0 48:0.0 49:0.0 50:0.0 51:0.0 52:0.0 53:0.0 54:0.0 55:0.0 56:0.0 57:0.0 58:0.0 
1.0 0:1.0 1:0.0 2:0.0 3:0.0 4:0.0 5:0.0 6:0.0 7:0.0 8:0.0 9:0.0 10:0.0 11:0.0 12:0.0 13:0.0 14:0.0 15:0.0 16:0.0 17:0.0 18:0.0 19:0.0 20:0.0 21:0.0 22:0.0 23:0.0 24:0.0 25:0.0 26:0.0 27:0.0 28:0.0 29:0.0 30:0.0 31:0.0 32:0.0 33:0.0 34:0.0 35:0.0 36:0.0 37:0.0 38:0.0 39:0.0 40:0.0 41:0.0 42:0.0 43:0.0 44:0.0 45:0.0 46:0.0 47:0.0 48:0.0 49:0.0 50:0.0 51:0.0 52:0.0 53:0.0 54:0.0 55:0.0 56:0.0 57:0.0 58:0.0 
1.0 0:1.0 1:0.0 2:0.0 3:0.0 4:0.0 5:0.0 6:0.0 7:0.0 8:0.0 9:0.0 10:0.0 11:0.0 12:0.0 13:0.0 14:0.0 15:0.0 16:0.0 17:0.0 18:0.0 19:0.0 20:0.0 21:0.0 22:0.0 23:0.0 24:0.0 25:0.0 26:0.0 27:0.0 28:0.0 29:0.0 30:0.0 31:0.0 32:0.0 33:0.0 34:0.0 35:0.0 36:0.0 37:0.0 38:0.0 39:0.0 40:0.0 41:0.0 42:0.0 43:0.0 44:0.0 45:0.0 46:0.0 47:0.0 48:0.0 49:0.0 50:0.0 51:0.0 52:0.0 53:0.0 54:0.0 55:0.0 56:0.0 57:0.0 58:0.0 
1.0 0:1.0 1:0.0 2:0.0 3:0.0 4:0.0 5:0.0 6:0.0 7:0.0 8:0.0 9:0.0 10:0.0 11:0.0 12:0.0 13:0.0 14:0.0 15:0.0 16:0.0 17:0.0 18:0.0 19:0.0 20:0.0 21:0.0 22:0.0 23:0.0 24:0.0 25:0.0 26:0.0 27:0.0 28:0.0 29:0.0 30:0.0 31:0.0 32:0.0 33:0.0 34:0.0 35:0.0 36:0.0 37:0.0 38:0.0 39:0.0 40:0.0 41:0.0 42:0.0 43:0.0 44:0.0 45:0.0 46:0.0 47:0.0 48:0.0 49:0.0 50:0.0 51:0.0 52:0.0 53:0.0 54:0.0 55:0.0 56:0.0 57:0.0 58:0.0 
1.0 0:1.0 1:0.0 2:0.0 3:0.0 4:0.0 5:0.0 6:0.0 7:0.0 8:0.0 9:0.0 10:0.0 11:0.0 12:0.0 13:0.0 14:0.0 15:0.0 16:0.0 17:0.0 18:0.0 19:0.0 20:0.0 21:0.0 22:0.0 23:0.0 24:0.0 25:0.0 26:0.0 27:0.0 28:0.0 29:0.0 30:0.0 31:0.0 32:0.0 33:0.0 34:0.0 35:0.0 36:0.0 37:0.0 38:0.0 39:0.0 40:0.0 41:0.0 42:0.0 43:0.0 44:0.0 45:0.0 46:0.0 47:0.0 48:0.0 49:0.0 50:0.0 51:0.0 52:0.0 53:0.0 54:0.0 55:0.0 56:0.0 57:0.0 58:0.0 
1.0 0:1.0 1:0.0 2:0.0 3:0.0 4:0.0 5:0.0 6:0.0 7:0.0 8:0.0 9:0.0 10:0.0 11:0.0 12:0.0 13:0.0 14:0.0 15:0.0 16:0.0 17:0.0 18:0.0 19:0.0 20:0.0 21:0.0 22:0.0 23:0.0 24:0.0 25:0.0 26:0.0 27:0.0 28:0.0 29:0.0 30:0.0 31:0.0 32:0.0 33:0.0 34:0.0 35:0.0 36:0.0 37:0.0 38:0.0 39:0.0 40:0.0 41:0.0 42:0.0 43:0.0 44:0.0 45:0.0 46:0.0 47:0.0 48:0.0 49:0.0 50:0.0 51:0.0 52:0.0 53:0.0 54:0.0 55:0.0 56:0.0 57:0.0 58:0.0 
1.0 0:1.0 1:0.0 2:0.0 3:0.0 4:0.0 5:0.0 6:0.0 7:0.0 8:0.0 9:0.0 10:0.0 11:0.0 12:0.0 13:0.0 14:0.0 15:0.0 16:0.0 17:0.0 18:0.0 19:0.0 20:0.0 21:0.0 22:0.0 23:0.0 24:0.0 25:0.0 26:0.0 27:0.0 28:0.0 29:0.0 30:0.0 31:0.0 32:0.0 33:0.0 34:0.0 35:0.0 36:0.0 37:0.0 38:0.0 39:0.0 40:0.0 41:0.0 42:0.0 43:0.0 44:0.0 45:0.0 46:0.0 47:0.0 48:0.0 49:0.0 50:0.0 51:0.0 52:0.0 53:0.0 54:0.0 55:0.0 56:0.0 57:0.0 58:0.0 
1.0 0:0.045454545454545456 1:0.18181818181818182 2:0.0 3:0.09090909090909091 4:0.0 5:0.0 6:0.09090909090909091 7:0.0 8:0.0 9:0.0 10:0.09090909090909091 11:0.0 12:0.0 13:0.0 14:0.0 15:0.0 16:0.0 17:0.0 18:0.0 19:0.0 20:0.0 21:0.0 22:0.0 23:0.0 24:0.0 25:0.0 26:0.0 27:0.0 28:0.0 29:0.0 30:0.18181818181818182 31:0.13636363636363635 32:1.0 33:0.09090909090909091 34:0.0 35:0.0 36:0.0 37:0.0 38:0.18181818181818182 39:0.13636363636363635 40:0.045454545454545456 41:0.045454545454545456 42:0.0 43:0.09090909090909091 44:0.0 45:0.18181818181818182 46:0.0 47:0.0 48:0.045454545454545456 49:0.0 50:0.09090909090909091 51:0.0 52:0.0 53:0.0 54:0.0 55:0.0 56:0.0 57:0.045454545454545456 58:0.13636363636363635 
1.0 0:1.0 1:0.0 2:0.0 3:0.0 4:0.0 5:0.0 6:0.0 7:0.0 8:0.0 9:0.0 10:0.0 11:0.0 12:0.0 13:0.0 14:0.0 15:0.0 16:0.0 17:0.0 18:0.0 19:0.0 20:0.0 21:0.0 22:0.0 23:0.0 24:0.0 25:0.0 26:0.0 27:0.0 28:0.0 29:0.0 30:0.0 31:0.0 32:0.0 33:0.0 34:0.0 35:0.0 36:0.0 37:0.0 38:0.0 39:0.0 40:0.0 41:0.0 42:0.0 43:0.0 44:0.0 45:0.0 46:0.0 47:0.0 48:0.0 49:0.0 50:0.0 51:0.0 52:0.0 53:0.0 54:0.0 55:0.0 56:0.0 57:0.0 58:0.0 
1.0 0:1.0 1:0.0 2:0.0 3:0.0 4:0.0 5:0.0 6:0.0 7:0.0 8:0.0 9:0.0 10:0.0 11:0.0 12:0.0 13:0.0 14:0.0 15:0.0 16:0.0 17:0.0 18:0.0 19:0.0 20:0.0 21:0.0 22:0.0 23:0.0 24:0.0 25:0.0 26:0.0 27:0.0 28:0.0 29:0.0 30:0.0 31:0.0 32:0.0 33:0.0 34:0.0 35:0.0 36:0.0 37:0.0 38:0.0 39:0.0 40:0.0 41:0.0 42:0.0 43:0.0 44:0.0 45:0.0 46:0.0 47:0.0 48:0.0 49:0.0 50:0.0 51:0.0 52:0.0 53:0.0 54:0.0 55:0.0 56:0.0 57:0.0 58:0.0 
1.0 0:1.0 1:0.0 2:0.0 3:0.0 4:0.0 5:0.0 6:0.0 7:0.0 8:0.0 9:0.0 10:0.0 11:0.0 12:0.0 13:0.0 14:0.0 15:0.0 16:0.0 17:0.0 18:0.0 19:0.0 20:0.0 21:0.0 22:0.0 23:0.0 24:0.0 25:0.0 26:0.0 27:0.0 28:0.0 29:0.0 30:0.0 31:0.0 32:0.0 33:0.0 34:0.0 35:0.0 36:0.0 37:0.0 38:0.0 39:0.0 40:0.0 41:0.0 42:0.0 43:0.0 44:0.0 45:0.0 46:0.0 47:0.0 48:0.0 49:0.0 50:0.0 51:0.0 52:0.0 53:0.0 54:0.0 55:0.0 56:0.0 57:0.0 58:0.0 
1.0 0:1.0 1:0.0 2:0.0 3:0.0 4:0.0 5:0.0 6:0.0 7:0.0 8:0.0 9:0.0 10:0.0 11:0.0 12:0.0 13:0.0 14:0.0 15:0.0 16:0.0 17:0.0 18:0.0 19:0.0 20:0.0 21:0.0 22:0.0 23:0.0 24:0.0 25:0.0 26:0.0 27:0.0 28:0.0 29:0.0 30:0.0 31:0.0 32:0.0 33:0.0 34:0.0 35:0.0 36:0.0 37:0.0 38:0.0 39:0.0 40:0.0 41:0.0 42:0.0 43:0.0 44:0.0 45:0.0 46:0.0 47:0.0 48:0.0 49:0.0 50:0.0 51:0.0 52:0.0 53:0.0 54:0.0 55:0.0 56:0.0 57:0.0 58:0.0 
1.0 0:0.21428571428571427 1:0.03571428571428571 2:0.0 3:0.25 4:0.0 5:0.0 6:1.0 7:0.0 8:0.0 9:0.0 10:0.10714285714285714 11:0.0 12:0.0 13:0.0 14:0.0 15:0.03571428571428571 16:0.0 17:0.0 18:0.0 19:0.0 20:0.0 21:0.0 22:0.0 23:0.0 24:0.0 25:0.0 26:0.0 27:0.0 28:0.0 29:0.0 30:0.03571428571428571 31:0.03571428571428571 32:0.14285714285714285 33:0.07142857142857142 34:0.0 35:0.0 36:0.0 37:0.07142857142857142 38:0.07142857142857142 39:0.10714285714285714 40:0.0 41:0.0 42:0.0 43:0.0 44:0.0 45:0.0 46:0.0 47:0.0 48:0.0 49:0.0 50:0.0 51:0.0 52:0.0 53:0.0 54:0.0 55:0.0 56:0.0 57:0.0 58:0.10714285714285714 
1.0 0:1.0 1:0.0 2:0.0 3:0.0 4:0.0 5:0.0 6:0.0 7:0.0 8:0.0 9:0.0 10:0.0 11:0.0 12:0.0 13:0.0 14:0.0 15:0.0 16:0.0 17:0.0 18:0.0 19:0.0 20:0.0 21:0.0 22:0.0 23:0.0 24:0.0 25:0.0 26:0.0 27:0.0 28:0.0 29:0.0 30:0.0 31:0.0 32:0.0 33:0.0 34:0.0 35:0.0 36:0.0 37:0.0 38:0.0 39:0.0 40:0.0 41:0.0 42:0.0 43:0.0 44:0.0 45:0.0 46:0.0 47:0.0 48:0.0 49:0.0 50:0.0 51:0.0 52:0.0 53:0.0 54:0.0 55:0.0 56:0.0 57:0.0 58:0.0 
1.0 0:1.0 1:0.0 2:0.0 3:0.0 4:0.0 5:0.0 6:0.0 7:0.0 8:0.0 9:0.0 10:0.0 11:0.0 12:0.0 13:0.0 14:0.0 15:0.0 16:0.0 17:0.0 18:0.0 19:0.0 20:0.0 21:0.0 22:0.0 23:0.0 24:0.0 25:0.0 26:0.0 27:0.0 28:0.0 29:0.0 30:0.0 31:0.0 32:0.0 33:0.0 34:0.0 35:0.0 36:0.0 37:0.0 38:0.0 39:0.0 40:0.0 41:0.0 42:0.0 43:0.0 44:0.0 45:0.0 46:0.0 47:0.0 48:0.0 49:0.0 50:0.0 51:0.0 52:0.0 53:0.0 54:0.0 55:0.0 56:0.0 57:0.0 58:0.0 
1.0 0:0.3225806451612903 1:0.12903225806451613 2:0.0 3:0.0967741935483871 4:0.0 5:0.0 6:1.0 7:0.0 8:0.0 9:0.0 10:0.03225806451612903 11:0.0 12:0.0 13:0.0 14:0.0 15:0.0 16:0.0 17:0.0 18:0.0 19:0.0 20:0.0 21:0.0 22:0.0 23:0.0 24:0.0 25:0.0 26:0.0 27:0.0 28:0.0 29:0.0 30:0.03225806451612903 31:0.06451612903225806 32:0.03225806451612903 33:0.0 34:0.0 35:0.0 36:0.0 37:0.06451612903225806 38:0.12903225806451613 39:0.06451612903225806 40:0.0 41:0.0 42:0.0 43:0.0 44:0.03225806451612903 45:0.0 46:0.0 47:0.0 48:0.0 49:0.0 50:0.0 51:0.0 52:0.0 53:0.0 54:0.0 55:0.0 56:0.0 57:0.0 58:0.06451612903225806 
1.0 0:0.11428571428571428 1:0.11428571428571428 2:0.0 3:0.05714285714285714 4:0.0 5:0.0 6:0.05714285714285714 7:0.0 8:0.0 9:0.0 10:0.0 11:0.0 12:0.0 13:0.0 14:0.0 15:0.02857142857142857 16:0.0 17:0.0 18:0.0 19:0.0 20:0.0 21:0.0 22:0.0 23:0.0 24:0.0 25:0.0 26:0.0 27:0.0 28:0.02857142857142857 29:0.0 30:0.11428571428571428 31:0.02857142857142857 32:1.0 33:0.0 34:0.0 35:0.0 36:0.0 37:0.0 38:0.02857142857142857 39:0.0 40:0.0 41:0.0 42:0.0 43:0.02857142857142857 44:0.02857142857142857 45:0.0 46:0.0 47:0.0 48:0.0 49:0.0 50:0.02857142857142857 51:0.0 52:0.0 53:0.0 54:0.0 55:0.0 56:0.0 57:0.05714285714285714 58:0.11428571428571428 
1.0 0:0.0 1:0.0 2:0.0 3:0.024390243902439025 4:0.0 5:0.0 6:0.0 7:0.0 8:0.0 9:0.0 10:0.04878048780487805 11:0.0 12:0.0 13:0.0 14:0.0 15:0.0 16:0.0 17:0.0 18:0.0 19:0.0 20:0.0 21:0.0 22:0.0 23:0.0 24:0.0 25:0.0 26:0.0 27:0.0 28:0.0 29:0.0 30:0.024390243902439025 31:0.024390243902439025 32:0.0975609756097561 33:0.0 34:0.0 35:0.0 36:0.0 37:0.024390243902439025 38:1.0 39:0.04878048780487805 40:0.0 41:0.0 42:0.0 43:0.0 44:0.024390243902439025 45:0.0 46:0.0 47:0.0 48:0.024390243902439025 49:0.024390243902439025 50:0.0 51:0.0 52:0.07317073170731707 53:0.0 54:0.0 55:0.024390243902439025 56:0.0 57:0.024390243902439025 58:0.07317073170731707 
1.0 0:0.02857142857142857 1:0.14285714285714285 2:0.0 3:0.0 4:0.0 5:0.0 6:0.0 7:0.0 8:0.0 9:0.0 10:0.05714285714285714 11:0.0 12:0.0 13:0.0 14:0.0 15:0.0 16:0.0 17:0.0 18:0.0 19:0.0 20:0.0 21:0.0 22:0.0 23:0.0 24:0.0 25:0.0 26:0.0 27:0.0 28:0.0 29:0.0 30:0.0 31:0.02857142857142857 32:0.08571428571428572 33:0.0 34:0.0 35:0.0 36:0.0 37:0.11428571428571428 38:1.0 39:0.02857142857142857 40:0.0 41:0.11428571428571428 42:0.0 43:0.0 44:0.02857142857142857 45:0.0 46:0.02857142857142857 47:0.0 48:0.0 49:0.0 50:0.0 51:0.0 52:0.0 53:0.0 54:0.0 55:0.02857142857142857 56:0.0 57:0.02857142857142857 58:0.11428571428571428 
1.0 0:1.0 1:0.0 2:0.0 3:0.0 4:0.0 5:0.0 6:0.0 7:0.0 8:0.0 9:0.0 10:0.0 11:0.0 12:0.0 13:0.0 14:0.0 15:0.0 16:0.0 17:0.0 18:0.0 19:0.0 20:0.0 21:0.0 22:0.0 23:0.0 24:0.0 25:0.0 26:0.0 27:0.0 28:0.0 29:0.0 30:0.0 31:0.0 32:0.0 33:0.0 34:0.0 35:0.0 36:0.0 37:0.0 38:0.0 39:0.0 40:0.0 41:0.0 42:0.0 43:0.0 44:0.0 45:0.0 46:0.0 47:0.0 48:0.0 49:0.0 50:0.0 51:0.0 52:0.0 53:0.0 54:0.0 55:0.0 56:0.0 57:0.0 58:0.0 
1.0 0:1.0 1:0.0 2:0.0 3:0.0 4:0.0 5:0.0 6:0.0 7:0.0 8:0.0 9:0.0 10:0.0 11:0.0 12:0.0 13:0.0 14:0.0 15:0.0 16:0.0 17:0.0 18:0.0 19:0.0 20:0.0 21:0.0 22:0.0 23:0.0 24:0.0 25:0.0 26:0.0 27:0.0 28:0.0 29:0.0 30:0.0 31:0.0 32:0.0 33:0.0 34:0.0 35:0.0 36:0.0 37:0.0 38:0.0 39:0.0 40:0.0 41:0.0 42:0.0 43:0.0 44:0.0 45:0.0 46:0.0 47:0.0 48:0.0 49:0.0 50:0.0 51:0.0 52:0.0 53:0.0 54:0.0 55:0.0 56:0.0 57:0.0 58:0.0 
1.0 0:1.0 1:0.0 2:0.0 3:0.0 4:0.0 5:0.0 6:0.0 7:0.0 8:0.0 9:0.0 10:0.0 11:0.0 12:0.0 13:0.0 14:0.0 15:0.0 16:0.0 17:0.0 18:0.0 19:0.0 20:0.0 21:0.0 22:0.0 23:0.0 24:0.0 25:0.0 26:0.0 27:0.0 28:0.0 29:0.0 30:0.0 31:0.0 32:0.0 33:0.0 34:0.0 35:0.0 36:0.0 37:0.0 38:0.0 39:0.0 40:0.0 41:0.0 42:0.0 43:0.0 44:0.0 45:0.0 46:0.0 47:0.0 48:0.0 49:0.0 50:0.0 51:0.0 52:0.0 53:0.0 54:0.0 55:0.0 56:0.0 57:0.0 58:0.0 
1.0 0:1.0 1:0.0 2:0.0 3:0.0 4:0.0 5:0.0 6:0.0 7:0.0 8:0.0 9:0.0 10:0.0 11:0.0 12:0.0 13:0.0 14:0.0 15:0.0 16:0.0 17:0.0 18:0.0 19:0.0 20:0.0 21:0.0 22:0.0 23:0.0 24:0.0 25:0.0 26:0.0 27:0.0 28:0.0 29:0.0 30:0.0 31:0.0 32:0.0 33:0.0 34:0.0 35:0.0 36:0.0 37:0.0 38:0.0 39:0.0 40:0.0 41:0.0 42:0.0 43:0.0 44:0.0 45:0.0 46:0.0 47:0.0 48:0.0 49:0.0 50:0.0 51:0.0 52:0.0 53:0.0 54:0.0 55:0.0 56:0.0 57:0.0 58:0.0 
1.0 0:1.0 1:0.0 2:0.0 3:0.0 4:0.0 5:0.0 6:0.0 7:0.0 8:0.0 9:0.0 10:0.0 11:0.0 12:0.0 13:0.0 14:0.0 15:0.0 16:0.0 17:0.0 18:0.0 19:0.0 20:0.0 21:0.0 22:0.0 23:0.0 24:0.0 25:0.0 26:0.0 27:0.0 28:0.0 29:0.0 30:0.0 31:0.0 32:0.0 33:0.0 34:0.0 35:0.0 36:0.0 37:0.0 38:0.0 39:0.0 40:0.0 41:0.0 42:0.0 43:0.0 44:0.0 45:0.0 46:0.0 47:0.0 48:0.0 49:0.0 50:0.0 51:0.0 52:0.0 53:0.0 54:0.0 55:0.0 56:0.0 57:0.0 58:0.0 
1.0 0:1.0 1:0.0 2:0.0 3:0.0 4:0.0 5:0.0 6:0.0 7:0.0 8:0.0 9:0.0 10:0.0 11:0.0 12:0.0 13:0.0 14:0.0 15:0.0 16:0.0 17:0.0 18:0.0 19:0.0 20:0.0 21:0.0 22:0.0 23:0.0 24:0.0 25:0.0 26:0.0 27:0.0 28:0.0 29:0.0 30:0.0 31:0.0 32:0.0 33:0.0 34:0.0 35:0.0 36:0.0 37:0.0 38:0.0 39:0.0 40:0.0 41:0.0 42:0.0 43:0.0 44:0.0 45:0.0 46:0.0 47:0.0 48:0.0 49:0.0 50:0.0 51:0.0 52:0.0 53:0.0 54:0.0 55:0.0 56:0.0 57:0.0 58:0.0 
1.0 0:1.0 1:0.0 2:0.0 3:0.0 4:0.0 5:0.0 6:0.0 7:0.0 8:0.0 9:0.0 10:0.0 11:0.0 12:0.0 13:0.0 14:0.0 15:0.0 16:0.0 17:0.0 18:0.0 19:0.0 20:0.0 21:0.0 22:0.0 23:0.0 24:0.0 25:0.0 26:0.0 27:0.0 28:0.0 29:0.0 30:0.0 31:0.0 32:0.0 33:0.0 34:0.0 35:0.0 36:0.0 37:0.0 38:0.0 39:0.0 40:0.0 41:0.0 42:0.0 43:0.0 44:0.0 45:0.0 46:0.0 47:0.0 48:0.0 49:0.0 50:0.0 51:0.0 52:0.0 53:0.0 54:0.0 55:0.0 56:0.0 57:0.0 58:0.0 
1.0 0:1.0 1:0.0 2:0.0 3:0.0 4:0.0 5:0.0 6:0.0 7:0.0 8:0.0 9:0.0 10:0.0 11:0.0 12:0.0 13:0.0 14:0.0 15:0.0 16:0.0 17:0.0 18:0.0 19:0.0 20:0.0 21:0.0 22:0.0 23:0.0 24:0.0 25:0.0 26:0.0 27:0.0 28:0.0 29:0.0 30:0.0 31:0.0 32:0.0 33:0.0 34:0.0 35:0.0 36:0.0 37:0.0 38:0.0 39:0.0 40:0.0 41:0.0 42:0.0 43:0.0 44:0.0 45:0.0 46:0.0 47:0.0 48:0.0 49:0.0 50:0.0 51:0.0 52:0.0 53:0.0 54:0.0 55:0.0 56:0.0 57:0.0 58:0.0 
1.0 0:1.0 1:0.0 2:0.0 3:0.0 4:0.0 5:0.0 6:0.0 7:0.0 8:0.0 9:0.0 10:0.0 11:0.0 12:0.0 13:0.0 14:0.0 15:0.0 16:0.0 17:0.0 18:0.0 19:0.0 20:0.0 21:0.0 22:0.0 23:0.0 24:0.0 25:0.0 26:0.0 27:0.0 28:0.0 29:0.0 30:0.0 31:0.0 32:0.0 33:0.0 34:0.0 35:0.0 36:0.0 37:0.0 38:0.0 39:0.0 40:0.0 41:0.0 42:0.0 43:0.0 44:0.0 45:0.0 46:0.0 47:0.0 48:0.0 49:0.0 50:0.0 51:0.0 52:0.0 53:0.0 54:0.0 55:0.0 56:0.0 57:0.0 58:0.0 
1.0 0:1.0 1:0.0 2:0.0 3:0.0 4:0.0 5:0.0 6:0.0 7:0.0 8:0.0 9:0.0 10:0.0 11:0.0 12:0.0 13:0.0 14:0.0 15:0.0 16:0.0 17:0.0 18:0.0 19:0.0 20:0.0 21:0.0 22:0.0 23:0.0 24:0.0 25:0.0 26:0.0 27:0.0 28:0.0 29:0.0 30:0.0 31:0.0 32:0.0 33:0.0 34:0.0 35:0.0 36:0.0 37:0.0 38:0.0 39:0.0 40:0.0 41:0.0 42:0.0 43:0.0 44:0.0 45:0.0 46:0.0 47:0.0 48:0.0 49:0.0 50:0.0 51:0.0 52:0.0 53:0.0 54:0.0 55:0.0 56:0.0 57:0.0 58:0.0 
1.0 0:1.0 1:0.0 2:0.0 3:0.0 4:0.0 5:0.0 6:0.0 7:0.0 8:0.0 9:0.0 10:0.0 11:0.0 12:0.0 13:0.0 14:0.0 15:0.0 16:0.0 17:0.0 18:0.0 19:0.0 20:0.0 21:0.0 22:0.0 23:0.0 24:0.0 25:0.0 26:0.0 27:0.0 28:0.0 29:0.0 30:0.0 31:0.0 32:0.0 33:0.0 34:0.0 35:0.0 36:0.0 37:0.0 38:0.0 39:0.0 40:0.0 41:0.0 42:0.0 43:0.0 44:0.0 45:0.0 46:0.0 47:0.0 48:0.0 49:0.0 50:0.0 51:0.0 52:0.0 53:0.0 54:0.0 55:0.0 56:0.0 57:0.0 58:0.0 
1.0 0:1.0 1:0.0 2:0.0 3:0.0 4:0.0 5:0.0 6:0.0 7:0.0 8:0.0 9:0.0 10:0.0 11:0.0 12:0.0 13:0.0 14:0.0 15:0.0 16:0.0 17:0.0 18:0.0 19:0.0 20:0.0 21:0.0 22:0.0 23:0.0 24:0.0 25:0.0 26:0.0 27:0.0 28:0.0 29:0.0 30:0.0 31:0.0 32:0.0 33:0.0 34:0.0 35:0.0 36:0.0 37:0.0 38:0.0 39:0.0 40:0.0 41:0.0 42:0.0 43:0.0 44:0.0 45:0.0 46:0.0 47:0.0 48:0.0 49:0.0 50:0.0 51:0.0 52:0.0 53:0.0 54:0.0 55:0.0 56:0.0 57:0.0 58:0.0 
1.0 0:1.0 1:0.0 2:0.0 3:0.0 4:0.0 5:0.0 6:0.0 7:0.0 8:0.0 9:0.0 10:0.0 11:0.0 12:0.0 13:0.0 14:0.0 15:0.0 16:0.0 17:0.0 18:0.0 19:0.0 20:0.0 21:0.0 22:0.0 23:0.0 24:0.0 25:0.0 26:0.0 27:0.0 28:0.0 29:0.0 30:0.0 31:0.0 32:0.0 33:0.0 34:0.0 35:0.0 36:0.0 37:0.0 38:0.0 39:0.0 40:0.0 41:0.0 42:0.0 43:0.0 44:0.0 45:0.0 46:0.0 47:0.0 48:0.0 49:0.0 50:0.0 51:0.0 52:0.0 53:0.0 54:0.0 55:0.0 56:0.0 57:0.0 58:0.0 
1.0 0:1.0 1:0.0 2:0.0 3:0.0 4:0.0 5:0.0 6:0.0 7:0.0 8:0.0 9:0.0 10:0.0 11:0.0 12:0.0 13:0.0 14:0.0 15:0.0 16:0.0 17:0.0 18:0.0 19:0.0 20:0.0 21:0.0 22:0.0 23:0.0 24:0.0 25:0.0 26:0.0 27:0.0 28:0.0 29:0.0 30:0.0 31:0.0 32:0.0 33:0.0 34:0.0 35:0.0 36:0.0 37:0.0 38:0.0 39:0.0 40:0.0 41:0.0 42:0.0 43:0.0 44:0.0 45:0.0 46:0.0 47:0.0 48:0.0 49:0.0 50:0.0 51:0.0 52:0.0 53:0.0 54:0.0 55:0.0 56:0.0 57:0.0 58:0.0 
1.0 0:1.0 1:0.0 2:0.0 3:0.0 4:0.0 5:0.0 6:0.0 7:0.0 8:0.0 9:0.0 10:0.0 11:0.0 12:0.0 13:0.0 14:0.0 15:0.0 16:0.0 17:0.0 18:0.0 19:0.0 20:0.0 21:0.0 22:0.0 23:0.0 24:0.0 25:0.0 26:0.0 27:0.0 28:0.0 29:0.0 30:0.0 31:0.0 32:0.0 33:0.0 34:0.0 35:0.0 36:0.0 37:0.0 38:0.0 39:0.0 40:0.0 41:0.0 42:0.0 43:0.0 44:0.0 45:0.0 46:0.0 47:0.0 48:0.0 49:0.0 50:0.0 51:0.0 52:0.0 53:0.0 54:0.0 55:0.0 56:0.0 57:0.0 58:0.0 
1.0 0:1.0 1:0.0 2:0.0 3:0.0 4:0.0 5:0.0 6:0.0 7:0.0 8:0.0 9:0.0 10:0.0 11:0.0 12:0.0 13:0.0 14:0.0 15:0.0 16:0.0 17:0.0 18:0.0 19:0.0 20:0.0 21:0.0 22:0.0 23:0.0 24:0.0 25:0.0 26:0.0 27:0.0 28:0.0 29:0.0 30:0.0 31:0.0 32:0.0 33:0.0 34:0.0 35:0.0 36:0.0 37:0.0 38:0.0 39:0.0 40:0.0 41:0.0 42:0.0 43:0.0 44:0.0 45:0.0 46:0.0 47:0.0 48:0.0 49:0.0 50:0.0 51:0.0 52:0.0 53:0.0 54:0.0 55:0.0 56:0.0 57:0.0 58:0.0 
1.0 0:1.0 1:0.0 2:0.0 3:0.0 4:0.0 5:0.0 6:0.0 7:0.0 8:0.0 9:0.0 10:0.0 11:0.0 12:0.0 13:0.0 14:0.0 15:0.0 16:0.0 17:0.0 18:0.0 19:0.0 20:0.0 21:0.0 22:0.0 23:0.0 24:0.0 25:0.0 26:0.0 27:0.0 28:0.0 29:0.0 30:0.0 31:0.0 32:0.0 33:0.0 34:0.0 35:0.0 36:0.0 37:0.0 38:0.0 39:0.0 40:0.0 41:0.0 42:0.0 43:0.0 44:0.0 45:0.0 46:0.0 47:0.0 48:0.0 49:0.0 50:0.0 51:0.0 52:0.0 53:0.0 54:0.0 55:0.0 56:0.0 57:0.0 58:0.0 
1.0 0:1.0 1:0.0 2:0.0 3:0.0 4:0.0 5:0.0 6:0.0 7:0.0 8:0.0 9:0.0 10:0.0 11:0.0 12:0.0 13:0.0 14:0.0 15:0.0 16:0.0 17:0.0 18:0.0 19:0.0 20:0.0 21:0.0 22:0.0 23:0.0 24:0.0 25:0.0 26:0.0 27:0.0 28:0.0 29:0.0 30:0.0 31:0.0 32:0.0 33:0.0 34:0.0 35:0.0 36:0.0 37:0.0 38:0.0 39:0.0 40:0.0 41:0.0 42:0.0 43:0.0 44:0.0 45:0.0 46:0.0 47:0.0 48:0.0 49:0.0 50:0.0 51:0.0 52:0.0 53:0.0 54:0.0 55:0.0 56:0.0 57:0.0 58:0.0 
1.0 0:1.0 1:0.0 2:0.0 3:0.0 4:0.0 5:0.0 6:0.0 7:0.0 8:0.0 9:0.0 10:0.0 11:0.0 12:0.0 13:0.0 14:0.0 15:0.0 16:0.0 17:0.0 18:0.0 19:0.0 20:0.0 21:0.0 22:0.0 23:0.0 24:0.0 25:0.0 26:0.0 27:0.0 28:0.0 29:0.0 30:0.0 31:0.0 32:0.0 33:0.0 34:0.0 35:0.0 36:0.0 37:0.0 38:0.0 39:0.0 40:0.0 41:0.0 42:0.0 43:0.0 44:0.0 45:0.0 46:0.0 47:0.0 48:0.0 49:0.0 50:0.0 51:0.0 52:0.0 53:0.0 54:0.0 55:0.0 56:0.0 57:0.0 58:0.0 
1.0 0:1.0 1:0.0 2:0.0 3:0.0 4:0.0 5:0.0 6:0.0 7:0.0 8:0.0 9:0.0 10:0.0 11:0.0 12:0.0 13:0.0 14:0.0 15:0.0 16:0.0 17:0.0 18:0.0 19:0.0 20:0.0 21:0.0 22:0.0 23:0.0 24:0.0 25:0.0 26:0.0 27:0.0 28:0.0 29:0.0 30:0.0 31:0.0 32:0.0 33:0.0 34:0.0 35:0.0 36:0.0 37:0.0 38:0.0 39:0.0 40:0.0 41:0.0 42:0.0 43:0.0 44:0.0 45:0.0 46:0.0 47:0.0 48:0.0 49:0.0 50:0.0 51:0.0 52:0.0 53:0.0 54:0.0 55:0.0 56:0.0 57:0.0 58:0.0 
1.0 0:1.0 1:0.0 2:0.0 3:0.0 4:0.0 5:0.0 6:0.0 7:0.0 8:0.0 9:0.0 10:0.0 11:0.0 12:0.0 13:0.0 14:0.0 15:0.0 16:0.0 17:0.0 18:0.0 19:0.0 20:0.0 21:0.0 22:0.0 23:0.0 24:0.0 25:0.0 26:0.0 27:0.0 28:0.0 29:0.0 30:0.0 31:0.0 32:0.0 33:0.0 34:0.0 35:0.0 36:0.0 37:0.0 38:0.0 39:0.0 40:0.0 41:0.0 42:0.0 43:0.0 44:0.0 45:0.0 46:0.0 47:0.0 48:0.0 49:0.0 50:0.0 51:0.0 52:0.0 53:0.0 54:0.0 55:0.0 56:0.0 57:0.0 58:0.0 
1.0 0:1.0 1:0.0 2:0.0 3:0.0 4:0.0 5:0.0 6:0.0 7:0.0 8:0.0 9:0.0 10:0.0 11:0.0 12:0.0 13:0.0 14:0.0 15:0.0 16:0.0 17:0.0 18:0.0 19:0.0 20:0.0 21:0.0 22:0.0 23:0.0 24:0.0 25:0.0 26:0.0 27:0.0 28:0.0 29:0.0 30:0.0 31:0.0 32:0.0 33:0.0 34:0.0 35:0.0 36:0.0 37:0.0 38:0.0 39:0.0 40:0.0 41:0.0 42:0.0 43:0.0 44:0.0 45:0.0 46:0.0 47:0.0 48:0.0 49:0.0 50:0.0 51:0.0 52:0.0 53:0.0 54:0.0 55:0.0 56:0.0 57:0.0 58:0.0 
1.0 0:1.0 1:0.0 2:0.0 3:0.0 4:0.0 5:0.0 6:0.0 7:0.0 8:0.0 9:0.0 10:0.0 11:0.0 12:0.0 13:0.0 14:0.0 15:0.0 16:0.0 17:0.0 18:0.0 19:0.0 20:0.0 21:0.0 22:0.0 23:0.0 24:0.0 25:0.0 26:0.0 27:0.0 28:0.0 29:0.0 30:0.0 31:0.0 32:0.0 33:0.0 34:0.0 35:0.0 36:0.0 37:0.0 38:0.0 39:0.0 40:0.0 41:0.0 42:0.0 43:0.0 44:0.0 45:0.0 46:0.0 47:0.0 48:0.0 49:0.0 50:0.0 51:0.0 52:0.0 53:0.0 54:0.0 55:0.0 56:0.0 57:0.0 58:0.0 
1.0 0:1.0 1:0.0 2:0.0 3:0.0 4:0.0 5:0.0 6:0.0 7:0.0 8:0.0 9:0.0 10:0.0 11:0.0 12:0.0 13:0.0 14:0.0 15:0.0 16:0.0 17:0.0 18:0.0 19:0.0 20:0.0 21:0.0 22:0.0 23:0.0 24:0.0 25:0.0 26:0.0 27:0.0 28:0.0 29:0.0 30:0.0 31:0.0 32:0.0 33:0.0 34:0.0 35:0.0 36:0.0 37:0.0 38:0.0 39:0.0 40:0.0 41:0.0 42:0.0 43:0.0 44:0.0 45:0.0 46:0.0 47:0.0 48:0.0 49:0.0 50:0.0 51:0.0 52:0.0 53:0.0 54:0.0 55:0.0 56:0.0 57:0.0 58:0.0 
1.0 0:1.0 1:0.0 2:0.0 3:0.0 4:0.0 5:0.0 6:0.0 7:0.0 8:0.0 9:0.0 10:0.0 11:0.0 12:0.0 13:0.0 14:0.0 15:0.0 16:0.0 17:0.0 18:0.0 19:0.0 20:0.0 21:0.0 22:0.0 23:0.0 24:0.0 25:0.0 26:0.0 27:0.0 28:0.0 29:0.0 30:0.0 31:0.0 32:0.0 33:0.0 34:0.0 35:0.0 36:0.0 37:0.0 38:0.0 39:0.0 40:0.0 41:0.0 42:0.0 43:0.0 44:0.0 45:0.0 46:0.0 47:0.0 48:0.0 49:0.0 50:0.0 51:0.0 52:0.0 53:0.0 54:0.0 55:0.0 56:0.0 57:0.0 58:0.0 
1.0 0:0.2413793103448276 1:0.27586206896551724 2:0.0 3:0.034482758620689655 4:0.0 5:0.0 6:0.0 7:0.0 8:0.0 9:0.0 10:0.0 11:0.0 12:0.0 13:0.0 14:0.0 15:0.034482758620689655 16:0.0 17:0.0 18:0.0 19:0.0 20:0.0 21:0.0 22:0.0 23:0.0 24:0.0 25:0.0 26:0.0 27:0.0 28:0.06896551724137931 29:0.0 30:0.06896551724137931 31:0.034482758620689655 32:0.0 33:0.0 34:0.034482758620689655 35:0.0 36:0.0 37:0.0 38:0.0 39:0.0 40:0.0 41:0.06896551724137931 42:0.0 43:0.0 44:0.034482758620689655 45:0.0 46:0.10344827586206896 47:0.0 48:0.0 49:0.034482758620689655 50:0.0 51:0.0 52:0.034482758620689655 53:0.0 54:0.0 55:0.034482758620689655 56:0.0 57:0.10344827586206896 58:1.0 
1.0 0:0.09090909090909091 1:1.0 2:0.0 3:0.0 4:0.0 5:0.0 6:0.0 7:0.0 8:0.0 9:0.0 10:0.045454545454545456 11:0.0 12:0.0 13:0.0 14:0.0 15:0.0 16:0.0 17:0.0 18:0.0 19:0.0 20:0.0 21:0.0 22:0.0 23:0.0 24:0.0 25:0.0 26:0.0 27:0.0 28:0.09090909090909091 29:0.0 30:0.0 31:0.0 32:0.36363636363636365 33:0.0 34:0.0 35:0.045454545454545456 36:0.0 37:0.09090909090909091 38:0.13636363636363635 39:0.0 40:0.0 41:0.045454545454545456 42:0.0 43:0.045454545454545456 44:0.0 45:0.0 46:0.045454545454545456 47:0.0 48:0.0 49:0.045454545454545456 50:0.13636363636363635 51:0.0 52:0.0 53:0.045454545454545456 54:0.0 55:0.09090909090909091 56:0.0 57:0.18181818181818182 58:0.4090909090909091 
1.0 0:0.20833333333333334 1:0.375 2:0.0 3:0.125 4:0.0 5:0.0 6:0.0 7:0.0 8:0.0 9:0.0 10:0.0 11:0.0 12:0.0 13:0.0 14:0.0 15:0.0 16:0.0 17:0.0 18:0.0 19:0.0 20:0.0 21:0.041666666666666664 22:0.0 23:0.0 24:0.0 25:0.0 26:0.0 27:0.0 28:0.041666666666666664 29:0.0 30:0.125 31:0.041666666666666664 32:0.041666666666666664 33:0.041666666666666664 34:0.0 35:0.0 36:0.0 37:0.0 38:0.0 39:0.041666666666666664 40:0.0 41:0.20833333333333334 42:0.0 43:0.0 44:0.0 45:0.0 46:0.0 47:0.0 48:0.0 49:0.125 50:0.0 51:0.0 52:0.041666666666666664 53:0.0 54:0.0 55:0.041666666666666664 56:0.0 57:0.16666666666666666 58:1.0 
1.0 0:0.2692307692307692 1:0.3076923076923077 2:0.0 3:0.19230769230769232 4:0.0 5:0.0 6:0.0 7:0.0 8:0.0 9:0.0 10:0.0 11:0.0 12:0.0 13:0.0 14:0.0 15:0.0 16:0.0 17:0.0 18:0.0 19:0.0 20:0.0 21:0.038461538461538464 22:0.0 23:0.0 24:0.0 25:0.0 26:0.0 27:0.0 28:0.038461538461538464 29:0.0 30:0.0 31:0.0 32:0.038461538461538464 33:0.0 34:0.038461538461538464 35:0.038461538461538464 36:0.0 37:0.0 38:0.0 39:0.0 40:0.0 41:0.07692307692307693 42:0.0 43:0.07692307692307693 44:0.0 45:0.038461538461538464 46:0.038461538461538464 47:0.0 48:0.0 49:0.0 50:0.038461538461538464 51:0.0 52:0.0 53:0.038461538461538464 54:0.0 55:0.0 56:0.0 57:0.19230769230769232 58:1.0 
1.0 0:0.09523809523809523 1:0.09523809523809523 2:0.0 3:0.23809523809523808 4:0.0 5:0.0 6:0.09523809523809523 7:0.0 8:0.0 9:0.0 10:0.0 11:0.0 12:0.0 13:0.0 14:0.0 15:0.0 16:0.0 17:0.0 18:0.0 19:0.0 20:0.0 21:0.0 22:0.0 23:0.0 24:0.0 25:0.0 26:0.0 27:0.0 28:0.0 29:0.0 30:0.23809523809523808 31:1.0 32:0.19047619047619047 33:0.09523809523809523 34:0.0 35:0.0 36:0.0 37:0.047619047619047616 38:0.23809523809523808 39:0.09523809523809523 40:0.0 41:0.0 42:0.0 43:0.0 44:0.19047619047619047 45:0.047619047619047616 46:0.0 47:0.0 48:0.0 49:0.047619047619047616 50:0.047619047619047616 51:0.0 52:0.0 53:0.0 54:0.0 55:0.0 56:0.0 57:0.0 58:0.2857142857142857 
1.0 0:0.2571428571428571 1:0.02857142857142857 2:0.0 3:0.0 4:0.0 5:0.0 6:0.2 7:0.0 8:0.0 9:0.0 10:0.0 11:0.0 12:0.0 13:0.0 14:0.0 15:0.0 16:0.0 17:0.0 18:0.0 19:0.0 20:0.0 21:0.0 22:0.0 23:0.0 24:0.0 25:0.0 26:0.0 27:0.0 28:0.0 29:0.0 30:0.0 31:1.0 32:0.11428571428571428 33:0.0 34:0.0 35:0.02857142857142857 36:0.0 37:0.02857142857142857 38:0.02857142857142857 39:0.0 40:0.0 41:0.0 42:0.0 43:0.0 44:0.0 45:0.0 46:0.0 47:0.0 48:0.0 49:0.0 50:0.0 51:0.0 52:0.0 53:0.0 54:0.0 55:0.0 56:0.0 57:0.0 58:0.14285714285714285 
1.0 0:0.0 1:0.029411764705882353 2:0.0 3:0.08823529411764706 4:0.0 5:0.0 6:0.0 7:0.0 8:0.0 9:0.0 10:0.0 11:0.0 12:0.0 13:0.0 14:0.0 15:0.0 16:0.0 17:0.0 18:0.0 19:0.0 20:0.0 21:0.0 22:0.0 23:0.0 24:0.0 25:0.0 26:0.0 27:0.0 28:0.0 29:0.0 30:0.029411764705882353 31:1.0 32:0.23529411764705882 33:0.0 34:0.0 35:0.0 36:0.0 37:0.20588235294117646 38:0.2647058823529412 39:0.0 40:0.0 41:0.0 42:0.0 43:0.0 44:0.0 45:0.0 46:0.0 47:0.0 48:0.0 49:0.0 50:0.0 51:0.0 52:0.0 53:0.0 54:0.0 55:0.0 56:0.0 57:0.0 58:0.029411764705882353 
1.0 0:0.16666666666666666 1:0.0 2:0.0 3:0.020833333333333332 4:0.0 5:0.0 6:1.0 7:0.0 8:0.0 9:0.0 10:0.0 11:0.0 12:0.0 13:0.0 14:0.0 15:0.0 16:0.0 17:0.0 18:0.0 19:0.0 20:0.0 21:0.0 22:0.0 23:0.0 24:0.0 25:0.0 26:0.0 27:0.0 28:0.0 29:0.0 30:0.0 31:0.14583333333333334 32:0.0 33:0.0 34:0.0 35:0.0 36:0.0 37:0.0 38:0.0 39:0.0 40:0.0 41:0.0 42:0.0 43:0.0 44:0.0 45:0.0 46:0.0 47:0.0 48:0.0 49:0.0 50:0.0 51:0.0 52:0.0 53:0.0 54:0.0 55:0.0 56:0.0 57:0.0 58:0.0 
1.0 0:0.06666666666666667 1:0.13333333333333333 2:0.0 3:0.0 4:0.0 5:0.0 6:0.0 7:0.0 8:0.0 9:0.0 10:0.2 11:0.0 12:0.0 13:0.0 14:0.0 15:0.0 16:0.0 17:0.0 18:0.0 19:0.0 20:0.0 21:0.0 22:0.0 23:0.0 24:0.0 25:0.0 26:0.0 27:0.0 28:0.0 29:0.0 30:0.0 31:0.06666666666666667 32:0.2 33:0.0 34:0.0 35:0.0 36:0.0 37:0.06666666666666667 38:1.0 39:0.0 40:0.0 41:0.1 42:0.0 43:0.0 44:0.0 45:0.0 46:0.0 47:0.0 48:0.0 49:0.0 50:0.0 51:0.0 52:0.0 53:0.0 54:0.0 55:0.06666666666666667 56:0.0 57:0.0 58:0.23333333333333334 
1.0 0:0.16 1:0.28 2:0.0 3:0.08 4:0.0 5:0.0 6:0.08 7:0.0 8:0.0 9:0.0 10:0.0 11:0.0 12:0.0 13:0.0 14:0.0 15:0.0 16:0.0 17:0.0 18:0.0 19:0.0 20:0.0 21:0.04 22:0.0 23:0.0 24:0.0 25:0.0 26:0.0 27:0.0 28:0.04 29:0.0 30:0.12 31:0.16 32:0.08 33:0.04 34:0.0 35:0.08 36:0.0 37:0.0 38:0.0 39:0.0 40:0.0 41:0.0 42:0.0 43:0.0 44:0.08 45:0.0 46:0.04 47:0.0 48:0.0 49:0.0 50:0.0 51:0.0 52:0.0 53:0.04 54:0.0 55:0.0 56:0.0 57:0.24 58:1.0 
1.0 0:0.2 1:0.32 2:0.0 3:0.16 4:0.0 5:0.0 6:0.0 7:0.0 8:0.0 9:0.0 10:0.08 11:0.0 12:0.0 13:0.0 14:0.0 15:0.0 16:0.0 17:0.0 18:0.0 19:0.0 20:0.0 21:0.0 22:0.0 23:0.0 24:0.0 25:0.0 26:0.0 27:0.0 28:0.12 29:0.0 30:0.0 31:0.08 32:0.04 33:0.0 34:0.0 35:0.08 36:0.0 37:0.0 38:0.0 39:0.0 40:0.0 41:0.0 42:0.0 43:0.04 44:0.04 45:0.0 46:0.04 47:0.0 48:0.0 49:0.0 50:0.08 51:0.0 52:0.04 53:0.0 54:0.0 55:0.0 56:0.0 57:0.24 58:1.0 
1.0 0:0.0 1:0.0 2:0.0 3:0.0 4:0.0 5:0.0 6:0.10810810810810811 7:0.0 8:0.0 9:0.0 10:0.08108108108108109 11:0.0 12:0.0 13:0.0 14:0.0 15:0.0 16:0.0 17:0.0 18:0.0 19:0.0 20:0.0 21:0.0 22:0.0 23:0.0 24:0.0 25:0.0 26:0.0 27:0.0 28:0.0 29:0.0 30:0.0 31:0.13513513513513514 32:0.2702702702702703 33:0.0 34:0.0 35:0.0 36:0.0 37:0.13513513513513514 38:1.0 39:0.0 40:0.0 41:0.0 42:0.0 43:0.0 44:0.0 45:0.0 46:0.0 47:0.0 48:0.0 49:0.0 50:0.0 51:0.0 52:0.0 53:0.0 54:0.0 55:0.0 56:0.0 57:0.0 58:0.0 
1.0 0:0.038461538461538464 1:0.07692307692307693 2:0.0 3:0.07692307692307693 4:0.0 5:0.0 6:0.038461538461538464 7:0.0 8:0.0 9:0.0 10:0.0 11:0.0 12:0.0 13:0.0 14:0.0 15:0.07692307692307693 16:0.0 17:0.0 18:0.0 19:0.0 20:0.0 21:0.0 22:0.0 23:0.0 24:0.0 25:0.0 26:0.0 27:0.0 28:0.07692307692307693 29:0.0 30:0.23076923076923078 31:1.0 32:0.4230769230769231 33:0.038461538461538464 34:0.0 35:0.0 36:0.0 37:0.038461538461538464 38:0.11538461538461539 39:0.0 40:0.0 41:0.0 42:0.0 43:0.0 44:0.0 45:0.0 46:0.0 47:0.0 48:0.0 49:0.038461538461538464 50:0.07692307692307693 51:0.0 52:0.0 53:0.0 54:0.0 55:0.0 56:0.0 57:0.0 58:0.11538461538461539 
1.0 0:0.06666666666666667 1:0.03333333333333333 2:0.0 3:0.06666666666666667 4:0.0 5:0.0 6:0.0 7:0.0 8:0.0 9:0.0 10:0.2 11:0.0 12:0.0 13:0.0 14:0.0 15:0.0 16:0.0 17:0.0 18:0.0 19:0.0 20:0.0 21:0.0 22:0.0 23:0.0 24:0.0 25:0.0 26:0.0 27:0.0 28:0.0 29:0.0 30:0.0 31:0.1 32:0.06666666666666667 33:0.03333333333333333 34:0.0 35:0.0 36:0.0 37:0.0 38:1.0 39:0.06666666666666667 40:0.0 41:0.06666666666666667 42:0.0 43:0.06666666666666667 44:0.0 45:0.03333333333333333 46:0.0 47:0.0 48:0.0 49:0.0 50:0.0 51:0.0 52:0.03333333333333333 53:0.0 54:0.0 55:0.0 56:0.0 57:0.03333333333333333 58:0.26666666666666666 
0.7235027160448216 0:0.058823529411764705 1:0.058823529411764705 2:0.0 3:0.23529411764705882 4:0.0 5:0.0 6:0.058823529411764705 7:0.0 8:0.0 9:0.0 10:0.058823529411764705 11:0.0 12:0.0 13:0.0 14:0.0 15:0.0 16:0.0 17:0.0 18:0.0 19:0.0 20:0.0 21:0.0 22:0.0 23:0.0 24:0.0 25:0.0 26:0.0 27:0.0 28:0.0 29:0.0 30:0.29411764705882354 31:1.0 32:0.11764705882352941 33:0.29411764705882354 34:0.058823529411764705 35:0.058823529411764705 36:0.0 37:0.11764705882352941 38:0.35294117647058826 39:0.11764705882352941 40:0.0 41:0.058823529411764705 42:0.0 43:0.0 44:0.11764705882352941 45:0.0 46:0.058823529411764705 47:0.0 48:0.0 49:0.058823529411764705 50:0.058823529411764705 51:0.0 52:0.0 53:0.0 54:0.0 55:0.058823529411764705 56:0.0 57:0.11764705882352941 58:0.35294117647058826 
1.0 0:0.041666666666666664 1:0.16666666666666666 2:0.0 3:0.041666666666666664 4:0.0 5:0.0 6:0.041666666666666664 7:0.0 8:0.0 9:0.0 10:0.20833333333333334 11:0.0 12:0.0 13:0.0 14:0.0 15:0.0 16:0.0 17:0.0 18:0.0 19:0.0 20:0.0 21:0.0 22:0.0 23:0.0 24:0.0 25:0.0 26:0.0 27:0.0 28:0.0 29:0.0 30:0.0 31:0.041666666666666664 32:0.2916666666666667 33:0.0 34:0.0 35:0.0 36:0.0 37:0.0 38:1.0 39:0.375 40:0.041666666666666664 41:0.125 42:0.0 43:0.0 44:0.16666666666666666 45:0.0 46:0.0 47:0.0 48:0.041666666666666664 49:0.0 50:0.0 51:0.0 52:0.0 53:0.0 54:0.0 55:0.0 56:0.0 57:0.0 58:0.08333333333333333 
1.0 0:0.0 1:0.0 2:0.0 3:0.0 4:0.0 5:0.0 6:0.034482758620689655 7:0.0 8:0.0 9:0.0 10:0.0 11:0.0 12:0.0 13:0.0 14:0.0 15:0.0 16:0.0 17:0.0 18:0.0 19:0.0 20:0.0 21:0.034482758620689655 22:0.0 23:0.0 24:0.0 25:0.0 26:0.0 27:0.0 28:0.0 29:0.0 30:0.0 31:0.27586206896551724 32:1.0 33:0.0 34:0.06896551724137931 35:0.0 36:0.0 37:0.06896551724137931 38:0.3448275862068966 39:0.13793103448275862 40:0.0 41:0.0 42:0.0 43:0.0 44:0.0 45:0.0 46:0.0 47:0.0 48:0.0 49:0.034482758620689655 50:0.06896551724137931 51:0.0 52:0.0 53:0.0 54:0.0 55:0.0 56:0.0 57:0.0 58:0.13793103448275862 
1.0 0:0.0 1:0.0 2:0.0 3:0.0 4:0.0 5:0.0 6:0.02564102564102564 7:0.0 8:0.0 9:0.0 10:0.10256410256410256 11:0.0 12:0.0 13:0.0 14:0.0 15:0.0 16:0.0 17:0.0 18:0.0 19:0.0 20:0.0 21:0.0 22:0.0 23:0.0 24:0.0 25:0.0 26:0.0 27:0.0 28:0.0 29:0.0 30:0.02564102564102564 31:0.0 32:0.15384615384615385 33:0.0 34:0.0 35:0.0 36:0.0 37:0.05128205128205128 38:1.0 39:0.0 40:0.0 41:0.1282051282051282 42:0.0 43:0.05128205128205128 44:0.02564102564102564 45:0.0 46:0.0 47:0.0 48:0.0 49:0.0 50:0.0 51:0.0 52:0.0 53:0.02564102564102564 54:0.0 55:0.0 56:0.0 57:0.0 58:0.05128205128205128 
1.0 0:0.07692307692307693 1:0.1282051282051282 2:0.0 3:0.02564102564102564 4:0.0 5:0.0 6:0.02564102564102564 7:0.0 8:0.0 9:0.0 10:0.1282051282051282 11:0.0 12:0.0 13:0.0 14:0.0 15:0.0 16:0.0 17:0.0 18:0.0 19:0.0 20:0.0 21:0.0 22:0.0 23:0.0 24:0.0 25:0.0 26:0.0 27:0.0 28:0.0 29:0.0 30:0.0 31:0.02564102564102564 32:0.1282051282051282 33:0.0 34:0.0 35:0.0 36:0.0 37:0.0 38:1.0 39:0.0 40:0.0 41:0.0 42:0.0 43:0.05128205128205128 44:0.0 45:0.0 46:0.0 47:0.0 48:0.0 49:0.0 50:0.0 51:0.0 52:0.0 53:0.0 54:0.0 55:0.0 56:0.0 57:0.02564102564102564 58:0.02564102564102564 
1.0 0:0.0 1:0.027777777777777776 2:0.0 3:0.027777777777777776 4:0.0 5:0.0 6:0.027777777777777776 7:0.0 8:0.0 9:0.0 10:0.027777777777777776 11:0.0 12:0.0 13:0.0 14:0.0 15:0.0 16:0.0 17:0.0 18:0.0 19:0.0 20:0.0 21:0.0 22:0.0 23:0.0 24:0.0 25:0.0 26:0.0 27:0.0 28:0.0 29:0.0 30:0.027777777777777776 31:0.1111111111111111 32:0.1388888888888889 33:0.0 34:0.0 35:0.0 36:0.0 37:0.027777777777777776 38:1.0 39:0.0 40:0.027777777777777776 41:0.027777777777777776 42:0.0 43:0.027777777777777776 44:0.05555555555555555 45:0.0 46:0.0 47:0.0 48:0.027777777777777776 49:0.0 50:0.0 51:0.0 52:0.027777777777777776 53:0.0 54:0.0 55:0.0 56:0.0 57:0.027777777777777776 58:0.1388888888888889 
1.0 0:0.0 1:0.0 2:0.0 3:0.0 4:0.0 5:0.0 6:0.1 7:0.0 8:0.0 9:0.0 10:0.13333333333333333 11:0.0 12:0.0 13:0.0 14:0.0 15:0.0 16:0.0 17:0.0 18:0.0 19:0.0 20:0.0 21:0.0 22:0.0 23:0.0 24:0.0 25:0.0 26:0.0 27:0.0 28:0.0 29:0.0 30:0.0 31:0.06666666666666667 32:0.36666666666666664 33:0.03333333333333333 34:0.0 35:0.0 36:0.0 37:0.1 38:1.0 39:0.0 40:0.03333333333333333 41:0.03333333333333333 42:0.0 43:0.0 44:0.03333333333333333 45:0.0 46:0.0 47:0.0 48:0.0 49:0.0 50:0.0 51:0.0 52:0.0 53:0.0 54:0.0 55:0.03333333333333333 56:0.0 57:0.06666666666666667 58:0.13333333333333333 
1.0 0:0.02631578947368421 1:0.10526315789473684 2:0.0 3:0.02631578947368421 4:0.0 5:0.0 6:0.0 7:0.0 8:0.0 9:0.0 10:0.05263157894736842 11:0.0 12:0.0 13:0.0 14:0.0 15:0.0 16:0.0 17:0.0 18:0.0 19:0.0 20:0.0 21:0.0 22:0.0 23:0.0 24:0.0 25:0.0 26:0.0 27:0.0 28:0.0 29:0.0 30:0.0 31:0.0 32:0.10526315789473684 33:0.0 34:0.0 35:0.0 36:0.0 37:0.05263157894736842 38:1.0 39:0.0 40:0.0 41:0.07894736842105263 42:0.0 43:0.0 44:0.02631578947368421 45:0.0 46:0.0 47:0.0 48:0.0 49:0.0 50:0.0 51:0.0 52:0.0 53:0.0 54:0.0 55:0.02631578947368421 56:0.0 57:0.02631578947368421 58:0.15789473684210525 
1.0 0:0.1724137931034483 1:0.10344827586206896 2:0.0 3:0.0 4:0.0 5:0.0 6:0.13793103448275862 7:0.0 8:0.0 9:0.0 10:0.1724137931034483 11:0.0 12:0.0 13:0.0 14:0.0 15:0.0 16:0.0 17:0.0 18:0.0 19:0.0 20:0.0 21:0.0 22:0.0 23:0.0 24:0.0 25:0.0 26:0.0 27:0.0 28:0.0 29:0.0 30:0.0 31:0.0 32:0.034482758620689655 33:0.0 34:0.0 35:0.0 36:0.0 37:0.06896551724137931 38:1.0 39:0.0 40:0.034482758620689655 41:0.20689655172413793 42:0.0 43:0.034482758620689655 44:0.034482758620689655 45:0.0 46:0.0 47:0.0 48:0.0 49:0.0 50:0.0 51:0.0 52:0.0 53:0.0 54:0.0 55:0.0 56:0.0 57:0.034482758620689655 58:0.1724137931034483 
1.0 0:0.0 1:0.0 2:0.0 3:0.05405405405405406 4:0.0 5:0.0 6:0.0 7:0.0 8:0.0 9:0.0 10:0.0 11:0.0 12:0.0 13:0.0 14:0.0 15:0.0 16:0.0 17:0.0 18:0.0 19:0.0 20:0.0 21:0.02702702702702703 22:0.0 23:0.0 24:0.0 25:0.0 26:0.0 27:0.0 28:0.0 29:0.0 30:0.0 31:0.21621621621621623 32:1.0 33:0.02702702702702703 34:0.02702702702702703 35:0.02702702702702703 36:0.0 37:0.0 38:0.05405405405405406 39:0.02702702702702703 40:0.0 41:0.0 42:0.0 43:0.02702702702702703 44:0.02702702702702703 45:0.0 46:0.0 47:0.0 48:0.0 49:0.05405405405405406 50:0.05405405405405406 51:0.0 52:0.0 53:0.0 54:0.0 55:0.0 56:0.0 57:0.0 58:0.10810810810810811 
1.0 0:0.15151515151515152 1:0.09090909090909091 2:0.0 3:0.0 4:0.0 5:0.0 6:0.0 7:0.0 8:0.0 9:0.0 10:0.09090909090909091 11:0.0 12:0.0 13:0.0 14:0.0 15:0.0 16:0.0 17:0.0 18:0.0 19:0.0 20:0.0 21:0.0 22:0.0 23:0.0 24:0.0 25:0.0 26:0.0 27:0.0 28:0.0 29:0.0 30:0.0 31:0.030303030303030304 32:0.21212121212121213 33:0.0 34:0.030303030303030304 35:0.0 36:0.0 37:0.0 38:1.0 39:0.06060606060606061 40:0.0 41:0.09090909090909091 42:0.0 43:0.0 44:0.030303030303030304 45:0.0 46:0.0 47:0.0 48:0.030303030303030304 49:0.030303030303030304 50:0.0 51:0.0 52:0.0 53:0.0 54:0.0 55:0.030303030303030304 56:0.0 57:0.0 58:0.06060606060606061 
1.0 0:0.03333333333333333 1:0.23333333333333334 2:0.0 3:0.0 4:0.0 5:0.0 6:0.0 7:0.0 8:0.0 9:0.0 10:0.1 11:0.0 12:0.0 13:0.0 14:0.0 15:0.0 16:0.0 17:0.0 18:0.0 19:0.0 20:0.0 21:0.0 22:0.0 23:0.0 24:0.0 25:0.0 26:0.0 27:0.0 28:0.0 29:0.0 30:0.0 31:0.06666666666666667 32:0.2 33:0.0 34:0.0 35:0.03333333333333333 36:0.0 37:0.1 38:1.0 39:0.0 40:0.0 41:0.13333333333333333 42:0.0 43:0.1 44:0.03333333333333333 45:0.0 46:0.0 47:0.0 48:0.0 49:0.0 50:0.0 51:0.0 52:0.0 53:0.0 54:0.0 55:0.03333333333333333 56:0.0 57:0.0 58:0.06666666666666667 
1.0 0:0.034482758620689655 1:0.10344827586206896 2:0.0 3:0.1724137931034483 4:0.0 5:0.0 6:0.0 7:0.0 8:0.0 9:0.0 10:0.034482758620689655 11:0.0 12:0.0 13:0.0 14:0.0 15:0.0 16:0.0 17:0.0 18:0.0 19:0.0 20:0.0 21:0.034482758620689655 22:0.0 23:0.0 24:0.0 25:0.0 26:0.0 27:0.0 28:0.0 29:0.0 30:0.10344827586206896 31:0.1724137931034483 32:1.0 33:0.10344827586206896 34:0.0 35:0.0 36:0.0 37:0.06896551724137931 38:0.1724137931034483 39:0.0 40:0.0 41:0.034482758620689655 42:0.0 43:0.034482758620689655 44:0.0 45:0.0 46:0.0 47:0.0 48:0.0 49:0.0 50:0.0 51:0.0 52:0.0 53:0.0 54:0.0 55:0.0 56:0.0 57:0.0 58:0.13793103448275862 
1.0 0:0.16666666666666666 1:0.25 2:0.0 3:0.08333333333333333 4:0.0 5:0.0 6:1.0 7:0.0 8:0.0 9:0.0 10:0.041666666666666664 11:0.0 12:0.0 13:0.0 14:0.0 15:0.0 16:0.0 17:0.0 18:0.0 19:0.0 20:0.0 21:0.0 22:0.0 23:0.0 24:0.0 25:0.0 26:0.0 27:0.0 28:0.041666666666666664 29:0.0 30:0.041666666666666664 31:0.375 32:0.08333333333333333 33:0.125 34:0.041666666666666664 35:0.0 36:0.0 37:0.08333333333333333 38:0.08333333333333333 39:0.041666666666666664 40:0.0 41:0.08333333333333333 42:0.0 43:0.0 44:0.041666666666666664 45:0.0 46:0.0 47:0.0 48:0.0 49:0.0 50:0.041666666666666664 51:0.0 52:0.0 53:0.0 54:0.0 55:0.0 56:0.0 57:0.0 58:0.041666666666666664 
1.0 0:0.25925925925925924 1:0.2222222222222222 2:0.0 3:0.1111111111111111 4:0.0 5:0.0 6:0.0 7:0.0 8:0.0 9:0.0 10:0.0 11:0.0 12:0.0 13:0.0 14:0.0 15:0.0 16:0.0 17:0.0 18:0.0 19:0.0 20:0.0 21:0.0 22:0.0 23:0.0 24:0.0 25:0.0 26:0.0 27:0.0 28:0.037037037037037035 29:0.0 30:0.14814814814814814 31:0.07407407407407407 32:0.07407407407407407 33:0.0 34:0.037037037037037035 35:0.0 36:0.0 37:0.037037037037037035 38:0.0 39:0.1111111111111111 40:0.0 41:0.07407407407407407 42:0.0 43:0.0 44:0.037037037037037035 45:0.0 46:0.0 47:0.0 48:0.037037037037037035 49:0.037037037037037035 50:0.037037037037037035 51:0.0 52:0.0 53:0.037037037037037035 54:0.0 55:0.0 56:0.0 57:0.0 58:1.0 
1.0 0:0.17857142857142858 1:0.32142857142857145 2:0.0 3:0.03571428571428571 4:0.0 5:0.0 6:0.0 7:0.0 8:0.0 9:0.0 10:0.0 11:0.0 12:0.0 13:0.0 14:0.0 15:0.0 16:0.0 17:0.0 18:0.0 19:0.0 20:0.0 21:0.0 22:0.0 23:0.0 24:0.0 25:0.0 26:0.0 27:0.0 28:0.07142857142857142 29:0.0 30:0.14285714285714285 31:0.10714285714285714 32:0.03571428571428571 33:0.0 34:0.0 35:0.03571428571428571 36:0.0 37:0.0 38:0.0 39:0.0 40:0.0 41:0.0 42:0.0 43:0.0 44:0.0 45:0.0 46:0.10714285714285714 47:0.0 48:0.0 49:0.03571428571428571 50:0.03571428571428571 51:0.0 52:0.0 53:0.0 54:0.0 55:0.0 56:0.0 57:0.17857142857142858 58:1.0 
1.0 0:0.2 1:0.28 2:0.0 3:0.08 4:0.0 5:0.0 6:0.08 7:0.0 8:0.0 9:0.0 10:0.08 11:0.0 12:0.0 13:0.0 14:0.0 15:0.0 16:0.0 17:0.0 18:0.0 19:0.0 20:0.0 21:0.0 22:0.0 23:0.0 24:0.0 25:0.0 26:0.0 27:0.0 28:0.04 29:0.0 30:0.08 31:0.0 32:0.04 33:0.0 34:0.04 35:0.04 36:0.0 37:0.0 38:0.04 39:0.04 40:0.0 41:0.04 42:0.0 43:0.0 44:0.0 45:0.0 46:0.0 47:0.0 48:0.04 49:0.0 50:0.0 51:0.0 52:0.04 53:0.0 54:0.0 55:0.12 56:0.0 57:0.28 58:1.0 
1.0 0:0.25806451612903225 1:0.0967741935483871 2:0.0 3:0.0 4:0.0 5:0.0 6:1.0 7:0.0 8:0.0 9:0.0 10:0.0 11:0.0 12:0.0 13:0.0 14:0.0 15:0.03225806451612903 16:0.0 17:0.0 18:0.0 19:0.0 20:0.0 21:0.0 22:0.0 23:0.0 24:0.0 25:0.0 26:0.0 27:0.0 28:0.0 29:0.0 30:0.06451612903225806 31:0.03225806451612903 32:0.0 33:0.03225806451612903 34:0.0 35:0.0 36:0.0 37:0.0 38:0.0967741935483871 39:0.0967741935483871 40:0.0 41:0.0 42:0.0 43:0.03225806451612903 44:0.0 45:0.0 46:0.0 47:0.0 48:0.0 49:0.0 50:0.03225806451612903 51:0.0 52:0.0 53:0.0 54:0.0 55:0.0 56:0.0 57:0.03225806451612903 58:0.25806451612903225 
1.0 0:0.03571428571428571 1:0.03571428571428571 2:0.0 3:0.03571428571428571 4:0.0 5:0.0 6:0.03571428571428571 7:0.0 8:0.0 9:0.0 10:0.03571428571428571 11:0.0 12:0.0 13:0.0 14:0.0 15:0.0 16:0.0 17:0.0 18:0.0 19:0.0 20:0.0 21:0.0 22:0.0 23:0.0 24:0.0 25:0.0 26:0.0 27:0.0 28:0.0 29:0.0 30:0.03571428571428571 31:0.07142857142857142 32:0.17857142857142858 33:0.0 34:0.0 35:0.0 36:0.0 37:0.07142857142857142 38:1.0 39:0.21428571428571427 40:0.03571428571428571 41:0.03571428571428571 42:0.0 43:0.0 44:0.10714285714285714 45:0.0 46:0.0 47:0.0 48:0.03571428571428571 49:0.0 50:0.0 51:0.0 52:0.0 53:0.0 54:0.0 55:0.0 56:0.0 57:0.0 58:0.32142857142857145 
1.0 0:0.14814814814814814 1:0.14814814814814814 2:0.0 3:0.1111111111111111 4:0.0 5:0.0 6:0.037037037037037035 7:0.0 8:0.0 9:0.0 10:0.0 11:0.0 12:0.0 13:0.0 14:0.0 15:0.037037037037037035 16:0.0 17:0.0 18:0.0 19:0.0 20:0.0 21:0.0 22:0.0 23:0.0 24:0.0 25:0.0 26:0.0 27:0.0 28:0.0 29:0.0 30:0.07407407407407407 31:0.2222222222222222 32:0.14814814814814814 33:0.0 34:0.0 35:0.0 36:0.0 37:0.0 38:0.037037037037037035 39:0.037037037037037035 40:0.0 41:0.07407407407407407 42:0.0 43:0.0 44:0.037037037037037035 45:0.0 46:0.037037037037037035 47:0.0 48:0.0 49:0.037037037037037035 50:0.0 51:0.0 52:0.0 53:0.0 54:0.0 55:0.037037037037037035 56:0.0 57:0.14814814814814814 58:1.0 
1.0 0:0.21212121212121213 1:0.09090909090909091 2:0.0 3:0.06060606060606061 4:0.0 5:0.0 6:1.0 7:0.0 8:0.0 9:0.0 10:0.0 11:0.0 12:0.0 13:0.0 14:0.0 15:0.0 16:0.0 17:0.0 18:0.0 19:0.0 20:0.0 21:0.0 22:0.0 23:0.0 24:0.0 25:0.0 26:0.0 27:0.0 28:0.0 29:0.0 30:0.030303030303030304 31:0.15151515151515152 32:0.15151515151515152 33:0.06060606060606061 34:0.0 35:0.0 36:0.0 37:0.0 38:0.12121212121212122 39:0.030303030303030304 40:0.0 41:0.0 42:0.0 43:0.030303030303030304 44:0.0 45:0.0 46:0.0 47:0.0 48:0.0 49:0.0 50:0.0 51:0.0 52:0.0 53:0.0 54:0.0 55:0.0 56:0.0 57:0.0 58:0.0 
1.0 0:0.1724137931034483 1:0.10344827586206896 2:0.0 3:0.1724137931034483 4:0.0 5:0.0 6:1.0 7:0.0 8:0.0 9:0.0 10:0.10344827586206896 11:0.0 12:0.0 13:0.0 14:0.0 15:0.0 16:0.0 17:0.0 18:0.0 19:0.0 20:0.0 21:0.0 22:0.0 23:0.0 24:0.0 25:0.0 26:0.0 27:0.0 28:0.0 29:0.0 30:0.034482758620689655 31:0.10344827586206896 32:0.13793103448275862 33:0.06896551724137931 34:0.0 35:0.0 36:0.0 37:0.06896551724137931 38:0.034482758620689655 39:0.1724137931034483 40:0.0 41:0.0 42:0.0 43:0.034482758620689655 44:0.0 45:0.0 46:0.0 47:0.0 48:0.0 49:0.0 50:0.0 51:0.0 52:0.0 53:0.0 54:0.0 55:0.0 56:0.0 57:0.0 58:0.0 
1.0 0:0.05555555555555555 1:0.16666666666666666 2:0.0 3:0.2222222222222222 4:0.0 5:0.0 6:0.0 7:0.0 8:0.0 9:0.0 10:0.0 11:0.0 12:0.0 13:0.0 14:0.0 15:0.05555555555555555 16:0.0 17:0.0 18:0.0 19:0.0 20:0.0 21:0.05555555555555555 22:0.0 23:0.0 24:0.0 25:0.0 26:0.0 27:0.0 28:0.05555555555555555 29:0.0 30:0.2777777777777778 31:1.0 32:0.3888888888888889 33:0.1111111111111111 34:0.05555555555555555 35:0.0 36:0.0 37:0.1111111111111111 38:0.16666666666666666 39:0.0 40:0.0 41:0.0 42:0.0 43:0.0 44:0.0 45:0.05555555555555555 46:0.0 47:0.0 48:0.2222222222222222 49:0.05555555555555555 50:0.0 51:0.0 52:0.0 53:0.0 54:0.0 55:0.1111111111111111 56:0.0 57:0.05555555555555555 58:0.3333333333333333 
1.0 0:0.16129032258064516 1:0.12903225806451613 2:0.0 3:0.12903225806451613 4:0.0 5:0.0 6:1.0 7:0.0 8:0.0 9:0.0 10:0.22580645161290322 11:0.0 12:0.0 13:0.0 14:0.0 15:0.0 16:0.0 17:0.0 18:0.0 19:0.0 20:0.0 21:0.0 22:0.0 23:0.0 24:0.0 25:0.0 26:0.0 27:0.0 28:0.0 29:0.0 30:0.0 31:0.0967741935483871 32:0.12903225806451613 33:0.0 34:0.0 35:0.03225806451612903 36:0.0 37:0.03225806451612903 38:0.06451612903225806 39:0.06451612903225806 40:0.0 41:0.0 42:0.0 43:0.0 44:0.0 45:0.0 46:0.0 47:0.0 48:0.0 49:0.0 50:0.0 51:0.0 52:0.0 53:0.0 54:0.0 55:0.0 56:0.0 57:0.0 58:0.0 
1.0 0:0.2 1:0.24 2:0.0 3:0.2 4:0.0 5:0.0 6:0.0 7:0.0 8:0.0 9:0.0 10:0.0 11:0.0 12:0.0 13:0.0 14:0.0 15:0.0 16:0.0 17:0.0 18:0.0 19:0.0 20:0.0 21:0.0 22:0.0 23:0.0 24:0.0 25:0.0 26:0.0 27:0.0 28:0.0 29:0.0 30:0.12 31:0.08 32:0.04 33:0.0 34:0.0 35:0.04 36:0.0 37:0.0 38:0.04 39:0.04 40:0.0 41:0.0 42:0.0 43:0.0 44:0.0 45:0.08 46:0.12 47:0.0 48:0.0 49:0.04 50:0.04 51:0.0 52:0.04 53:0.0 54:0.0 55:0.04 56:0.0 57:0.2 58:1.0 
1.0 0:0.06451612903225806 1:0.16129032258064516 2:0.0 3:0.03225806451612903 4:0.0 5:0.0 6:0.1935483870967742 7:0.0 8:0.0 9:0.0 10:0.06451612903225806 11:0.0 12:0.0 13:0.0 14:0.0 15:0.03225806451612903 16:0.0 17:0.0 18:0.0 19:0.0 20:0.0 21:0.0 22:0.0 23:0.0 24:0.0 25:0.0 26:0.0 27:0.0 28:0.0 29:0.0 30:0.03225806451612903 31:0.0967741935483871 32:1.0 33:0.0 34:0.0 35:0.0 36:0.0 37:0.0 38:0.1935483870967742 39:0.12903225806451613 40:0.0 41:0.03225806451612903 42:0.0 43:0.03225806451612903 44:0.0 45:0.0 46:0.0 47:0.0 48:0.0 49:0.0 50:0.0 51:0.0 52:0.0 53:0.0 54:0.0 55:0.0 56:0.0 57:0.0 58:0.0 
1.0 0:0.2222222222222222 1:0.0 2:0.0 3:0.0 4:0.0 5:0.0 6:1.0 7:0.0 8:0.0 9:0.0 10:0.022222222222222223 11:0.0 12:0.0 13:0.0 14:0.0 15:0.0 16:0.0 17:0.0 18:0.0 19:0.0 20:0.0 21:0.0 22:0.0 23:0.0 24:0.0 25:0.0 26:0.0 27:0.0 28:0.0 29:0.0 30:0.0 31:0.0 32:0.0 33:0.044444444444444446 34:0.0 35:0.0 36:0.0 37:0.0 38:0.0 39:0.022222222222222223 40:0.0 41:0.0 42:0.0 43:0.0 44:0.0 45:0.0 46:0.0 47:0.0 48:0.0 49:0.0 50:0.0 51:0.0 52:0.0 53:0.022222222222222223 54:0.0 55:0.0 56:0.0 57:0.0 58:0.08888888888888889 
1.0 0:0.045454545454545456 1:0.13636363636363635 2:0.0 3:0.13636363636363635 4:0.0 5:0.0 6:0.0 7:0.0 8:0.0 9:0.0 10:0.22727272727272727 11:0.0 12:0.0 13:0.0 14:0.0 15:0.0 16:0.0 17:0.0 18:0.0 19:0.0 20:0.0 21:0.0 22:0.0 23:0.0 24:0.0 25:0.0 26:0.0 27:0.0 28:0.0 29:0.0 30:0.045454545454545456 31:0.0 32:0.2727272727272727 33:0.045454545454545456 34:0.045454545454545456 35:0.0 36:0.0 37:0.0 38:1.0 39:0.45454545454545453 40:0.0 41:0.0 42:0.0 43:0.09090909090909091 44:0.09090909090909091 45:0.045454545454545456 46:0.0 47:0.0 48:0.13636363636363635 49:0.0 50:0.0 51:0.0 52:0.045454545454545456 53:0.045454545454545456 54:0.0 55:0.0 56:0.0 57:0.0 58:0.045454545454545456 
1.0 0:0.07407407407407407 1:0.18518518518518517 2:0.0 3:0.037037037037037035 4:0.0 5:0.0 6:0.0 7:0.0 8:0.0 9:0.0 10:0.18518518518518517 11:0.0 12:0.0 13:0.0 14:0.0 15:0.0 16:0.0 17:0.0 18:0.0 19:0.0 20:0.0 21:0.0 22:0.0 23:0.0 24:0.0 25:0.0 26:0.0 27:0.0 28:0.0 29:0.0 30:0.0 31:0.037037037037037035 32:0.18518518518518517 33:0.037037037037037035 34:0.0 35:0.0 36:0.0 37:0.0 38:1.0 39:0.0 40:0.0 41:0.14814814814814814 42:0.0 43:0.0 44:0.07407407407407407 45:0.0 46:0.0 47:0.0 48:0.07407407407407407 49:0.037037037037037035 50:0.037037037037037035 51:0.0 52:0.037037037037037035 53:0.0 54:0.0 55:0.0 56:0.0 57:0.037037037037037035 58:0.18518518518518517 
1.0 0:0.058823529411764705 1:0.0 2:0.0 3:0.029411764705882353 4:0.0 5:0.0 6:0.2647058823529412 7:0.0 8:0.0 9:0.0 10:0.08823529411764706 11:0.0 12:0.0 13:0.0 14:0.0 15:0.0 16:0.0 17:0.0 18:0.0 19:0.0 20:0.0 21:0.0 22:0.0 23:0.0 24:0.0 25:0.0 26:0.0 27:0.0 28:0.0 29:0.0 30:0.0 31:0.058823529411764705 32:1.0 33:0.029411764705882353 34:0.0 35:0.0 36:0.0 37:0.0 38:0.14705882352941177 39:0.0 40:0.0 41:0.0 42:0.0 43:0.029411764705882353 44:0.0 45:0.029411764705882353 46:0.0 47:0.0 48:0.0 49:0.0 50:0.0 51:0.0 52:0.0 53:0.0 54:0.0 55:0.0 56:0.0 57:0.029411764705882353 58:0.11764705882352941 
1.0 0:0.15151515151515152 1:0.0 2:0.0 3:0.0 4:0.0 5:0.0 6:0.0 7:0.0 8:0.0 9:0.0 10:0.0 11:0.0 12:0.0 13:0.0 14:0.0 15:0.0 16:0.0 17:0.0 18:0.0 19:0.0 20:0.0 21:0.0 22:0.0 23:0.0 24:0.0 25:0.0 26:0.0 27:0.0 28:0.0 29:0.0 30:0.0 31:0.21212121212121213 32:1.0 33:0.0 34:0.0 35:0.0 36:0.0 37:0.0 38:0.15151515151515152 39:0.0 40:0.0 41:0.0 42:0.0 43:0.09090909090909091 44:0.0 45:0.0 46:0.0 47:0.0 48:0.0 49:0.0 50:0.09090909090909091 51:0.0 52:0.0 53:0.0 54:0.0 55:0.0 56:0.0 57:0.030303030303030304 58:0.21212121212121213 
1.0 0:0.2857142857142857 1:0.32142857142857145 2:0.0 3:0.07142857142857142 4:0.0 5:0.0 6:0.03571428571428571 7:0.0 8:0.0 9:0.0 10:0.0 11:0.0 12:0.0 13:0.0 14:0.0 15:0.0 16:0.0 17:0.0 18:0.0 19:0.0 20:0.0 21:0.0 22:0.0 23:0.0 24:0.0 25:0.0 26:0.0 27:0.0 28:0.0 29:0.0 30:0.0 31:0.03571428571428571 32:0.0 33:0.0 34:0.07142857142857142 35:0.07142857142857142 36:0.0 37:0.0 38:0.0 39:0.07142857142857142 40:0.07142857142857142 41:0.0 42:0.0 43:0.0 44:0.0 45:0.0 46:0.0 47:0.0 48:0.0 49:0.0 50:0.0 51:0.0 52:0.0 53:0.03571428571428571 54:0.0 55:0.07142857142857142 56:0.0 57:0.14285714285714285 58:1.0 
1.0 0:0.18181818181818182 1:0.06060606060606061 2:0.0 3:0.030303030303030304 4:0.0 5:0.0 6:0.030303030303030304 7:0.0 8:0.0 9:0.0 10:0.0 11:0.0 12:0.0 13:0.0 14:0.0 15:0.0 16:0.0 17:0.0 18:0.0 19:0.0 20:0.0 21:0.0 22:0.0 23:0.0 24:0.0 25:0.0 26:0.0 27:0.0 28:0.030303030303030304 29:0.0 30:0.030303030303030304 31:0.15151515151515152 32:0.06060606060606061 33:0.0 34:0.0 35:0.06060606060606061 36:0.0 37:0.0 38:0.12121212121212122 39:0.0 40:0.030303030303030304 41:0.0 42:0.0 43:0.0 44:0.0 45:0.0 46:0.030303030303030304 47:0.0 48:0.0 49:0.0 50:0.0 51:0.0 52:0.030303030303030304 53:0.0 54:0.0 55:0.0 56:0.0 57:0.09090909090909091 58:1.0 
1.0 0:0.2222222222222222 1:0.25925925925925924 2:0.0 3:0.0 4:0.0 5:0.0 6:0.0 7:0.0 8:0.0 9:0.0 10:0.0 11:0.0 12:0.0 13:0.0 14:0.0 15:0.0 16:0.0 17:0.0 18:0.0 19:0.0 20:0.0 21:0.0 22:0.0 23:0.0 24:0.0 25:0.0 26:0.0 27:0.0 28:0.1111111111111111 29:0.0 30:0.07407407407407407 31:0.1111111111111111 32:0.07407407407407407 33:0.0 34:0.037037037037037035 35:0.037037037037037035 36:0.0 37:0.0 38:0.037037037037037035 39:0.07407407407407407 40:0.0 41:0.07407407407407407 42:0.0 43:0.037037037037037035 44:0.0 45:0.0 46:0.037037037037037035 47:0.0 48:0.0 49:0.0 50:0.037037037037037035 51:0.0 52:0.0 53:0.037037037037037035 54:0.0 55:0.0 56:0.0 57:0.1111111111111111 58:1.0 
1.0 0:0.0 1:0.07142857142857142 2:0.0 3:0.07142857142857142 4:0.0 5:0.0 6:0.14285714285714285 7:0.0 8:0.0 9:0.0 10:0.03571428571428571 11:0.0 12:0.0 13:0.0 14:0.0 15:0.0 16:0.0 17:0.0 18:0.0 19:0.0 20:0.0 21:0.0 22:0.0 23:0.0 24:0.0 25:0.0 26:0.0 27:0.0 28:0.0 29:0.0 30:0.03571428571428571 31:1.0 32:0.25 33:0.07142857142857142 34:0.0 35:0.0 36:0.0 37:0.14285714285714285 38:0.2857142857142857 39:0.03571428571428571 40:0.0 41:0.0 42:0.0 43:0.0 44:0.0 45:0.03571428571428571 46:0.0 47:0.0 48:0.0 49:0.0 50:0.0 51:0.0 52:0.0 53:0.0 54:0.0 55:0.0 56:0.0 57:0.0 58:0.10714285714285714 
1.0 0:0.10714285714285714 1:0.017857142857142856 2:0.0 3:0.017857142857142856 4:0.0 5:0.0 6:0.0 7:0.0 8:0.0 9:0.0 10:0.0 11:0.0 12:0.0 13:0.0 14:0.0 15:0.0 16:0.0 17:0.0 18:0.0 19:0.0 20:0.0 21:0.0 22:0.0 23:0.0 24:0.0 25:0.0 26:0.0 27:0.0 28:0.0 29:0.0 30:0.0 31:1.0 32:0.0 33:0.0 34:0.0 35:0.0 36:0.0 37:0.0 38:0.0 39:0.0 40:0.0 41:0.0 42:0.0 43:0.0 44:0.0 45:0.0 46:0.0 47:0.0 48:0.0 49:0.0 50:0.0 51:0.0 52:0.0 53:0.0 54:0.0 55:0.0 56:0.0 57:0.0 58:0.0 
1.0 0:0.16666666666666666 1:0.0 2:0.0 3:0.0 4:0.0 5:0.0 6:1.0 7:0.0 8:0.0 9:0.0 10:0.0 11:0.0 12:0.0 13:0.0 14:0.0 15:0.0 16:0.0 17:0.0 18:0.0 19:0.0 20:0.0 21:0.0 22:0.0 23:0.0 24:0.0 25:0.0 26:0.0 27:0.0 28:0.0 29:0.0 30:0.0 31:0.0 32:0.0 33:0.0 34:0.0 35:0.0 36:0.0 37:0.0 38:0.0 39:0.0 40:0.0 41:0.0 42:0.0 43:0.0 44:0.0 45:0.0 46:0.0 47:0.0 48:0.0 49:0.0 50:0.0 51:0.0 52:0.0 53:0.0 54:0.0 55:0.0 56:0.0 57:0.0 58:0.16666666666666666 
1.0 0:0.07142857142857142 1:0.14285714285714285 2:0.0 3:0.07142857142857142 4:0.0 5:0.0 6:0.03571428571428571 7:0.0 8:0.0 9:0.0 10:0.03571428571428571 11:0.0 12:0.0 13:0.0 14:0.0 15:0.0 16:0.0 17:0.0 18:0.0 19:0.0 20:0.0 21:0.0 22:0.0 23:0.0 24:0.0 25:0.0 26:0.0 27:0.0 28:0.03571428571428571 29:0.0 30:0.0 31:0.25 32:1.0 33:0.0 34:0.0 35:0.0 36:0.0 37:0.10714285714285714 38:0.17857142857142858 39:0.0 40:0.0 41:0.10714285714285714 42:0.0 43:0.03571428571428571 44:0.03571428571428571 45:0.0 46:0.0 47:0.0 48:0.0 49:0.0 50:0.0 51:0.0 52:0.0 53:0.0 54:0.0 55:0.0 56:0.0 57:0.0 58:0.17857142857142858 
1.0 0:0.0 1:0.16129032258064516 2:0.0 3:0.03225806451612903 4:0.0 5:0.0 6:0.06451612903225806 7:0.0 8:0.0 9:0.0 10:0.0 11:0.0 12:0.0 13:0.0 14:0.0 15:0.0 16:0.0 17:0.0 18:0.0 19:0.0 20:0.0 21:0.0 22:0.0 23:0.0 24:0.0 25:0.0 26:0.0 27:0.0 28:0.03225806451612903 29:0.0 30:0.03225806451612903 31:0.03225806451612903 32:1.0 33:0.0 34:0.0 35:0.0 36:0.0 37:0.0 38:0.22580645161290322 39:0.06451612903225806 40:0.0 41:0.03225806451612903 42:0.0 43:0.12903225806451613 44:0.03225806451612903 45:0.0 46:0.0 47:0.0 48:0.0 49:0.0 50:0.0967741935483871 51:0.0 52:0.0 53:0.0 54:0.0 55:0.0 56:0.0 57:0.0 58:0.12903225806451613 
1.0 0:0.04 1:0.0 2:0.0 3:0.08 4:0.0 5:0.0 6:0.2 7:0.0 8:0.0 9:0.0 10:0.08 11:0.0 12:0.0 13:0.0 14:0.0 15:0.04 16:0.0 17:0.0 18:0.0 19:0.0 20:0.0 21:0.0 22:0.0 23:0.0 24:0.0 25:0.0 26:0.0 27:0.0 28:0.0 29:0.0 30:0.04 31:0.2 32:1.0 33:0.12 34:0.08 35:0.0 36:0.0 37:0.0 38:0.12 39:0.04 40:0.0 41:0.04 42:0.0 43:0.16 44:0.0 45:0.04 46:0.0 47:0.0 48:0.0 49:0.0 50:0.08 51:0.0 52:0.0 53:0.0 54:0.0 55:0.0 56:0.0 57:0.08 58:0.12 
1.0 0:0.07142857142857142 1:0.17857142857142858 2:0.0 3:0.0 4:0.0 5:0.0 6:0.03571428571428571 7:0.0 8:0.0 9:0.0 10:0.0 11:0.0 12:0.0 13:0.0 14:0.0 15:0.03571428571428571 16:0.0 17:0.0 18:0.0 19:0.0 20:0.0 21:0.0 22:0.0 23:0.0 24:0.0 25:0.0 26:0.0 27:0.0 28:0.0 29:0.0 30:0.0 31:0.17857142857142858 32:1.0 33:0.03571428571428571 34:0.0 35:0.03571428571428571 36:0.0 37:0.07142857142857142 38:0.03571428571428571 39:0.10714285714285714 40:0.03571428571428571 41:0.03571428571428571 42:0.0 43:0.14285714285714285 44:0.0 45:0.0 46:0.0 47:0.0 48:0.0 49:0.03571428571428571 50:0.10714285714285714 51:0.0 52:0.0 53:0.0 54:0.0 55:0.0 56:0.0 57:0.0 58:0.14285714285714285 
1.0 0:0.23076923076923078 1:0.11538461538461539 2:0.0 3:0.07692307692307693 4:0.0 5:0.0 6:0.0 7:0.0 8:0.0 9:0.0 10:0.038461538461538464 11:0.0 12:0.0 13:0.0 14:0.0 15:0.0 16:0.0 17:0.0 18:0.0 19:0.0 20:0.0 21:0.038461538461538464 22:0.0 23:0.0 24:0.0 25:0.0 26:0.0 27:0.0 28:0.0 29:0.0 30:0.11538461538461539 31:0.07692307692307693 32:0.038461538461538464 33:0.038461538461538464 34:0.038461538461538464 35:0.038461538461538464 36:0.0 37:0.038461538461538464 38:0.07692307692307693 39:0.0 40:0.0 41:0.0 42:0.0 43:0.0 44:0.0 45:0.0 46:0.038461538461538464 47:0.0 48:0.0 49:0.038461538461538464 50:0.038461538461538464 51:0.0 52:0.038461538461538464 53:0.0 54:0.0 55:0.11538461538461539 56:0.0 57:0.23076923076923078 58:1.0 
1.0 0:0.22580645161290322 1:0.1935483870967742 2:0.0 3:0.0967741935483871 4:0.0 5:0.0 6:0.0 7:0.0 8:0.0 9:0.0 10:0.0 11:0.0 12:0.0 13:0.0 14:0.0 15:0.0 16:0.0 17:0.0 18:0.0 19:0.0 20:0.0 21:0.0 22:0.0 23:0.0 24:0.0 25:0.0 26:0.0 27:0.0 28:0.03225806451612903 29:0.0 30:0.0 31:0.0 32:0.0 33:0.0 34:0.0 35:0.0967741935483871 36:0.0 37:0.0 38:0.0 39:0.0 40:0.03225806451612903 41:0.0 42:0.0 43:0.0 44:0.03225806451612903 45:0.0 46:0.06451612903225806 47:0.0 48:0.0 49:0.03225806451612903 50:0.0 51:0.0 52:0.0 53:0.03225806451612903 54:0.0 55:0.03225806451612903 56:0.0 57:0.1935483870967742 58:1.0 
1.0 0:0.12 1:0.28 2:0.0 3:0.2 4:0.0 5:0.0 6:0.04 7:0.0 8:0.0 9:0.0 10:0.0 11:0.0 12:0.0 13:0.0 14:0.0 15:0.0 16:0.0 17:0.0 18:0.0 19:0.0 20:0.0 21:0.04 22:0.0 23:0.0 24:0.0 25:0.0 26:0.0 27:0.0 28:0.0 29:0.0 30:0.12 31:0.2 32:0.08 33:0.0 34:0.0 35:0.0 36:0.0 37:0.04 38:0.04 39:0.04 40:0.0 41:0.0 42:0.0 43:0.0 44:0.04 45:0.04 46:0.0 47:0.0 48:0.0 49:0.04 50:0.0 51:0.0 52:0.0 53:0.04 54:0.0 55:0.04 56:0.0 57:0.16 58:1.0 
1.0 0:0.1111111111111111 1:0.3333333333333333 2:0.0 3:0.037037037037037035 4:0.0 5:0.0 6:0.0 7:0.0 8:0.0 9:0.0 10:0.037037037037037035 11:0.0 12:0.0 13:0.0 14:0.0 15:0.0 16:0.0 17:0.0 18:0.0 19:0.0 20:0.0 21:0.0 22:0.0 23:0.0 24:0.0 25:0.0 26:0.0 27:0.0 28:0.0 29:0.0 30:0.07407407407407407 31:0.14814814814814814 32:0.14814814814814814 33:0.0 34:0.0 35:0.0 36:0.0 37:0.0 38:0.037037037037037035 39:0.037037037037037035 40:0.037037037037037035 41:0.0 42:0.0 43:0.0 44:0.037037037037037035 45:0.0 46:0.037037037037037035 47:0.0 48:0.0 49:0.0 50:0.07407407407407407 51:0.0 52:0.0 53:0.0 54:0.0 55:0.037037037037037035 56:0.0 57:0.18518518518518517 58:1.0 
1.0 0:0.11764705882352941 1:0.17647058823529413 2:0.0 3:0.0 4:0.0 5:0.0 6:0.0 7:0.0 8:0.0 9:0.0 10:0.058823529411764705 11:0.0 12:0.0 13:0.0 14:0.0 15:0.0 16:0.0 17:0.0 18:0.0 19:0.0 20:0.0 21:0.0 22:0.0 23:0.0 24:0.0 25:0.0 26:0.0 27:0.0 28:0.0 29:0.0 30:0.029411764705882353 31:0.0 32:1.0 33:0.0 34:0.0 35:0.029411764705882353 36:0.0 37:0.0 38:0.20588235294117646 39:0.0 40:0.0 41:0.0 42:0.0 43:0.029411764705882353 44:0.0 45:0.0 46:0.0 47:0.0 48:0.0 49:0.0 50:0.029411764705882353 51:0.0 52:0.0 53:0.0 54:0.0 55:0.0 56:0.0 57:0.029411764705882353 58:0.17647058823529413 
1.0 0:0.13333333333333333 1:0.7333333333333333 2:0.0 3:1.0 4:0.0 5:0.0 6:0.06666666666666667 7:0.0 8:0.0 9:0.0 10:0.13333333333333333 11:0.0 12:0.0 13:0.0 14:0.0 15:0.0 16:0.0 17:0.0 18:0.0 19:0.0 20:0.0 21:0.0 22:0.0 23:0.0 24:0.0 25:0.0 26:0.0 27:0.0 28:0.06666666666666667 29:0.0 30:0.13333333333333333 31:0.26666666666666666 32:0.2 33:0.26666666666666666 34:0.0 35:0.0 36:0.0 37:0.06666666666666667 38:0.0 39:0.4 40:0.0 41:0.0 42:0.0 43:0.06666666666666667 44:0.0 45:0.06666666666666667 46:0.0 47:0.0 48:0.13333333333333333 49:0.06666666666666667 50:0.0 51:0.0 52:0.06666666666666667 53:0.0 54:0.0 55:0.06666666666666667 56:0.0 57:0.06666666666666667 58:0.26666666666666666 
1.0 0:0.3235294117647059 1:0.11764705882352941 2:0.0 3:0.14705882352941177 4:0.0 5:0.0 6:1.0 7:0.0 8:0.0 9:0.0 10:0.058823529411764705 11:0.0 12:0.0 13:0.0 14:0.0 15:0.0 16:0.0 17:0.0 18:0.0 19:0.0 20:0.0 21:0.0 22:0.0 23:0.0 24:0.0 25:0.0 26:0.0 27:0.0 28:0.0 29:0.0 30:0.0 31:0.029411764705882353 32:0.11764705882352941 33:0.0 34:0.0 35:0.0 36:0.0 37:0.058823529411764705 38:0.0 39:0.0 40:0.0 41:0.0 42:0.0 43:0.029411764705882353 44:0.0 45:0.0 46:0.0 47:0.0 48:0.0 49:0.0 50:0.0 51:0.0 52:0.0 53:0.0 54:0.0 55:0.0 56:0.0 57:0.0 58:0.0 
1.0 0:0.4117647058823529 1:0.058823529411764705 2:0.0 3:0.20588235294117646 4:0.0 5:0.0 6:1.0 7:0.0 8:0.0 9:0.0 10:0.058823529411764705 11:0.0 12:0.0 13:0.0 14:0.0 15:0.0 16:0.0 17:0.0 18:0.0 19:0.0 20:0.0 21:0.0 22:0.0 23:0.0 24:0.0 25:0.0 26:0.0 27:0.0 28:0.0 29:0.0 30:0.0 31:0.0 32:0.14705882352941177 33:0.0 34:0.0 35:0.0 36:0.0 37:0.0 38:0.0 39:0.0 40:0.0 41:0.0 42:0.0 43:0.0 44:0.0 45:0.0 46:0.0 47:0.0 48:0.0 49:0.0 50:0.0 51:0.0 52:0.0 53:0.0 54:0.0 55:0.0 56:0.0 57:0.0 58:0.0 
1.0 0:0.4146341463414634 1:0.0 2:0.0 3:0.07317073170731707 4:0.0 5:0.0 6:1.0 7:0.0 8:0.0 9:0.0 10:0.04878048780487805 11:0.0 12:0.0 13:0.0 14:0.0 15:0.0 16:0.0 17:0.0 18:0.0 19:0.0 20:0.0 21:0.0 22:0.0 23:0.0 24:0.0 25:0.0 26:0.0 27:0.0 28:0.0 29:0.0 30:0.0 31:0.0 32:0.0 33:0.0 34:0.0 35:0.0 36:0.0 37:0.0 38:0.024390243902439025 39:0.0 40:0.0 41:0.0 42:0.0 43:0.0 44:0.0 45:0.0 46:0.0 47:0.0 48:0.0 49:0.0 50:0.0 51:0.0 52:0.0 53:0.0 54:0.0 55:0.0 56:0.0 57:0.0 58:0.0 
1.0 0:0.6 1:0.0 2:0.0 3:0.0 4:0.0 5:0.0 6:1.0 7:0.0 8:0.0 9:0.0 10:0.0 11:0.0 12:0.0 13:0.0 14:0.0 15:0.0 16:0.0 17:0.0 18:0.0 19:0.0 20:0.0 21:0.0 22:0.0 23:0.0 24:0.0 25:0.0 26:0.0 27:0.0 28:0.0 29:0.0 30:0.0 31:0.0 32:0.0 33:0.0 34:0.0 35:0.0 36:0.0 37:0.0 38:0.0 39:0.0 40:0.0 41:0.0 42:0.0 43:0.0 44:0.0 45:0.0 46:0.0 47:0.0 48:0.0 49:0.0 50:0.0 51:0.0 52:0.0 53:0.0 54:0.0 55:0.0 56:0.0 57:0.0 58:0.0 
1.0 0:0.6 1:0.0 2:0.0 3:0.0 4:0.0 5:0.0 6:1.0 7:0.0 8:0.0 9:0.0 10:0.0 11:0.0 12:0.0 13:0.0 14:0.0 15:0.0 16:0.0 17:0.0 18:0.0 19:0.0 20:0.0 21:0.0 22:0.0 23:0.0 24:0.0 25:0.0 26:0.0 27:0.0 28:0.0 29:0.0 30:0.0 31:0.0 32:0.0 33:0.0 34:0.0 35:0.0 36:0.0 37:0.0 38:0.0 39:0.0 40:0.0 41:0.0 42:0.0 43:0.0 44:0.0 45:0.0 46:0.0 47:0.0 48:0.0 49:0.0 50:0.0 51:0.0 52:0.0 53:0.0 54:0.0 55:0.0 56:0.0 57:0.0 58:0.0 
1.0 0:0.07894736842105263 1:0.07894736842105263 2:0.0 3:0.0 4:0.0 5:0.0 6:0.02631578947368421 7:0.0 8:0.0 9:0.0 10:0.0 11:0.0 12:0.0 13:0.0 14:0.0 15:0.0 16:0.0 17:0.0 18:0.0 19:0.0 20:0.0 21:0.0 22:0.0 23:0.0 24:0.0 25:0.0 26:0.0 27:0.0 28:0.0 29:0.0 30:0.0 31:0.02631578947368421 32:1.0 33:0.0 34:0.0 35:0.0 36:0.0 37:0.05263157894736842 38:0.15789473684210525 39:0.0 40:0.0 41:0.0 42:0.0 43:0.02631578947368421 44:0.0 45:0.0 46:0.0 47:0.0 48:0.0 49:0.0 50:0.02631578947368421 51:0.0 52:0.0 53:0.0 54:0.0 55:0.0 56:0.0 57:0.0 58:0.21052631578947367 
1.0 0:0.1935483870967742 1:0.0 2:0.0 3:0.0967741935483871 4:0.0 5:0.0 6:1.0 7:0.0 8:0.0 9:0.0 10:0.0 11:0.0 12:0.0 13:0.0 14:0.0 15:0.0 16:0.0 17:0.0 18:0.0 19:0.0 20:0.0 21:0.0 22:0.0 23:0.0 24:0.0 25:0.0 26:0.0 27:0.0 28:0.0 29:0.0 30:0.0967741935483871 31:0.0 32:0.12903225806451613 33:0.0 34:0.0 35:0.03225806451612903 36:0.0 37:0.03225806451612903 38:0.12903225806451613 39:0.03225806451612903 40:0.0 41:0.0 42:0.0 43:0.0 44:0.0 45:0.0 46:0.0 47:0.0 48:0.0 49:0.0 50:0.0 51:0.0 52:0.0 53:0.0 54:0.0 55:0.0 56:0.0 57:0.0 58:0.3225806451612903 
1.0 0:0.16666666666666666 1:0.03333333333333333 2:0.0 3:0.03333333333333333 4:0.0 5:0.0 6:1.0 7:0.0 8:0.0 9:0.0 10:0.03333333333333333 11:0.0 12:0.0 13:0.0 14:0.0 15:0.03333333333333333 16:0.0 17:0.0 18:0.0 19:0.0 20:0.0 21:0.0 22:0.0 23:0.0 24:0.0 25:0.0 26:0.0 27:0.0 28:0.0 29:0.0 30:0.03333333333333333 31:0.06666666666666667 32:0.06666666666666667 33:0.03333333333333333 34:0.0 35:0.0 36:0.0 37:0.13333333333333333 38:0.06666666666666667 39:0.0 40:0.0 41:0.03333333333333333 42:0.0 43:0.0 44:0.0 45:0.0 46:0.0 47:0.0 48:0.0 49:0.0 50:0.03333333333333333 51:0.0 52:0.0 53:0.0 54:0.0 55:0.0 56:0.0 57:0.0 58:0.36666666666666664 
1.0 0:0.23809523809523808 1:1.0 2:0.0 3:0.19047619047619047 4:0.0 5:0.0 6:0.14285714285714285 7:0.0 8:0.0 9:0.0 10:0.0 11:0.0 12:0.0 13:0.0 14:0.0 15:0.0 16:0.0 17:0.0 18:0.0 19:0.0 20:0.0 21:0.0 22:0.0 23:0.0 24:0.0 25:0.0 26:0.0 27:0.0 28:0.23809523809523808 29:0.0 30:0.047619047619047616 31:0.047619047619047616 32:0.09523809523809523 33:0.0 34:0.0 35:0.0 36:0.0 37:0.047619047619047616 38:0.23809523809523808 39:0.047619047619047616 40:0.0 41:0.19047619047619047 42:0.0 43:0.047619047619047616 44:0.0 45:0.047619047619047616 46:0.0 47:0.0 48:0.0 49:0.047619047619047616 50:0.09523809523809523 51:0.0 52:0.0 53:0.19047619047619047 54:0.0 55:0.0 56:0.0 57:0.0 58:0.09523809523809523 
1.0 0:0.15789473684210525 1:1.0 2:0.0 3:0.15789473684210525 4:0.0 5:0.0 6:0.10526315789473684 7:0.0 8:0.0 9:0.0 10:0.05263157894736842 11:0.0 12:0.0 13:0.0 14:0.0 15:0.10526315789473684 16:0.0 17:0.0 18:0.0 19:0.0 20:0.0 21:0.0 22:0.0 23:0.0 24:0.0 25:0.0 26:0.0 27:0.0 28:0.05263157894736842 29:0.0 30:0.05263157894736842 31:0.0 32:0.15789473684210525 33:0.05263157894736842 34:0.0 35:0.0 36:0.0 37:0.21052631578947367 38:0.0 39:0.0 40:0.0 41:0.0 42:0.0 43:0.631578947368421 44:0.0 45:0.0 46:0.0 47:0.0 48:0.0 49:0.0 50:0.05263157894736842 51:0.0 52:0.0 53:0.0 54:0.0 55:0.0 56:0.0 57:0.0 58:0.5789473684210527 
1.0 0:0.2222222222222222 1:0.18518518518518517 2:0.0 3:0.037037037037037035 4:0.0 5:0.0 6:0.07407407407407407 7:0.0 8:0.0 9:0.0 10:0.0 11:0.0 12:0.0 13:0.0 14:0.0 15:0.0 16:0.0 17:0.0 18:0.0 19:0.0 20:0.0 21:0.037037037037037035 22:0.0 23:0.0 24:0.0 25:0.0 26:0.0 27:0.0 28:0.037037037037037035 29:0.0 30:0.07407407407407407 31:0.037037037037037035 32:0.037037037037037035 33:0.0 34:0.0 35:0.0 36:0.0 37:0.07407407407407407 38:0.07407407407407407 39:0.1111111111111111 40:0.0 41:0.0 42:0.0 43:0.0 44:0.07407407407407407 45:0.0 46:0.07407407407407407 47:0.0 48:0.0 49:0.0 50:0.037037037037037035 51:0.0 52:0.037037037037037035 53:0.0 54:0.0 55:0.0 56:0.0 57:0.14814814814814814 58:1.0 
1.0 0:0.2903225806451613 1:0.1935483870967742 2:0.0 3:0.06451612903225806 4:0.0 5:0.0 6:0.0 7:0.0 8:0.0 9:0.0 10:0.03225806451612903 11:0.0 12:0.0 13:0.0 14:0.0 15:0.0 16:0.0 17:0.0 18:0.0 19:0.0 20:0.0 21:0.0 22:0.0 23:0.0 24:0.0 25:0.0 26:0.0 27:0.0 28:0.0 29:0.0 30:0.03225806451612903 31:0.06451612903225806 32:0.0 33:0.03225806451612903 34:0.06451612903225806 35:0.03225806451612903 36:0.0 37:0.0 38:0.0 39:0.03225806451612903 40:0.0 41:0.0 42:0.0 43:0.0 44:0.03225806451612903 45:0.0 46:0.0 47:0.0 48:0.03225806451612903 49:0.03225806451612903 50:0.0 51:0.0 52:0.0 53:0.0 54:0.0 55:0.0 56:0.0 57:0.12903225806451613 58:1.0 
1.0 0:0.16 1:0.4 2:0.0 3:0.08 4:0.0 5:0.0 6:0.04 7:0.0 8:0.0 9:0.0 10:0.0 11:0.0 12:0.0 13:0.0 14:0.0 15:0.0 16:0.0 17:0.0 18:0.0 19:0.0 20:0.0 21:0.04 22:0.0 23:0.0 24:0.0 25:0.0 26:0.0 27:0.0 28:0.0 29:0.0 30:0.04 31:0.08 32:0.04 33:0.08 34:0.0 35:0.0 36:0.0 37:0.08 38:0.08 39:0.12 40:0.0 41:0.04 42:0.0 43:0.0 44:0.08 45:0.04 46:0.0 47:0.0 48:0.0 49:0.0 50:0.0 51:0.0 52:0.04 53:0.0 54:0.0 55:0.0 56:0.0 57:0.12 58:1.0 
1.0 0:0.3939393939393939 1:0.06060606060606061 2:0.0 3:0.030303030303030304 4:0.0 5:0.0 6:1.0 7:0.0 8:0.0 9:0.0 10:0.06060606060606061 11:0.0 12:0.0 13:0.0 14:0.0 15:0.0 16:0.0 17:0.0 18:0.0 19:0.0 20:0.0 21:0.0 22:0.0 23:0.0 24:0.0 25:0.0 26:0.0 27:0.0 28:0.030303030303030304 29:0.0 30:0.0 31:0.0 32:0.030303030303030304 33:0.0 34:0.0 35:0.0 36:0.0 37:0.0 38:0.030303030303030304 39:0.0 40:0.0 41:0.0 42:0.0 43:0.0 44:0.0 45:0.0 46:0.030303030303030304 47:0.0 48:0.0 49:0.0 50:0.030303030303030304 51:0.0 52:0.0 53:0.0 54:0.0 55:0.0 56:0.0 57:0.030303030303030304 58:0.21212121212121213 
1.0 0:0.2 1:0.16666666666666666 2:0.0 3:0.06666666666666667 4:0.0 5:0.0 6:0.03333333333333333 7:0.0 8:0.0 9:0.0 10:0.03333333333333333 11:0.0 12:0.0 13:0.0 14:0.0 15:0.0 16:0.0 17:0.0 18:0.0 19:0.0 20:0.0 21:0.0 22:0.0 23:0.0 24:0.0 25:0.0 26:0.0 27:0.0 28:0.03333333333333333 29:0.0 30:0.0 31:0.0 32:0.1 33:0.03333333333333333 34:0.0 35:0.03333333333333333 36:0.0 37:0.03333333333333333 38:0.03333333333333333 39:0.03333333333333333 40:0.0 41:0.0 42:0.0 43:0.0 44:0.06666666666666667 45:0.0 46:0.0 47:0.0 48:0.0 49:0.06666666666666667 50:0.06666666666666667 51:0.0 52:0.0 53:0.03333333333333333 54:0.0 55:0.03333333333333333 56:0.0 57:0.06666666666666667 58:1.0 
1.0 0:0.03125 1:0.0 2:0.0 3:0.0625 4:0.0 5:0.0 6:0.0 7:0.0 8:0.0 9:0.0 10:0.125 11:0.0 12:0.0 13:0.0 14:0.0 15:0.0 16:0.0 17:0.0 18:0.0 19:0.0 20:0.0 21:0.0 22:0.0 23:0.0 24:0.0 25:0.0 26:0.0 27:0.0 28:0.0 29:0.0 30:0.03125 31:0.09375 32:0.125 33:0.0625 34:0.0 35:0.0 36:0.0 37:0.125 38:1.0 39:0.0 40:0.0 41:0.03125 42:0.0 43:0.03125 44:0.0 45:0.0 46:0.0 47:0.0 48:0.0 49:0.03125 50:0.0 51:0.0 52:0.03125 53:0.03125 54:0.0 55:0.0 56:0.0 57:0.0 58:0.1875 
1.0 0:0.0 1:0.045454545454545456 2:0.0 3:0.09090909090909091 4:0.0 5:0.0 6:0.22727272727272727 7:0.0 8:0.0 9:0.0 10:0.045454545454545456 11:0.0 12:0.0 13:0.0 14:0.0 15:0.0 16:0.0 17:0.0 18:0.0 19:0.0 20:0.0 21:0.045454545454545456 22:0.0 23:0.0 24:0.0 25:0.0 26:0.0 27:0.0 28:0.0 29:0.0 30:0.045454545454545456 31:0.045454545454545456 32:1.0 33:0.18181818181818182 34:0.045454545454545456 35:0.0 36:0.0 37:0.09090909090909091 38:0.22727272727272727 39:0.2727272727272727 40:0.0 41:0.0 42:0.0 43:0.13636363636363635 44:0.045454545454545456 45:0.045454545454545456 46:0.0 47:0.0 48:0.0 49:0.09090909090909091 50:0.0 51:0.0 52:0.0 53:0.045454545454545456 54:0.0 55:0.0 56:0.0 57:0.09090909090909091 58:0.09090909090909091 
1.0 0:0.16129032258064516 1:0.0967741935483871 2:0.0 3:0.03225806451612903 4:0.0 5:0.0 6:0.0 7:0.0 8:0.0 9:0.0 10:0.03225806451612903 11:0.0 12:0.0 13:0.0 14:0.0 15:0.0 16:0.0 17:0.0 18:0.0 19:0.0 20:0.0 21:0.06451612903225806 22:0.0 23:0.0 24:0.0 25:0.0 26:0.0 27:0.0 28:0.06451612903225806 29:0.0 30:0.0 31:0.0 32:1.0 33:0.03225806451612903 34:0.06451612903225806 35:0.0 36:0.0 37:0.0 38:0.0967741935483871 39:0.0 40:0.0 41:0.0 42:0.0 43:0.0967741935483871 44:0.06451612903225806 45:0.0 46:0.0 47:0.0 48:0.0 49:0.0 50:0.0967741935483871 51:0.0 52:0.0 53:0.0 54:0.0 55:0.0 56:0.0 57:0.0 58:0.16129032258064516 
1.0 0:0.0 1:0.22727272727272727 2:0.0 3:0.045454545454545456 4:0.0 5:0.0 6:0.09090909090909091 7:0.0 8:0.0 9:0.0 10:0.0 11:0.0 12:0.0 13:0.0 14:0.0 15:0.045454545454545456 16:0.0 17:0.0 18:0.0 19:0.0 20:0.0 21:0.045454545454545456 22:0.0 23:0.0 24:0.0 25:0.0 26:0.0 27:0.0 28:0.09090909090909091 29:0.0 30:0.045454545454545456 31:0.045454545454545456 32:1.0 33:0.13636363636363635 34:0.0 35:0.0 36:0.0 37:0.0 38:0.22727272727272727 39:0.3181818181818182 40:0.0 41:0.0 42:0.0 43:0.22727272727272727 44:0.09090909090909091 45:0.045454545454545456 46:0.0 47:0.0 48:0.0 49:0.0 50:0.045454545454545456 51:0.0 52:0.0 53:0.0 54:0.0 55:0.0 56:0.0 57:0.0 58:0.18181818181818182 
1.0 0:0.0 1:0.0 2:0.0 3:0.045454545454545456 4:0.0 5:0.0 6:0.09090909090909091 7:0.0 8:0.0 9:0.0 10:0.0 11:0.0 12:0.0 13:0.0 14:0.0 15:0.0 16:0.0 17:0.0 18:0.0 19:0.0 20:0.0 21:0.0 22:0.0 23:0.0 24:0.0 25:0.0 26:0.0 27:0.0 28:0.022727272727272728 29:0.0 30:0.0 31:0.0 32:1.0 33:0.0 34:0.0 35:0.0 36:0.0 37:0.022727272727272728 38:0.045454545454545456 39:0.022727272727272728 40:0.0 41:0.0 42:0.0 43:0.022727272727272728 44:0.0 45:0.0 46:0.0 47:0.0 48:0.0 49:0.0 50:0.06818181818181818 51:0.0 52:0.0 53:0.0 54:0.0 55:0.0 56:0.0 57:0.045454545454545456 58:0.06818181818181818 
1.0 0:0.03225806451612903 1:0.12903225806451613 2:0.0 3:0.03225806451612903 4:0.0 5:0.0 6:0.12903225806451613 7:0.0 8:0.0 9:0.0 10:0.0967741935483871 11:0.0 12:0.0 13:0.0 14:0.0 15:0.0 16:0.0 17:0.0 18:0.0 19:0.0 20:0.0 21:0.0 22:0.0 23:0.0 24:0.0 25:0.0 26:0.0 27:0.0 28:0.0 29:0.0 30:0.0 31:0.06451612903225806 32:1.0 33:0.0967741935483871 34:0.0 35:0.0 36:0.0 37:0.03225806451612903 38:0.0967741935483871 39:0.0 40:0.0 41:0.06451612903225806 42:0.0 43:0.03225806451612903 44:0.03225806451612903 45:0.0 46:0.0 47:0.0 48:0.0 49:0.0 50:0.0967741935483871 51:0.0 52:0.0 53:0.0 54:0.0 55:0.0 56:0.0 57:0.06451612903225806 58:0.06451612903225806 
1.0 0:0.0967741935483871 1:0.0967741935483871 2:0.0 3:0.06451612903225806 4:0.0 5:0.0 6:0.03225806451612903 7:0.0 8:0.0 9:0.0 10:0.03225806451612903 11:0.0 12:0.0 13:0.0 14:0.0 15:0.0 16:0.0 17:0.0 18:0.0 19:0.0 20:0.0 21:0.0 22:0.0 23:0.0 24:0.0 25:0.0 26:0.0 27:0.0 28:0.03225806451612903 29:0.0 30:0.06451612903225806 31:0.06451612903225806 32:1.0 33:0.12903225806451613 34:0.0 35:0.0 36:0.0 37:0.0 38:0.06451612903225806 39:0.0 40:0.0 41:0.0 42:0.0 43:0.06451612903225806 44:0.0 45:0.0 46:0.0 47:0.0 48:0.0 49:0.0 50:0.0967741935483871 51:0.0 52:0.0 53:0.0 54:0.0 55:0.0 56:0.0 57:0.03225806451612903 58:0.1935483870967742 
1.0 0:0.3125 1:0.3125 2:0.0 3:0.0 4:0.0 5:0.0 6:0.0 7:0.0 8:0.0 9:0.0 10:0.0 11:0.0 12:0.0 13:0.0 14:0.0 15:0.03125 16:0.0 17:0.0 18:0.0 19:0.0 20:0.0 21:0.0 22:0.0 23:0.0 24:0.0 25:0.0 26:0.0 27:0.0 28:0.03125 29:0.0 30:0.0 31:0.0 32:0.0 33:0.0625 34:0.0 35:0.0 36:0.0 37:0.0 38:0.0 39:0.0 40:0.0 41:0.0 42:0.0 43:0.0 44:0.03125 45:0.0 46:0.0 47:0.0 48:0.03125 49:0.0 50:0.03125 51:0.0 52:0.0 53:0.03125 54:0.0 55:0.0625 56:0.0 57:0.0625 58:1.0 
1.0 0:0.041666666666666664 1:0.20833333333333334 2:0.0 3:0.0 4:0.0 5:0.0 6:0.041666666666666664 7:0.0 8:0.0 9:0.0 10:0.041666666666666664 11:0.0 12:0.0 13:0.0 14:0.0 15:0.0 16:0.0 17:0.0 18:0.0 19:0.0 20:0.0 21:0.0 22:0.0 23:0.0 24:0.0 25:0.0 26:0.0 27:0.0 28:0.08333333333333333 29:0.0 30:0.125 31:0.16666666666666666 32:1.0 33:0.0 34:0.041666666666666664 35:0.0 36:0.0 37:0.041666666666666664 38:0.041666666666666664 39:0.125 40:0.0 41:0.0 42:0.0 43:0.16666666666666666 44:0.125 45:0.041666666666666664 46:0.0 47:0.0 48:0.08333333333333333 49:0.041666666666666664 50:0.08333333333333333 51:0.0 52:0.0 53:0.0 54:0.0 55:0.0 56:0.0 57:0.041666666666666664 58:0.125 
1.0 0:0.18518518518518517 1:0.18518518518518517 2:0.0 3:0.0 4:0.0 5:0.0 6:0.5925925925925926 7:0.0 8:0.0 9:0.0 10:0.0 11:0.0 12:0.0 13:0.0 14:0.0 15:0.0 16:0.0 17:0.0 18:0.0 19:0.0 20:0.0 21:0.0 22:0.0 23:0.0 24:0.0 25:0.0 26:0.0 27:0.0 28:0.037037037037037035 29:0.0 30:0.037037037037037035 31:1.0 32:0.1111111111111111 33:0.037037037037037035 34:0.0 35:0.0 36:0.0 37:0.0 38:0.0 39:0.07407407407407407 40:0.0 41:0.0 42:0.0 43:0.0 44:0.0 45:0.0 46:0.0 47:0.0 48:0.0 49:0.037037037037037035 50:0.0 51:0.0 52:0.0 53:0.037037037037037035 54:0.0 55:0.0 56:0.0 57:0.0 58:0.037037037037037035 
1.0 0:0.30303030303030304 1:0.24242424242424243 2:0.0 3:0.0 4:0.0 5:0.0 6:0.0 7:0.0 8:0.0 9:0.0 10:0.0 11:0.0 12:0.0 13:0.0 14:0.0 15:0.030303030303030304 16:0.0 17:0.0 18:0.0 19:0.0 20:0.0 21:0.0 22:0.0 23:0.0 24:0.0 25:0.0 26:0.0 27:0.0 28:0.0 29:0.0 30:0.030303030303030304 31:0.0 32:0.0 33:0.0 34:0.030303030303030304 35:0.0 36:0.0 37:0.0 38:0.030303030303030304 39:0.0 40:0.0 41:0.0 42:0.0 43:0.0 44:0.0 45:0.0 46:0.030303030303030304 47:0.0 48:0.0 49:0.0 50:0.0 51:0.0 52:0.030303030303030304 53:0.0 54:0.0 55:0.0 56:0.0 57:0.21212121212121213 58:1.0 
1.0 0:0.0 1:0.0 2:0.0 3:0.0 4:0.0 5:0.0 6:0.07407407407407407 7:0.0 8:0.0 9:0.0 10:0.0 11:0.0 12:0.0 13:0.0 14:0.0 15:0.037037037037037035 16:0.0 17:0.0 18:0.0 19:0.0 20:0.0 21:0.0 22:0.0 23:0.0 24:0.0 25:0.0 26:0.0 27:0.0 28:0.0 29:0.0 30:0.0 31:0.25925925925925924 32:0.2222222222222222 33:0.1111111111111111 34:0.0 35:0.0 36:0.0 37:0.037037037037037035 38:1.0 39:0.037037037037037035 40:0.037037037037037035 41:0.0 42:0.0 43:0.037037037037037035 44:0.07407407407407407 45:0.037037037037037035 46:0.14814814814814814 47:0.0 48:0.0 49:0.0 50:0.037037037037037035 51:0.0 52:0.0 53:0.037037037037037035 54:0.0 55:0.0 56:0.0 57:0.0 58:0.18518518518518517 
1.0 0:0.0 1:0.0 2:0.0 3:0.0 4:0.0 5:0.0 6:0.0 7:0.0 8:0.0 9:0.0 10:0.0 11:0.0 12:0.0 13:0.0 14:0.0 15:0.0 16:0.0 17:0.0 18:0.0 19:0.0 20:0.0 21:0.0 22:0.0 23:0.0 24:0.0 25:0.0 26:0.0 27:0.0 28:0.0 29:0.0 30:0.0 31:0.08695652173913043 32:0.043478260869565216 33:0.0 34:0.0 35:0.0 36:0.0 37:0.043478260869565216 38:1.0 39:0.021739130434782608 40:0.0 41:0.06521739130434782 42:0.0 43:0.0 44:0.0 45:0.0 46:0.0 47:0.0 48:0.0 49:0.0 50:0.0 51:0.0 52:0.0 53:0.0 54:0.0 55:0.021739130434782608 56:0.0 57:0.021739130434782608 58:0.08695652173913043 
1.0 0:0.08 1:0.04 2:0.0 3:0.08 4:0.0 5:0.0 6:0.08 7:0.0 8:0.0 9:0.0 10:0.12 11:0.0 12:0.0 13:0.0 14:0.0 15:0.04 16:0.0 17:0.0 18:0.0 19:0.0 20:0.0 21:0.0 22:0.0 23:0.0 24:0.0 25:0.0 26:0.0 27:0.0 28:0.0 29:0.0 30:0.0 31:0.12 32:1.0 33:0.08 34:0.0 35:0.0 36:0.0 37:0.04 38:0.16 39:0.28 40:0.04 41:0.04 42:0.0 43:0.04 44:0.0 45:0.04 46:0.0 47:0.0 48:0.0 49:0.04 50:0.0 51:0.0 52:0.0 53:0.0 54:0.0 55:0.0 56:0.0 57:0.08 58:0.16 
1.0 0:0.6 1:0.0 2:0.0 3:0.0 4:0.0 5:0.0 6:1.0 7:0.0 8:0.0 9:0.0 10:0.0 11:0.0 12:0.0 13:0.0 14:0.0 15:0.0 16:0.0 17:0.0 18:0.0 19:0.0 20:0.0 21:0.0 22:0.0 23:0.0 24:0.0 25:0.0 26:0.0 27:0.0 28:0.0 29:0.0 30:0.0 31:0.0 32:0.0 33:0.0 34:0.0 35:0.0 36:0.0 37:0.0 38:0.0 39:0.0 40:0.0 41:0.0 42:0.0 43:0.0 44:0.0 45:0.0 46:0.0 47:0.0 48:0.0 49:0.0 50:0.0 51:0.0 52:0.0 53:0.0 54:0.0 55:0.0 56:0.0 57:0.0 58:0.0 
1.0 0:0.0 1:0.019230769230769232 2:0.0 3:0.057692307692307696 4:0.0 5:0.0 6:1.0 7:0.0 8:0.0 9:0.0 10:0.0 11:0.0 12:0.0 13:0.0 14:0.0 15:0.038461538461538464 16:0.0 17:0.0 18:0.0 19:0.0 20:0.0 21:0.0 22:0.0 23:0.0 24:0.0 25:0.0 26:0.0 27:0.0 28:0.0 29:0.0 30:0.0 31:0.0 32:0.0 33:0.057692307692307696 34:0.0 35:0.0 36:0.0 37:0.0 38:0.0 39:0.019230769230769232 40:0.0 41:0.0 42:0.0 43:0.0 44:0.019230769230769232 45:0.0 46:0.0 47:0.0 48:0.019230769230769232 49:0.0 50:0.0 51:0.0 52:0.0 53:0.0 54:0.0 55:0.0 56:0.0 57:0.0 58:0.0 
1.0 0:0.15384615384615385 1:0.3076923076923077 2:0.0 3:0.19230769230769232 4:0.0 5:0.0 6:0.038461538461538464 7:0.0 8:0.0 9:0.0 10:0.0 11:0.0 12:0.0 13:0.0 14:0.0 15:0.0 16:0.0 17:0.0 18:0.0 19:0.0 20:0.0 21:0.07692307692307693 22:0.0 23:0.0 24:0.0 25:0.0 26:0.0 27:0.0 28:0.0 29:0.0 30:0.0 31:0.15384615384615385 32:0.07692307692307693 33:0.0 34:0.0 35:0.0 36:0.0 37:0.0 38:0.038461538461538464 39:0.0 40:0.07692307692307693 41:0.0 42:0.0 43:0.0 44:0.07692307692307693 45:0.0 46:0.0 47:0.0 48:0.038461538461538464 49:0.038461538461538464 50:0.0 51:0.0 52:0.0 53:0.038461538461538464 54:0.0 55:0.038461538461538464 56:0.0 57:0.11538461538461539 58:1.0 
1.0 0:0.16666666666666666 1:0.047619047619047616 2:0.0 3:0.047619047619047616 4:0.0 5:0.0 6:1.0 7:0.0 8:0.0 9:0.0 10:0.07142857142857142 11:0.0 12:0.0 13:0.0 14:0.0 15:0.0 16:0.0 17:0.0 18:0.0 19:0.0 20:0.0 21:0.0 22:0.0 23:0.0 24:0.0 25:0.0 26:0.0 27:0.0 28:0.0 29:0.0 30:0.0 31:0.023809523809523808 32:0.023809523809523808 33:0.023809523809523808 34:0.0 35:0.0 36:0.0 37:0.023809523809523808 38:0.047619047619047616 39:0.0 40:0.0 41:0.0 42:0.0 43:0.0 44:0.0 45:0.0 46:0.0 47:0.0 48:0.0 49:0.0 50:0.0 51:0.0 52:0.0 53:0.0 54:0.0 55:0.0 56:0.0 57:0.0 58:0.047619047619047616 
1.0 0:0.3 1:0.0 2:0.0 3:0.05 4:0.0 5:0.0 6:1.0 7:0.0 8:0.0 9:0.0 10:0.025 11:0.0 12:0.0 13:0.0 14:0.0 15:0.0 16:0.0 17:0.0 18:0.0 19:0.0 20:0.0 21:0.0 22:0.0 23:0.0 24:0.0 25:0.0 26:0.0 27:0.0 28:0.0 29:0.0 30:0.0 31:0.025 32:0.025 33:0.025 34:0.0 35:0.0 36:0.0 37:0.025 38:0.075 39:0.05 40:0.0 41:0.0 42:0.0 43:0.0 44:0.0 45:0.0 46:0.0 47:0.0 48:0.0 49:0.0 50:0.0 51:0.0 52:0.0 53:0.0 54:0.0 55:0.0 56:0.0 57:0.0 58:0.0 
1.0 0:0.0 1:0.0 2:0.0 3:0.14285714285714285 4:0.0 5:0.0 6:0.23809523809523808 7:0.0 8:0.0 9:0.0 10:0.0 11:0.0 12:0.0 13:0.0 14:0.0 15:0.0 16:0.0 17:0.0 18:0.0 19:0.0 20:0.0 21:0.0 22:0.0 23:0.0 24:0.0 25:0.0 26:0.0 27:0.0 28:0.0 29:0.0 30:0.047619047619047616 31:1.0 32:0.47619047619047616 33:0.09523809523809523 34:0.047619047619047616 35:0.0 36:0.0 37:0.19047619047619047 38:0.19047619047619047 39:0.09523809523809523 40:0.09523809523809523 41:0.0 42:0.0 43:0.047619047619047616 44:0.0 45:0.0 46:0.0 47:0.0 48:0.0 49:0.0 50:0.14285714285714285 51:0.0 52:0.0 53:0.0 54:0.0 55:0.0 56:0.0 57:0.047619047619047616 58:0.19047619047619047 
1.0 0:0.4444444444444444 1:0.0 2:0.0 3:0.05555555555555555 4:0.0 5:0.0 6:1.0 7:0.0 8:0.0 9:0.0 10:0.027777777777777776 11:0.0 12:0.0 13:0.0 14:0.0 15:0.0 16:0.0 17:0.0 18:0.0 19:0.0 20:0.0 21:0.0 22:0.0 23:0.0 24:0.0 25:0.0 26:0.0 27:0.0 28:0.0 29:0.0 30:0.0 31:0.0 32:0.0 33:0.0 34:0.0 35:0.0 36:0.0 37:0.0 38:0.027777777777777776 39:0.0 40:0.0 41:0.0 42:0.0 43:0.0 44:0.0 45:0.0 46:0.0 47:0.0 48:0.0 49:0.0 50:0.027777777777777776 51:0.0 52:0.0 53:0.0 54:0.0 55:0.0 56:0.0 57:0.0 58:0.19444444444444445 
1.0 0:0.40625 1:0.0625 2:0.0 3:0.1875 4:0.0 5:0.0 6:1.0 7:0.0 8:0.0 9:0.0 10:0.0 11:0.0 12:0.0 13:0.0 14:0.0 15:0.03125 16:0.0 17:0.0 18:0.0 19:0.0 20:0.0 21:0.0 22:0.0 23:0.0 24:0.0 25:0.0 26:0.0 27:0.0 28:0.0 29:0.0 30:0.0 31:0.03125 32:0.0 33:0.0 34:0.0 35:0.0 36:0.0 37:0.0 38:0.09375 39:0.03125 40:0.0 41:0.0 42:0.0 43:0.03125 44:0.03125 45:0.0 46:0.0 47:0.0 48:0.0 49:0.0 50:0.0 51:0.0 52:0.0 53:0.0 54:0.0 55:0.0 56:0.0 57:0.0 58:0.09375 
1.0 0:0.07692307692307693 1:0.15384615384615385 2:0.0 3:0.2692307692307692 4:0.0 5:0.0 6:0.23076923076923078 7:0.0 8:0.0 9:0.0 10:0.038461538461538464 11:0.0 12:0.0 13:0.0 14:0.0 15:0.0 16:0.0 17:0.0 18:0.0 19:0.0 20:0.0 21:0.0 22:0.0 23:0.0 24:0.0 25:0.0 26:0.0 27:0.0 28:0.0 29:0.0 30:0.038461538461538464 31:0.19230769230769232 32:1.0 33:0.038461538461538464 34:0.0 35:0.0 36:0.0 37:0.0 38:0.11538461538461539 39:0.11538461538461539 40:0.0 41:0.0 42:0.0 43:0.038461538461538464 44:0.07692307692307693 45:0.038461538461538464 46:0.0 47:0.0 48:0.0 49:0.0 50:0.0 51:0.0 52:0.0 53:0.0 54:0.0 55:0.0 56:0.0 57:0.0 58:0.038461538461538464 
1.0 0:0.28 1:0.16 2:0.0 3:0.36 4:0.0 5:0.0 6:0.04 7:0.0 8:0.0 9:0.0 10:0.0 11:0.0 12:0.0 13:0.0 14:0.0 15:0.08 16:0.0 17:0.0 18:0.0 19:0.0 20:0.0 21:0.0 22:0.0 23:0.0 24:0.0 25:0.0 26:0.0 27:0.0 28:0.12 29:0.0 30:0.08 31:0.0 32:0.0 33:0.04 34:0.0 35:0.04 36:0.0 37:0.0 38:0.0 39:0.0 40:0.0 41:0.04 42:0.0 43:0.0 44:0.04 45:0.04 46:0.0 47:0.0 48:0.0 49:0.0 50:0.04 51:0.0 52:0.04 53:0.0 54:0.0 55:0.0 56:0.0 57:0.16 58:1.0 
1.0 0:0.045454545454545456 1:0.09090909090909091 2:0.0 3:0.09090909090909091 4:0.0 5:0.0 6:0.045454545454545456 7:0.0 8:0.0 9:0.0 10:0.045454545454545456 11:0.0 12:0.0 13:0.0 14:0.0 15:0.09090909090909091 16:0.0 17:0.0 18:0.0 19:0.0 20:0.0 21:0.0 22:0.0 23:0.0 24:0.0 25:0.0 26:0.0 27:0.0 28:0.0 29:0.0 30:0.13636363636363635 31:1.0 32:0.36363636363636365 33:0.09090909090909091 34:0.09090909090909091 35:0.0 36:0.0 37:0.0 38:0.3181818181818182 39:0.0 40:0.0 41:0.09090909090909091 42:0.0 43:0.09090909090909091 44:0.045454545454545456 45:0.045454545454545456 46:0.0 47:0.0 48:0.0 49:0.0 50:0.0 51:0.0 52:0.0 53:0.0 54:0.0 55:0.0 56:0.0 57:0.0 58:0.22727272727272727 
1.0 0:0.043478260869565216 1:0.34782608695652173 2:0.0 3:0.0 4:0.0 5:0.0 6:0.043478260869565216 7:0.0 8:0.0 9:0.0 10:0.043478260869565216 11:0.0 12:0.0 13:0.0 14:0.0 15:0.043478260869565216 16:0.0 17:0.0 18:0.0 19:0.0 20:0.0 21:0.043478260869565216 22:0.0 23:0.0 24:0.0 25:0.0 26:0.0 27:0.0 28:0.043478260869565216 29:0.0 30:0.0 31:0.13043478260869565 32:1.0 33:0.043478260869565216 34:0.043478260869565216 35:0.0 36:0.0 37:0.17391304347826086 38:0.17391304347826086 39:0.391304347826087 40:0.0 41:0.0 42:0.0 43:0.043478260869565216 44:0.0 45:0.13043478260869565 46:0.0 47:0.0 48:0.0 49:0.0 50:0.043478260869565216 51:0.0 52:0.0 53:0.0 54:0.0 55:0.0 56:0.0 57:0.0 58:0.0 
1.0 0:0.24 1:0.28 2:0.0 3:0.12 4:0.0 5:0.0 6:0.0 7:0.0 8:0.0 9:0.0 10:0.0 11:0.0 12:0.0 13:0.0 14:0.0 15:0.04 16:0.0 17:0.0 18:0.0 19:0.0 20:0.0 21:0.0 22:0.0 23:0.0 24:0.0 25:0.0 26:0.0 27:0.0 28:0.0 29:0.0 30:0.08 31:0.04 32:0.04 33:0.0 34:0.0 35:0.0 36:0.0 37:0.04 38:0.04 39:0.08 40:0.0 41:0.0 42:0.0 43:0.08 44:0.04 45:0.0 46:0.16 47:0.0 48:0.0 49:0.08 50:0.04 51:0.0 52:0.0 53:0.04 54:0.0 55:0.04 56:0.0 57:0.08 58:1.0 
1.0 0:0.0625 1:0.125 2:0.0 3:0.0 4:0.0 5:0.0 6:0.0 7:0.0 8:0.0 9:0.0 10:0.0625 11:0.0 12:0.0 13:0.0 14:0.0 15:0.0 16:0.0 17:0.0 18:0.0 19:0.0 20:0.0 21:0.0 22:0.0 23:0.0 24:0.0 25:0.0 26:0.0 27:0.0 28:0.0 29:0.0 30:0.0 31:0.0 32:1.0 33:0.0 34:0.0 35:0.09375 36:0.0 37:0.0 38:0.125 39:0.0 40:0.0 41:0.0 42:0.0 43:0.0625 44:0.0 45:0.0 46:0.0 47:0.0 48:0.0 49:0.0 50:0.0 51:0.0 52:0.0 53:0.0 54:0.0 55:0.0 56:0.0 57:0.0625 58:0.40625 
1.0 0:0.0967741935483871 1:0.0 2:0.0 3:0.0 4:0.0 5:0.0 6:0.06451612903225806 7:0.0 8:0.0 9:0.0 10:0.1935483870967742 11:0.0 12:0.0 13:0.0 14:0.0 15:0.0 16:0.0 17:0.0 18:0.0 19:0.0 20:0.0 21:0.0 22:0.0 23:0.0 24:0.0 25:0.0 26:0.0 27:0.0 28:0.0 29:0.0 30:0.0 31:0.0 32:0.12903225806451613 33:0.03225806451612903 34:0.0 35:0.0 36:0.0 37:0.22580645161290322 38:1.0 39:0.03225806451612903 40:0.0 41:0.0 42:0.0 43:0.0 44:0.0 45:0.0 46:0.0 47:0.0 48:0.03225806451612903 49:0.0 50:0.0 51:0.0 52:0.0 53:0.0 54:0.0 55:0.06451612903225806 56:0.0 57:0.03225806451612903 58:0.16129032258064516 
1.0 0:0.2 1:0.28 2:0.0 3:0.04 4:0.0 5:0.0 6:0.04 7:0.0 8:0.0 9:0.0 10:0.12 11:0.0 12:0.0 13:0.0 14:0.0 15:0.04 16:0.0 17:0.0 18:0.0 19:0.0 20:0.0 21:0.0 22:0.0 23:0.0 24:0.0 25:0.0 26:0.0 27:0.0 28:0.0 29:0.0 30:0.04 31:0.08 32:0.04 33:0.0 34:0.0 35:0.0 36:0.0 37:0.0 38:0.08 39:0.04 40:0.0 41:0.04 42:0.0 43:0.0 44:0.08 45:0.04 46:0.12 47:0.0 48:0.08 49:0.04 50:0.0 51:0.0 52:0.0 53:0.0 54:0.0 55:0.04 56:0.0 57:0.12 58:1.0 
1.0 0:0.0 1:0.0 2:0.0 3:0.0 4:0.0 5:0.0 6:0.05714285714285714 7:0.0 8:0.0 9:0.0 10:0.02857142857142857 11:0.0 12:0.0 13:0.0 14:0.0 15:0.0 16:0.0 17:0.0 18:0.0 19:0.0 20:0.0 21:0.0 22:0.0 23:0.0 24:0.0 25:0.0 26:0.0 27:0.0 28:0.0 29:0.0 30:0.0 31:0.34285714285714286 32:0.17142857142857143 33:0.0 34:0.0 35:0.0 36:0.0 37:0.08571428571428572 38:1.0 39:0.0 40:0.0 41:0.0 42:0.0 43:0.0 44:0.14285714285714285 45:0.0 46:0.0 47:0.0 48:0.0 49:0.0 50:0.0 51:0.0 52:0.0 53:0.0 54:0.0 55:0.0 56:0.0 57:0.0 58:0.0 
1.0 0:0.0 1:0.0 2:0.0 3:0.03225806451612903 4:0.0 5:0.0 6:0.03225806451612903 7:0.0 8:0.0 9:0.0 10:0.03225806451612903 11:0.0 12:0.0 13:0.0 14:0.0 15:0.0 16:0.0 17:0.0 18:0.0 19:0.0 20:0.0 21:0.0 22:0.0 23:0.0 24:0.0 25:0.0 26:0.0 27:0.0 28:0.0 29:0.0 30:0.03225806451612903 31:0.25806451612903225 32:0.25806451612903225 33:0.0 34:0.0 35:0.0 36:0.0 37:0.12903225806451613 38:1.0 39:0.25806451612903225 40:0.0 41:0.0 42:0.0 43:0.0 44:0.03225806451612903 45:0.0 46:0.0 47:0.0 48:0.0 49:0.0 50:0.0 51:0.0 52:0.0 53:0.0 54:0.0 55:0.0 56:0.0 57:0.0 58:0.0 
1.0 0:0.0 1:0.0 2:0.0 3:0.0 4:0.0 5:0.0 6:0.041666666666666664 7:0.0 8:0.0 9:0.0 10:0.0 11:0.0 12:0.0 13:0.0 14:0.0 15:0.0 16:0.0 17:0.0 18:0.0 19:0.0 20:0.0 21:0.0 22:0.0 23:0.0 24:0.0 25:0.0 26:0.0 27:0.0 28:0.0 29:0.0 30:0.0 31:0.14583333333333334 32:1.0 33:0.041666666666666664 34:0.0 35:0.0 36:0.0 37:0.0 38:0.0625 39:0.0 40:0.0 41:0.0 42:0.0 43:0.020833333333333332 44:0.020833333333333332 45:0.0 46:0.0 47:0.0 48:0.0 49:0.0 50:0.0 51:0.0 52:0.0 53:0.0 54:0.0 55:0.0 56:0.0 57:0.0 58:0.0 
1.0 0:0.03225806451612903 1:0.0 2:0.0 3:0.03225806451612903 4:0.0 5:0.0 6:0.0 7:0.0 8:0.0 9:0.0 10:0.0 11:0.0 12:0.0 13:0.0 14:0.0 15:0.0 16:0.0 17:0.0 18:0.0 19:0.0 20:0.0 21:0.03225806451612903 22:0.0 23:0.0 24:0.0 25:0.0 26:0.0 27:0.0 28:0.0 29:0.0 30:0.03225806451612903 31:0.16129032258064516 32:1.0 33:0.03225806451612903 34:0.0 35:0.0 36:0.0 37:0.0 38:0.0967741935483871 39:0.06451612903225806 40:0.0 41:0.0 42:0.0 43:0.0 44:0.0 45:0.0 46:0.0 47:0.0 48:0.0 49:0.0 50:0.03225806451612903 51:0.0 52:0.0 53:0.0 54:0.0 55:0.0 56:0.0 57:0.0967741935483871 58:0.45161290322580644 
1.0 0:0.0 1:0.0625 2:0.0 3:0.0 4:0.0 5:0.0 6:0.0 7:0.0 8:0.0 9:0.0 10:0.0625 11:0.0 12:0.0 13:0.0 14:0.0 15:0.0 16:0.0 17:0.0 18:0.0 19:0.0 20:0.0 21:0.0 22:0.0 23:0.0 24:0.0 25:0.0 26:0.0 27:0.0 28:0.0 29:0.0 30:0.0625 31:0.21875 32:0.03125 33:0.0 34:0.0625 35:0.0 36:0.0 37:0.0 38:1.0 39:0.03125 40:0.0 41:0.0625 42:0.0 43:0.03125 44:0.03125 45:0.0 46:0.03125 47:0.0 48:0.03125 49:0.0 50:0.03125 51:0.0 52:0.0 53:0.0 54:0.0 55:0.0 56:0.0 57:0.0 58:0.25 
1.0 0:0.12121212121212122 1:0.12121212121212122 2:0.0 3:0.0 4:0.0 5:0.0 6:0.0 7:0.0 8:0.0 9:0.0 10:0.12121212121212122 11:0.0 12:0.0 13:0.0 14:0.0 15:0.0 16:0.0 17:0.0 18:0.0 19:0.0 20:0.0 21:0.0 22:0.0 23:0.0 24:0.0 25:0.0 26:0.0 27:0.0 28:0.0 29:0.0 30:0.06060606060606061 31:0.09090909090909091 32:0.21212121212121213 33:0.0 34:0.0 35:0.0 36:0.0 37:0.09090909090909091 38:1.0 39:0.0 40:0.0 41:0.030303030303030304 42:0.0 43:0.0 44:0.0 45:0.0 46:0.0 47:0.0 48:0.0 49:0.030303030303030304 50:0.030303030303030304 51:0.0 52:0.0 53:0.0 54:0.0 55:0.0 56:0.0 57:0.0 58:0.030303030303030304 
1.0 0:0.12903225806451613 1:0.0967741935483871 2:0.0 3:0.0 4:0.0 5:0.0 6:0.0 7:0.0 8:0.0 9:0.0 10:0.12903225806451613 11:0.0 12:0.0 13:0.0 14:0.0 15:0.0 16:0.0 17:0.0 18:0.0 19:0.0 20:0.0 21:0.0 22:0.0 23:0.0 24:0.0 25:0.0 26:0.0 27:0.0 28:0.0 29:0.0 30:0.0 31:0.06451612903225806 32:0.16129032258064516 33:0.0 34:0.03225806451612903 35:0.0 36:0.0 37:0.06451612903225806 38:1.0 39:0.06451612903225806 40:0.03225806451612903 41:0.0 42:0.0 43:0.03225806451612903 44:0.0967741935483871 45:0.0 46:0.0 47:0.0 48:0.0 49:0.03225806451612903 50:0.0 51:0.0 52:0.0 53:0.0 54:0.0 55:0.0 56:0.0 57:0.0 58:0.12903225806451613 
1.0 0:0.030303030303030304 1:0.12121212121212122 2:0.0 3:0.030303030303030304 4:0.0 5:0.0 6:0.030303030303030304 7:0.0 8:0.0 9:0.0 10:0.12121212121212122 11:0.0 12:0.0 13:0.0 14:0.0 15:0.0 16:0.0 17:0.0 18:0.0 19:0.0 20:0.0 21:0.0 22:0.0 23:0.0 24:0.0 25:0.0 26:0.0 27:0.0 28:0.0 29:0.0 30:0.15151515151515152 31:0.09090909090909091 32:0.06060606060606061 33:0.0 34:0.0 35:0.0 36:0.0 37:0.030303030303030304 38:1.0 39:0.030303030303030304 40:0.030303030303030304 41:0.0 42:0.0 43:0.09090909090909091 44:0.0 45:0.030303030303030304 46:0.0 47:0.0 48:0.0 49:0.0 50:0.0 51:0.0 52:0.0 53:0.0 54:0.0 55:0.0 56:0.0 57:0.0 58:0.09090909090909091 
1.0 0:0.11764705882352941 1:0.058823529411764705 2:0.0 3:0.08823529411764706 4:0.0 5:0.0 6:0.029411764705882353 7:0.0 8:0.0 9:0.0 10:0.029411764705882353 11:0.0 12:0.0 13:0.0 14:0.0 15:0.0 16:0.0 17:0.0 18:0.0 19:0.0 20:0.0 21:0.0 22:0.0 23:0.0 24:0.0 25:0.0 26:0.0 27:0.0 28:0.0 29:0.0 30:0.058823529411764705 31:0.17647058823529413 32:1.0 33:0.029411764705882353 34:0.0 35:0.029411764705882353 36:0.0 37:0.029411764705882353 38:0.029411764705882353 39:0.029411764705882353 40:0.0 41:0.029411764705882353 42:0.0 43:0.029411764705882353 44:0.0 45:0.0 46:0.0 47:0.0 48:0.0 49:0.0 50:0.0 51:0.0 52:0.0 53:0.0 54:0.0 55:0.0 56:0.0 57:0.029411764705882353 58:0.08823529411764706 
1.0 0:0.058823529411764705 1:0.029411764705882353 2:0.0 3:0.11764705882352941 4:0.0 5:0.0 6:0.058823529411764705 7:0.0 8:0.0 9:0.0 10:0.0 11:0.0 12:0.0 13:0.0 14:0.0 15:0.0 16:0.0 17:0.0 18:0.0 19:0.0 20:0.0 21:0.0 22:0.0 23:0.0 24:0.0 25:0.0 26:0.0 27:0.0 28:0.0 29:0.0 30:0.08823529411764706 31:0.029411764705882353 32:0.14705882352941177 33:0.0 34:0.029411764705882353 35:0.0 36:0.0 37:0.08823529411764706 38:1.0 39:0.0 40:0.0 41:0.029411764705882353 42:0.0 43:0.0 44:0.0 45:0.0 46:0.0 47:0.0 48:0.0 49:0.0 50:0.029411764705882353 51:0.0 52:0.0 53:0.0 54:0.0 55:0.0 56:0.0 57:0.0 58:0.17647058823529413 
1.0 0:0.07692307692307693 1:0.19230769230769232 2:0.0 3:0.15384615384615385 4:0.0 5:0.0 6:0.038461538461538464 7:0.0 8:0.0 9:0.0 10:0.038461538461538464 11:0.0 12:0.0 13:0.0 14:0.0 15:0.038461538461538464 16:0.0 17:0.0 18:0.0 19:0.0 20:0.0 21:0.0 22:0.0 23:0.0 24:0.0 25:0.0 26:0.0 27:0.0 28:0.0 29:0.0 30:0.07692307692307693 31:0.19230769230769232 32:0.07692307692307693 33:0.0 34:0.038461538461538464 35:0.0 36:0.0 37:0.0 38:1.0 39:0.15384615384615385 40:0.038461538461538464 41:0.038461538461538464 42:0.0 43:0.038461538461538464 44:0.0 45:0.0 46:0.07692307692307693 47:0.0 48:0.0 49:0.0 50:0.0 51:0.0 52:0.0 53:0.0 54:0.0 55:0.0 56:0.0 57:0.07692307692307693 58:0.11538461538461539 
1.0 0:0.0 1:0.09375 2:0.0 3:0.09375 4:0.0 5:0.0 6:0.0625 7:0.0 8:0.0 9:0.0 10:0.0625 11:0.0 12:0.0 13:0.0 14:0.0 15:0.0 16:0.0 17:0.0 18:0.0 19:0.0 20:0.0 21:0.0 22:0.0 23:0.0 24:0.0 25:0.0 26:0.0 27:0.0 28:0.0 29:0.0 30:0.0625 31:0.1875 32:1.0 33:0.0 34:0.0 35:0.0 36:0.0 37:0.09375 38:0.21875 39:0.03125 40:0.0 41:0.0 42:0.0 43:0.03125 44:0.0 45:0.03125 46:0.0 47:0.0 48:0.0 49:0.0 50:0.0 51:0.0 52:0.0 53:0.0 54:0.0 55:0.0 56:0.0 57:0.0 58:0.03125 
1.0 0:0.0 1:0.034482758620689655 2:0.0 3:0.034482758620689655 4:0.0 5:0.0 6:1.0 7:0.0 8:0.0 9:0.0 10:0.0 11:0.0 12:0.0 13:0.0 14:0.0 15:0.0 16:0.0 17:0.0 18:0.0 19:0.0 20:0.0 21:0.0 22:0.0 23:0.0 24:0.0 25:0.0 26:0.0 27:0.0 28:0.0 29:0.0 30:0.0 31:0.3103448275862069 32:0.13793103448275862 33:0.0 34:0.0 35:0.0 36:0.0 37:0.27586206896551724 38:0.13793103448275862 39:0.0 40:0.0 41:0.0 42:0.0 43:0.0 44:0.0 45:0.0 46:0.0 47:0.0 48:0.0 49:0.0 50:0.0 51:0.0 52:0.0 53:0.0 54:0.0 55:0.0 56:0.0 57:0.0 58:0.27586206896551724 
1.0 0:0.0 1:0.0 2:0.0 3:0.03125 4:0.0 5:0.0 6:1.0 7:0.0 8:0.0 9:0.0 10:0.0625 11:0.0 12:0.0 13:0.0 14:0.0 15:0.0 16:0.0 17:0.0 18:0.0 19:0.0 20:0.0 21:0.0 22:0.0 23:0.0 24:0.0 25:0.0 26:0.0 27:0.0 28:0.0 29:0.0 30:0.0 31:0.21875 32:0.125 33:0.0 34:0.0 35:0.0 36:0.0 37:0.1875 38:0.125 39:0.0 40:0.0 41:0.0 42:0.0 43:0.0 44:0.0 45:0.03125 46:0.0 47:0.0 48:0.0 49:0.0 50:0.03125 51:0.0 52:0.0 53:0.0 54:0.0 55:0.0 56:0.0 57:0.0 58:0.1875 
1.0 0:0.0 1:0.13043478260869565 2:0.0 3:0.21739130434782608 4:0.0 5:0.0 6:0.13043478260869565 7:0.0 8:0.0 9:0.0 10:0.043478260869565216 11:0.0 12:0.0 13:0.0 14:0.0 15:0.043478260869565216 16:0.0 17:0.0 18:0.0 19:0.0 20:0.0 21:0.0 22:0.0 23:0.0 24:0.0 25:0.0 26:0.0 27:0.0 28:0.0 29:0.0 30:0.0 31:0.391304347826087 32:1.0 33:0.08695652173913043 34:0.0 35:0.0 36:0.0 37:0.0 38:0.13043478260869565 39:0.13043478260869565 40:0.0 41:0.043478260869565216 42:0.0 43:0.0 44:0.21739130434782608 45:0.0 46:0.0 47:0.0 48:0.0 49:0.08695652173913043 50:0.0 51:0.0 52:0.0 53:0.0 54:0.0 55:0.0 56:0.0 57:0.0 58:0.13043478260869565 
1.0 0:0.0 1:0.0 2:0.0 3:0.0 4:0.0 5:0.0 6:0.07407407407407407 7:0.0 8:0.0 9:0.0 10:0.037037037037037035 11:0.0 12:0.0 13:0.0 14:0.0 15:0.0 16:0.0 17:0.0 18:0.0 19:0.0 20:0.0 21:0.0 22:0.0 23:0.0 24:0.0 25:0.0 26:0.0 27:0.0 28:0.0 29:0.0 30:0.0 31:0.48148148148148145 32:1.0 33:0.1111111111111111 34:0.0 35:0.0 36:0.0 37:0.037037037037037035 38:0.1111111111111111 39:0.037037037037037035 40:0.0 41:0.0 42:0.0 43:0.07407407407407407 44:0.0 45:0.0 46:0.0 47:0.0 48:0.0 49:0.0 50:0.2222222222222222 51:0.0 52:0.0 53:0.0 54:0.0 55:0.0 56:0.0 57:0.0 58:0.18518518518518517 
1.0 0:0.0 1:0.0 2:0.0 3:0.0 4:0.0 5:0.0 6:0.0 7:0.0 8:0.0 9:0.0 10:0.17391304347826086 11:0.0 12:0.0 13:0.0 14:0.0 15:0.0 16:0.0 17:0.0 18:0.0 19:0.0 20:0.0 21:0.0 22:0.0 23:0.0 24:0.0 25:0.0 26:0.0 27:0.0 28:0.0 29:0.0 30:0.043478260869565216 31:0.17391304347826086 32:0.43478260869565216 33:0.08695652173913043 34:0.08695652173913043 35:0.0 36:0.0 37:0.043478260869565216 38:1.0 39:0.17391304347826086 40:0.043478260869565216 41:0.08695652173913043 42:0.0 43:0.08695652173913043 44:0.043478260869565216 45:0.043478260869565216 46:0.0 47:0.0 48:0.0 49:0.08695652173913043 50:0.043478260869565216 51:0.0 52:0.0 53:0.0 54:0.0 55:0.0 56:0.0 57:0.08695652173913043 58:0.043478260869565216 
1.0 0:0.16 1:0.2 2:0.0 3:0.12 4:0.0 5:0.0 6:0.0 7:0.0 8:0.0 9:0.0 10:0.04 11:0.0 12:0.0 13:0.0 14:0.0 15:0.0 16:0.0 17:0.0 18:0.0 19:0.0 20:0.0 21:0.0 22:0.0 23:0.0 24:0.0 25:0.0 26:0.0 27:0.0 28:0.04 29:0.0 30:0.04 31:1.0 32:0.12 33:0.0 34:0.08 35:0.0 36:0.0 37:0.12 38:0.16 39:0.04 40:0.08 41:0.0 42:0.0 43:0.0 44:0.04 45:0.0 46:0.0 47:0.0 48:0.0 49:0.0 50:0.08 51:0.0 52:0.0 53:0.0 54:0.0 55:0.0 56:0.0 57:0.0 58:0.24 
1.0 0:0.038461538461538464 1:0.11538461538461539 2:0.0 3:0.07692307692307693 4:0.0 5:0.0 6:0.0 7:0.0 8:0.0 9:0.0 10:0.11538461538461539 11:0.0 12:0.0 13:0.0 14:0.0 15:0.0 16:0.0 17:0.0 18:0.0 19:0.0 20:0.0 21:0.0 22:0.0 23:0.0 24:0.0 25:0.0 26:0.0 27:0.0 28:0.038461538461538464 29:0.0 30:0.07692307692307693 31:0.038461538461538464 32:1.0 33:0.0 34:0.038461538461538464 35:0.0 36:0.0 37:0.0 38:0.23076923076923078 39:0.19230769230769232 40:0.0 41:0.0 42:0.0 43:0.19230769230769232 44:0.038461538461538464 45:0.0 46:0.0 47:0.0 48:0.0 49:0.0 50:0.038461538461538464 51:0.0 52:0.0 53:0.0 54:0.0 55:0.0 56:0.0 57:0.0 58:0.23076923076923078 
1.0 0:0.07407407407407407 1:0.1111111111111111 2:0.0 3:0.14814814814814814 4:0.0 5:0.0 6:0.037037037037037035 7:0.0 8:0.0 9:0.0 10:0.14814814814814814 11:0.0 12:0.0 13:0.0 14:0.0 15:0.0 16:0.0 17:0.0 18:0.0 19:0.0 20:0.0 21:0.0 22:0.0 23:0.0 24:0.0 25:0.0 26:0.0 27:0.0 28:0.0 29:0.0 30:0.037037037037037035 31:0.14814814814814814 32:0.2222222222222222 33:0.0 34:0.0 35:0.0 36:0.0 37:0.14814814814814814 38:1.0 39:0.2222222222222222 40:0.0 41:0.0 42:0.0 43:0.0 44:0.0 45:0.0 46:0.0 47:0.0 48:0.037037037037037035 49:0.0 50:0.0 51:0.0 52:0.0 53:0.0 54:0.0 55:0.0 56:0.0 57:0.0 58:0.037037037037037035 
1.0 0:0.04 1:0.24 2:0.0 3:0.08 4:0.0 5:0.0 6:0.08 7:0.0 8:0.0 9:0.0 10:0.0 11:0.0 12:0.0 13:0.0 14:0.0 15:0.0 16:0.0 17:0.0 18:0.0 19:0.0 20:0.0 21:0.04 22:0.0 23:0.0 24:0.0 25:0.0 26:0.0 27:0.0 28:0.0 29:0.0 30:0.08 31:0.04 32:1.0 33:0.0 34:0.0 35:0.0 36:0.0 37:0.0 38:0.08 39:0.16 40:0.0 41:0.0 42:0.0 43:0.12 44:0.16 45:0.04 46:0.0 47:0.0 48:0.0 49:0.04 50:0.04 51:0.0 52:0.0 53:0.0 54:0.0 55:0.0 56:0.0 57:0.04 58:0.28 
1.0 0:0.23076923076923078 1:0.2692307692307692 2:0.0 3:0.038461538461538464 4:0.0 5:0.0 6:0.038461538461538464 7:0.0 8:0.0 9:0.0 10:0.038461538461538464 11:0.0 12:0.0 13:0.0 14:0.0 15:0.0 16:0.0 17:0.0 18:0.0 19:0.0 20:0.0 21:0.038461538461538464 22:0.0 23:0.0 24:0.0 25:0.0 26:0.0 27:0.0 28:0.07692307692307693 29:0.0 30:0.19230769230769232 31:0.0 32:0.038461538461538464 33:0.0 34:0.0 35:0.038461538461538464 36:0.0 37:0.0 38:0.038461538461538464 39:0.0 40:0.0 41:0.07692307692307693 42:0.0 43:0.0 44:0.07692307692307693 45:0.0 46:0.0 47:0.0 48:0.0 49:0.038461538461538464 50:0.0 51:0.0 52:0.038461538461538464 53:0.0 54:0.0 55:0.038461538461538464 56:0.0 57:0.15384615384615385 58:1.0 
1.0 0:0.1724137931034483 1:0.3793103448275862 2:0.0 3:0.06896551724137931 4:0.0 5:0.0 6:0.0 7:0.0 8:0.0 9:0.0 10:0.034482758620689655 11:0.0 12:0.0 13:0.0 14:0.0 15:0.0 16:0.0 17:0.0 18:0.0 19:0.0 20:0.0 21:0.034482758620689655 22:0.0 23:0.0 24:0.0 25:0.0 26:0.0 27:0.0 28:0.0 29:0.0 30:0.034482758620689655 31:0.06896551724137931 32:0.034482758620689655 33:0.034482758620689655 34:0.0 35:0.0 36:0.0 37:0.034482758620689655 38:0.0 39:0.0 40:0.0 41:0.0 42:0.0 43:0.0 44:0.0 45:0.034482758620689655 46:0.0 47:0.0 48:0.0 49:0.06896551724137931 50:0.0 51:0.0 52:0.034482758620689655 53:0.034482758620689655 54:0.0 55:0.034482758620689655 56:0.0 57:0.10344827586206896 58:1.0 
1.0 0:0.07142857142857142 1:0.21428571428571427 2:0.0 3:0.0 4:0.0 5:0.0 6:0.2857142857142857 7:0.0 8:0.0 9:0.0 10:0.10714285714285714 11:0.0 12:0.0 13:0.0 14:0.0 15:0.0 16:0.0 17:0.0 18:0.0 19:0.0 20:0.0 21:0.0 22:0.0 23:0.0 24:0.0 25:0.0 26:0.0 27:0.0 28:0.0 29:0.0 30:0.07142857142857142 31:0.03571428571428571 32:1.0 33:0.0 34:0.0 35:0.0 36:0.0 37:0.07142857142857142 38:0.14285714285714285 39:0.0 40:0.0 41:0.07142857142857142 42:0.0 43:0.0 44:0.0 45:0.0 46:0.0 47:0.0 48:0.0 49:0.0 50:0.14285714285714285 51:0.0 52:0.0 53:0.0 54:0.0 55:0.0 56:0.0 57:0.0 58:0.07142857142857142 
